<?xml version="1.0"?>
<opencv_storage>
<cascade>
  <stageType>BOOST</stageType>
  <featureType>HAAR</featureType>
  <height>24</height>
  <width>24</width>
  <stageParams>
    <boostType>GAB</boostType>
    <minHitRate>9.9500000476837158e-01</minHitRate>
    <maxFalseAlarm>5.0000000000000000e-01</maxFalseAlarm>
    <weightTrimRate>9.4999998807907104e-01</weightTrimRate>
    <maxDepth>1</maxDepth>
    <maxWeakCount>100</maxWeakCount></stageParams>
  <featureParams>
    <maxCatCount>0</maxCatCount>
    <featSize>1</featSize>
    <mode>BASIC</mode></featureParams>
  <stageNum>9</stageNum>
  <stages>
    <!-- stage 0 -->
    <_>
      <maxWeakCount>1</maxWeakCount>
      <stageThreshold>1.</stageThreshold>
      <weakClassifiers>
        <_>
          <internalNodes>
            0 -1 14 2.5515142083168030e-01</internalNodes>
          <leafValues>
            -1. 1.</leafValues></_></weakClassifiers></_>
    <!-- stage 1 -->
    <_>
      <maxWeakCount>2</maxWeakCount>
      <stageThreshold>-8.6789704859256744e-02</stageThreshold>
      <weakClassifiers>
        <_>
          <internalNodes>
            0 -1 23 1.3213062658905983e-02</internalNodes>
          <leafValues>
            -9.6330273151397705e-01 7.6699030399322510e-01</leafValues></_>
        <_>
          <internalNodes>
            0 -1 11 4.9326980113983154e-01</internalNodes>
          <leafValues>
            -8.5377997159957886e-01 9.1385614871978760e-01</leafValues></_></weakClassifiers></_>
    <!-- stage 2 -->
    <_>
      <maxWeakCount>2</maxWeakCount>
      <stageThreshold>-3.0728253722190857e-01</stageThreshold>
      <weakClassifiers>
        <_>
          <internalNodes>
            0 -1 19 -3.8480803370475769e-02</internalNodes>
          <leafValues>
            6.7272728681564331e-01 -9.8039215803146362e-01</leafValues></_>
        <_>
          <internalNodes>
            0 -1 24 1.9541416317224503e-02</internalNodes>
          <leafValues>
            -8.6679804325103760e-01 6.7310959100723267e-01</leafValues></_></weakClassifiers></_>
    <!-- stage 3 -->
    <_>
      <maxWeakCount>2</maxWeakCount>
      <stageThreshold>-2.4730689823627472e-01</stageThreshold>
      <weakClassifiers>
        <_>
          <internalNodes>
            0 -1 1 8.0269604921340942e-01</internalNodes>
          <leafValues>
            -8.9743590354919434e-01 8.3157896995544434e-01</leafValues></_>
        <_>
          <internalNodes>
            0 -1 2 -1.3605396449565887e-01</internalNodes>
          <leafValues>
            6.5012902021408081e-01 -9.0609598159790039e-01</leafValues></_></weakClassifiers></_>
    <!-- stage 4 -->
    <_>
      <maxWeakCount>3</maxWeakCount>
      <stageThreshold>-8.8405603170394897e-01</stageThreshold>
      <weakClassifiers>
        <_>
          <internalNodes>
            0 -1 22 1.2317063286900520e-02</internalNodes>
          <leafValues>
            -8.8888889551162720e-01 6.7307692766189575e-01</leafValues></_>
        <_>
          <internalNodes>
            0 -1 7 -4.6065291389822960e-03</internalNodes>
          <leafValues>
            6.6087335348129272e-01 -7.4381333589553833e-01</leafValues></_>
        <_>
          <internalNodes>
            0 -1 8 -7.1286454796791077e-02</internalNodes>
          <leafValues>
            8.4998953342437744e-01 -6.5604048967361450e-01</leafValues></_></weakClassifiers></_>
    <!-- stage 5 -->
    <_>
      <maxWeakCount>4</maxWeakCount>
      <stageThreshold>-3.9319458603858948e-01</stageThreshold>
      <weakClassifiers>
        <_>
          <internalNodes>
            0 -1 0 4.6822026371955872e-01</internalNodes>
          <leafValues>
            -9.3478262424468994e-01 5.0000000000000000e-01</leafValues></_>
        <_>
          <internalNodes>
            0 -1 16 -2.1984133869409561e-02</internalNodes>
          <leafValues>
            8.4561973810195923e-01 -6.8081092834472656e-01</leafValues></_>
        <_>
          <internalNodes>
            0 -1 4 9.5994509756565094e-03</internalNodes>
          <leafValues>
            -5.6803828477859497e-01 7.4226588010787964e-01</leafValues></_>
        <_>
          <internalNodes>
            0 -1 3 3.3903516829013824e-02</internalNodes>
          <leafValues>
            -9.1172099113464355e-01 4.8013311624526978e-01</leafValues></_></weakClassifiers></_>
    <!-- stage 6 -->
    <_>
      <maxWeakCount>4</maxWeakCount>
      <stageThreshold>-8.3463037014007568e-01</stageThreshold>
      <weakClassifiers>
        <_>
          <internalNodes>
            0 -1 18 3.3071413636207581e-02</internalNodes>
          <leafValues>
            -8.5263156890869141e-01 4.7008547186851501e-01</leafValues></_>
        <_>
          <internalNodes>
            0 -1 6 3.2106486614793539e-03</internalNodes>
          <leafValues>
            -9.1618967056274414e-01 3.8617682456970215e-01</leafValues></_>
        <_>
          <internalNodes>
            0 -1 20 1.7348541319370270e-01</internalNodes>
          <leafValues>
            -7.6571720838546753e-01 5.1851803064346313e-01</leafValues></_>
        <_>
          <internalNodes>
            0 -1 5 1.4908716082572937e-01</internalNodes>
          <leafValues>
            -9.2517542839050293e-01 4.4015854597091675e-01</leafValues></_></weakClassifiers></_>
    <!-- stage 7 -->
    <_>
      <maxWeakCount>4</maxWeakCount>
      <stageThreshold>-1.3943515717983246e-01</stageThreshold>
      <weakClassifiers>
        <_>
          <internalNodes>
            0 -1 15 -1.2822347693145275e-02</internalNodes>
          <leafValues>
            7.9487180709838867e-01 -6.5671640634536743e-01</leafValues></_>
        <_>
          <internalNodes>
            0 -1 9 4.2716860771179199e-03</internalNodes>
          <leafValues>
            -9.0387523174285889e-01 5.8436703681945801e-01</leafValues></_>
        <_>
          <internalNodes>
            0 -1 10 -2.2985695302486420e-01</internalNodes>
          <leafValues>
            6.0942327976226807e-01 -8.2287997007369995e-01</leafValues></_>
        <_>
          <internalNodes>
            0 -1 17 -1.4027309603989124e-02</internalNodes>
          <leafValues>
            8.1173324584960938e-01 -6.0853379964828491e-01</leafValues></_></weakClassifiers></_>
    <!-- stage 8 -->
    <_>
      <maxWeakCount>4</maxWeakCount>
      <stageThreshold>-4.8436400294303894e-01</stageThreshold>
      <weakClassifiers>
        <_>
          <internalNodes>
            0 -1 21 8.5467562079429626e-02</internalNodes>
          <leafValues>
            -8.1052631139755249e-01 4.3589743971824646e-01</leafValues></_>
        <_>
          <internalNodes>
            0 -1 12 -3.0508231371641159e-02</internalNodes>
          <leafValues>
            7.9438060522079468e-01 -4.7407945990562439e-01</leafValues></_>
        <_>
          <internalNodes>
            0 -1 25 3.0192994745448232e-04</internalNodes>
          <leafValues>
            4.0737932920455933e-01 -9.4287228584289551e-01</leafValues></_>
        <_>
          <internalNodes>
            0 -1 13 -1.2576729059219360e-03</internalNodes>
          <leafValues>
            4.9669030308723450e-01 -7.5014239549636841e-01</leafValues></_></weakClassifiers></_></stages>
  <features>
    <_>
      <rects>
        <_>
          0 0 24 15 -1.</_>
        <_>
          12 0 12 15 2.</_></rects>
      <tilted>0</tilted></_>
    <_>
      <rects>
        <_>
          0 0 24 24 -1.</_>
        <_>
          12 0 12 24 2.</_></rects>
      <tilted>0</tilted></_>
    <_>
      <rects>
        <_>
          0 0 23 21 -1.</_>
        <_>
          0 7 23 7 3.</_></rects>
      <tilted>0</tilted></_>
    <_>
      <rects>
        <_>
          0 5 24 1 -1.</_>
        <_>
          12 5 12 1 2.</_></rects>
      <tilted>0</tilted></_>
    <_>
      <rects>
        <_>
          0 9 9 6 -1.</_>
        <_>
          3 9 3 6 3.</_></rects>
      <tilted>0</tilted></_>
    <_>
      <rects>
        <_>
          0 18 24 5 -1.</_>
        <_>
          12 18 12 5 2.</_></rects>
      <tilted>0</tilted></_>
    <_>
      <rects>
        <_>
          0 22 18 2 -1.</_>
        <_>
          0 23 18 1 2.</_></rects>
      <tilted>0</tilted></_>
    <_>
      <rects>
        <_>
          1 0 17 2 -1.</_>
        <_>
          1 1 17 1 2.</_></rects>
      <tilted>0</tilted></_>
    <_>
      <rects>
        <_>
          5 5 19 12 -1.</_>
        <_>
          5 9 19 4 3.</_></rects>
      <tilted>0</tilted></_>
    <_>
      <rects>
        <_>
          5 12 11 4 -1.</_>
        <_>
          5 14 11 2 2.</_></rects>
      <tilted>0</tilted></_>
    <_>
      <rects>
        <_>
          7 0 15 24 -1.</_>
        <_>
          7 8 15 8 3.</_></rects>
      <tilted>0</tilted></_>
    <_>
      <rects>
        <_>
          8 0 16 23 -1.</_>
        <_>
          16 0 8 23 2.</_></rects>
      <tilted>0</tilted></_>
    <_>
      <rects>
        <_>
          8 17 11 6 -1.</_>
        <_>
          8 19 11 2 3.</_></rects>
      <tilted>0</tilted></_>
    <_>
      <rects>
        <_>
          9 7 6 4 -1.</_>
        <_>
          9 9 6 2 2.</_></rects>
      <tilted>0</tilted></_>
    <_>
      <rects>
        <_>
          10 1 14 20 -1.</_>
        <_>
          17 1 7 20 2.</_></rects>
      <tilted>0</tilted></_>
    <_>
      <rects>
        <_>
          12 0 6 4 -1.</_>
        <_>
          12 2 6 2 2.</_></rects>
      <tilted>0</tilted></_>
    <_>
      <rects>
        <_>
          12 15 7 9 -1.</_>
        <_>
          12 18 7 3 3.</_></rects>
      <tilted>0</tilted></_>
    <_>
      <rects>
        <_>
          12 18 6 6 -1.</_>
        <_>
          12 20 6 2 3.</_></rects>
      <tilted>0</tilted></_>
    <_>
      <rects>
        <_>
          12 20 12 2 -1.</_>
        <_>
          18 20 6 2 2.</_></rects>
      <tilted>0</tilted></_>
    <_>
      <rects>
        <_>
          14 0 10 18 -1.</_>
        <_>
          14 6 10 6 3.</_></rects>
      <tilted>0</tilted></_>
    <_>
      <rects>
        <_>
          14 1 10 15 -1.</_>
        <_>
          19 1 5 15 2.</_></rects>
      <tilted>0</tilted></_>
    <_>
      <rects>
        <_>
          15 1 8 11 -1.</_>
        <_>
          19 1 4 11 2.</_></rects>
      <tilted>0</tilted></_>
    <_>
      <rects>
        <_>
          16 18 5 6 -1.</_>
        <_>
          16 21 5 3 2.</_></rects>
      <tilted>0</tilted></_>
    <_>
      <rects>
        <_>
          18 14 4 10 -1.</_>
        <_>
          18 19 4 5 2.</_></rects>
      <tilted>0</tilted></_>
    <_>
      <rects>
        <_>
          20 2 4 11 -1.</_>
        <_>
          22 2 2 11 2.</_></rects>
      <tilted>0</tilted></_>
    <_>
      <rects>
        <_>
          22 1 2 1 -1.</_>
        <_>
          23 1 1 1 2.</_></rects>
      <tilted>0</tilted></_></features></cascade>
</opencv_storage>
