<?xml version="1.0"?>
<opencv_storage>
<cascade>
  <stageType>BOOST</stageType>
  <featureType>HAAR</featureType>
  <height>24</height>
  <width>24</width>
  <stageParams>
    <boostType>GAB</boostType>
    <minHitRate>9.9500000476837158e-01</minHitRate>
    <maxFalseAlarm>5.0000000000000000e-01</maxFalseAlarm>
    <weightTrimRate>9.4999998807907104e-01</weightTrimRate>
    <maxDepth>1</maxDepth>
    <maxWeakCount>100</maxWeakCount></stageParams>
  <featureParams>
    <maxCatCount>0</maxCatCount>
    <featSize>1</featSize>
    <mode>BASIC</mode></featureParams>
  <stageNum>20</stageNum>
  <stages>
    <!-- stage 0 -->
    <_>
      <maxWeakCount>15</maxWeakCount>
      <stageThreshold>-1.1763662099838257e+00</stageThreshold>
      <weakClassifiers>
        <_>
          <internalNodes>
            0 -1 41 1.7270794510841370e-01</internalNodes>
          <leafValues>
            -3.0297398567199707e-01 8.2405745983123779e-01</leafValues></_>
        <_>
          <internalNodes>
            0 -1 17 4.5867502689361572e-02</internalNodes>
          <leafValues>
            -1.3706198334693909e-01 5.6402069330215454e-01</leafValues></_>
        <_>
          <internalNodes>
            0 -1 547 9.2407211661338806e-02</internalNodes>
          <leafValues>
            -1.2531113624572754e-01 8.0527967214584351e-01</leafValues></_>
        <_>
          <internalNodes>
            0 -1 265 8.6251758038997650e-03</internalNodes>
          <leafValues>
            1.6739656031131744e-01 -6.6171306371688843e-01</leafValues></_>
        <_>
          <internalNodes>
            0 -1 81 2.5125788524746895e-03</internalNodes>
          <leafValues>
            1.1262987554073334e-01 -7.4851661920547485e-01</leafValues></_>
        <_>
          <internalNodes>
            0 -1 276 7.0697657763957977e-02</internalNodes>
          <leafValues>
            -1.9047372043132782e-01 5.1013100147247314e-01</leafValues></_>
        <_>
          <internalNodes>
            0 -1 53 -7.0956103503704071e-02</internalNodes>
          <leafValues>
            6.1404120922088623e-01 -1.5983726084232330e-01</leafValues></_>
        <_>
          <internalNodes>
            0 -1 76 3.5615399479866028e-02</internalNodes>
          <leafValues>
            -1.5378236770629883e-01 5.5397582054138184e-01</leafValues></_>
        <_>
          <internalNodes>
            0 -1 136 1.6674755606800318e-03</internalNodes>
          <leafValues>
            1.5616327524185181e-01 -6.4262437820434570e-01</leafValues></_>
        <_>
          <internalNodes>
            0 -1 563 2.6021571829915047e-03</internalNodes>
          <leafValues>
            1.1126405000686646e-01 -7.2791618108749390e-01</leafValues></_>
        <_>
          <internalNodes>
            0 -1 774 9.6168491290882230e-04</internalNodes>
          <leafValues>
            9.1255970299243927e-02 -7.6828497648239136e-01</leafValues></_>
        <_>
          <internalNodes>
            0 -1 237 8.7893689051270485e-03</internalNodes>
          <leafValues>
            1.0240911692380905e-01 -6.5704047679901123e-01</leafValues></_>
        <_>
          <internalNodes>
            0 -1 18 -5.1803350448608398e-02</internalNodes>
          <leafValues>
            5.0027585029602051e-01 -1.8615482747554779e-01</leafValues></_>
        <_>
          <internalNodes>
            0 -1 217 2.1907586604356766e-02</internalNodes>
          <leafValues>
            1.4425018429756165e-01 -9.0580177307128906e-01</leafValues></_>
        <_>
          <internalNodes>
            0 -1 567 -9.6145179122686386e-04</internalNodes>
          <leafValues>
            -6.7356687784194946e-01 5.5006511509418488e-02</leafValues></_></weakClassifiers></_>
    <!-- stage 1 -->
    <_>
      <maxWeakCount>17</maxWeakCount>
      <stageThreshold>-9.7354722023010254e-01</stageThreshold>
      <weakClassifiers>
        <_>
          <internalNodes>
            0 -1 26 2.2278916835784912e-01</internalNodes>
          <leafValues>
            -2.4153704941272736e-01 7.3518520593643188e-01</leafValues></_>
        <_>
          <internalNodes>
            0 -1 350 2.6744776964187622e-01</internalNodes>
          <leafValues>
            -6.6453687846660614e-02 8.0341625213623047e-01</leafValues></_>
        <_>
          <internalNodes>
            0 -1 280 1.5902544558048248e-01</internalNodes>
          <leafValues>
            -1.3730871677398682e-01 6.3121682405471802e-01</leafValues></_>
        <_>
          <internalNodes>
            0 -1 531 2.4744719266891479e-03</internalNodes>
          <leafValues>
            1.0627828538417816e-01 -6.4810138940811157e-01</leafValues></_>
        <_>
          <internalNodes>
            0 -1 702 2.5167746935039759e-03</internalNodes>
          <leafValues>
            7.9672731459140778e-02 -6.9484722614288330e-01</leafValues></_>
        <_>
          <internalNodes>
            0 -1 778 2.3634068202227354e-03</internalNodes>
          <leafValues>
            -1.7641812562942505e-01 3.5302367806434631e-01</leafValues></_>
        <_>
          <internalNodes>
            0 -1 681 -1.3991685584187508e-02</internalNodes>
          <leafValues>
            3.9962100982666016e-01 -1.5587060153484344e-01</leafValues></_>
        <_>
          <internalNodes>
            0 -1 649 3.2495884224772453e-03</internalNodes>
          <leafValues>
            1.2275194376707077e-01 -6.3038390874862671e-01</leafValues></_>
        <_>
          <internalNodes>
            0 -1 498 -1.2697303900495172e-03</internalNodes>
          <leafValues>
            2.3965437710285187e-01 -2.5096210837364197e-01</leafValues></_>
        <_>
          <internalNodes>
            0 -1 456 -1.7322222702205181e-03</internalNodes>
          <leafValues>
            -7.6214039325714111e-01 9.1812968254089355e-02</leafValues></_>
        <_>
          <internalNodes>
            0 -1 70 -3.7200662773102522e-03</internalNodes>
          <leafValues>
            -7.6334136724472046e-01 5.5409543216228485e-02</leafValues></_>
        <_>
          <internalNodes>
            0 -1 545 -3.4728229045867920e-02</internalNodes>
          <leafValues>
            3.2201027870178223e-01 -1.7793062329292297e-01</leafValues></_>
        <_>
          <internalNodes>
            0 -1 140 2.1610803902149200e-02</internalNodes>
          <leafValues>
            -1.4245873689651489e-01 4.5707696676254272e-01</leafValues></_>
        <_>
          <internalNodes>
            0 -1 60 1.6267579048871994e-03</internalNodes>
          <leafValues>
            8.0396875739097595e-02 -7.5039649009704590e-01</leafValues></_>
        <_>
          <internalNodes>
            0 -1 69 -3.0398041009902954e-02</internalNodes>
          <leafValues>
            2.9685315489768982e-01 -1.9522251188755035e-01</leafValues></_>
        <_>
          <internalNodes>
            0 -1 293 -1.8951774109154940e-03</internalNodes>
          <leafValues>
            3.6569392681121826e-01 -1.4708504080772400e-01</leafValues></_>
        <_>
          <internalNodes>
            0 -1 261 1.0426787193864584e-03</internalNodes>
          <leafValues>
            8.4220789372920990e-02 -6.8383669853210449e-01</leafValues></_></weakClassifiers></_>
    <!-- stage 2 -->
    <_>
      <maxWeakCount>28</maxWeakCount>
      <stageThreshold>-1.0755398273468018e+00</stageThreshold>
      <weakClassifiers>
        <_>
          <internalNodes>
            0 -1 33 3.2765352725982666e-01</internalNodes>
          <leafValues>
            -1.2412371486425400e-01 6.7419737577438354e-01</leafValues></_>
        <_>
          <internalNodes>
            0 -1 407 -1.9220546819269657e-03</internalNodes>
          <leafValues>
            2.9714915156364441e-01 -2.4642638862133026e-01</leafValues></_>
        <_>
          <internalNodes>
            0 -1 418 6.9494345225393772e-03</internalNodes>
          <leafValues>
            1.0683534294366837e-01 -6.5570342540740967e-01</leafValues></_>
        <_>
          <internalNodes>
            0 -1 416 -1.9458325579762459e-02</internalNodes>
          <leafValues>
            6.2926143407821655e-01 -1.1341506987810135e-01</leafValues></_>
        <_>
          <internalNodes>
            0 -1 482 -9.9860539194196463e-04</internalNodes>
          <leafValues>
            -5.1079624891281128e-01 1.3154952228069305e-01</leafValues></_>
        <_>
          <internalNodes>
            0 -1 259 2.6661628857254982e-02</internalNodes>
          <leafValues>
            -1.2367058545351028e-01 6.1217796802520752e-01</leafValues></_>
        <_>
          <internalNodes>
            0 -1 320 7.3285156395286322e-04</internalNodes>
          <leafValues>
            -1.8097458779811859e-01 2.7795162796974182e-01</leafValues></_>
        <_>
          <internalNodes>
            0 -1 387 -1.7006575362756848e-03</internalNodes>
          <leafValues>
            -6.4860999584197998e-01 8.6447224020957947e-02</leafValues></_>
        <_>
          <internalNodes>
            0 -1 765 2.0826107356697321e-03</internalNodes>
          <leafValues>
            3.8064245134592056e-02 -6.7115873098373413e-01</leafValues></_>
        <_>
          <internalNodes>
            0 -1 616 3.8635362870991230e-03</internalNodes>
          <leafValues>
            6.0450006276369095e-02 -6.7018401622772217e-01</leafValues></_>
        <_>
          <internalNodes>
            0 -1 197 1.7279459862038493e-03</internalNodes>
          <leafValues>
            -1.5762661397457123e-01 2.9651281237602234e-01</leafValues></_>
        <_>
          <internalNodes>
            0 -1 727 7.0690885186195374e-03</internalNodes>
          <leafValues>
            1.0385437309741974e-01 -4.9968206882476807e-01</leafValues></_>
        <_>
          <internalNodes>
            0 -1 729 -1.2851555366069078e-03</internalNodes>
          <leafValues>
            2.4739581346511841e-01 -1.8876184523105621e-01</leafValues></_>
        <_>
          <internalNodes>
            0 -1 489 -3.9729215204715729e-03</internalNodes>
          <leafValues>
            2.7525714039802551e-01 -1.7475740611553192e-01</leafValues></_>
        <_>
          <internalNodes>
            0 -1 305 4.0734872221946716e-02</internalNodes>
          <leafValues>
            -8.6790308356285095e-02 5.0380492210388184e-01</leafValues></_>
        <_>
          <internalNodes>
            0 -1 88 -1.5166670083999634e-01</internalNodes>
          <leafValues>
            5.4931235313415527e-01 -1.0690899938344955e-01</leafValues></_>
        <_>
          <internalNodes>
            0 -1 165 7.0678035262972116e-04</internalNodes>
          <leafValues>
            -1.5500330924987793e-01 2.9072365164756775e-01</leafValues></_>
        <_>
          <internalNodes>
            0 -1 84 -3.5158600658178329e-03</internalNodes>
          <leafValues>
            -7.1343761682510376e-01 6.8323306739330292e-02</leafValues></_>
        <_>
          <internalNodes>
            0 -1 353 -1.4746904373168945e-01</internalNodes>
          <leafValues>
            5.5372381210327148e-01 -9.2630431056022644e-02</leafValues></_>
        <_>
          <internalNodes>
            0 -1 776 8.7087498977780342e-03</internalNodes>
          <leafValues>
            6.9048024713993073e-02 -7.4301648139953613e-01</leafValues></_>
        <_>
          <internalNodes>
            0 -1 638 -2.4758622748777270e-04</internalNodes>
          <leafValues>
            2.2550688683986664e-01 -1.9408334791660309e-01</leafValues></_>
        <_>
          <internalNodes>
            0 -1 775 9.0642541181296110e-04</internalNodes>
          <leafValues>
            7.9969041049480438e-02 -5.4964411258697510e-01</leafValues></_>
        <_>
          <internalNodes>
            0 -1 252 6.3171947840601206e-04</internalNodes>
          <leafValues>
            -1.9742570817470551e-01 2.3368258774280548e-01</leafValues></_>
        <_>
          <internalNodes>
            0 -1 266 1.5960602089762688e-02</internalNodes>
          <leafValues>
            8.9953020215034485e-02 -5.2993309497833252e-01</leafValues></_>
        <_>
          <internalNodes>
            0 -1 84 3.0135735869407654e-03</internalNodes>
          <leafValues>
            7.4232615530490875e-02 -5.9187537431716919e-01</leafValues></_>
        <_>
          <internalNodes>
            0 -1 308 -2.8850268572568893e-03</internalNodes>
          <leafValues>
            -5.8599120378494263e-01 6.1700146645307541e-02</leafValues></_>
        <_>
          <internalNodes>
            0 -1 469 3.9328234270215034e-03</internalNodes>
          <leafValues>
            -1.3334111869335175e-01 3.0848780274391174e-01</leafValues></_>
        <_>
          <internalNodes>
            0 -1 444 -2.0559229888021946e-03</internalNodes>
          <leafValues>
            2.7713531255722046e-01 -1.6620038449764252e-01</leafValues></_></weakClassifiers></_>
    <!-- stage 3 -->
    <_>
      <maxWeakCount>30</maxWeakCount>
      <stageThreshold>-1.0172716379165649e+00</stageThreshold>
      <weakClassifiers>
        <_>
          <internalNodes>
            0 -1 32 2.1373012661933899e-01</internalNodes>
          <leafValues>
            -1.2126538157463074e-01 5.4747474193572998e-01</leafValues></_>
        <_>
          <internalNodes>
            0 -1 224 3.9265584945678711e-01</internalNodes>
          <leafValues>
            -8.0774694681167603e-02 6.5136313438415527e-01</leafValues></_>
        <_>
          <internalNodes>
            0 -1 487 2.1141355391591787e-03</internalNodes>
          <leafValues>
            5.8161664754152298e-02 -6.9632011651992798e-01</leafValues></_>
        <_>
          <internalNodes>
            0 -1 486 -8.5679878247901797e-04</internalNodes>
          <leafValues>
            -5.2677941322326660e-01 8.8331796228885651e-02</leafValues></_>
        <_>
          <internalNodes>
            0 -1 568 -1.6478423494845629e-03</internalNodes>
          <leafValues>
            -5.9665203094482422e-01 7.2068221867084503e-02</leafValues></_>
        <_>
          <internalNodes>
            0 -1 278 5.8059964794665575e-04</internalNodes>
          <leafValues>
            -1.9455578923225403e-01 2.2487612068653107e-01</leafValues></_>
        <_>
          <internalNodes>
            0 -1 741 -1.0792610701173544e-03</internalNodes>
          <leafValues>
            -4.8117455840110779e-01 8.7198063731193542e-02</leafValues></_>
        <_>
          <internalNodes>
            0 -1 54 2.3552753031253815e-02</internalNodes>
          <leafValues>
            -1.1911553144454956e-01 3.7203022837638855e-01</leafValues></_>
        <_>
          <internalNodes>
            0 -1 206 -7.2542265057563782e-02</internalNodes>
          <leafValues>
            3.7371477484703064e-01 -1.1954969912767410e-01</leafValues></_>
        <_>
          <internalNodes>
            0 -1 551 -1.4905823394656181e-02</internalNodes>
          <leafValues>
            2.5743204355239868e-01 -1.9889965653419495e-01</leafValues></_>
        <_>
          <internalNodes>
            0 -1 564 1.9669192843139172e-03</internalNodes>
          <leafValues>
            7.6251745223999023e-02 -6.0256576538085938e-01</leafValues></_>
        <_>
          <internalNodes>
            0 -1 283 -4.0550155972596258e-05</internalNodes>
          <leafValues>
            2.1968799829483032e-01 -2.1020813286304474e-01</leafValues></_>
        <_>
          <internalNodes>
            0 -1 723 9.2817569384351373e-04</internalNodes>
          <leafValues>
            -1.4363572001457214e-01 2.9293185472488403e-01</leafValues></_>
        <_>
          <internalNodes>
            0 -1 151 -1.3877288997173309e-01</internalNodes>
          <leafValues>
            3.7828516960144043e-01 -1.0998378694057465e-01</leafValues></_>
        <_>
          <internalNodes>
            0 -1 156 7.8029916621744633e-03</internalNodes>
          <leafValues>
            -1.7751099169254303e-01 3.1407868862152100e-01</leafValues></_>
        <_>
          <internalNodes>
            0 -1 501 -5.3719038987765089e-05</internalNodes>
          <leafValues>
            2.2469581663608551e-01 -2.2144769132137299e-01</leafValues></_>
        <_>
          <internalNodes>
            0 -1 73 -2.3863674141466618e-03</internalNodes>
          <leafValues>
            -6.1416459083557129e-01 8.0245338380336761e-02</leafValues></_>
        <_>
          <internalNodes>
            0 -1 72 1.5069891232997179e-03</internalNodes>
          <leafValues>
            6.9156579673290253e-02 -5.4981213808059692e-01</leafValues></_>
        <_>
          <internalNodes>
            0 -1 402 6.4320839010179043e-04</internalNodes>
          <leafValues>
            -1.6689722239971161e-01 2.7697336673736572e-01</leafValues></_>
        <_>
          <internalNodes>
            0 -1 718 -2.7416667435318232e-03</internalNodes>
          <leafValues>
            3.7558317184448242e-01 -1.0386837273836136e-01</leafValues></_>
        <_>
          <internalNodes>
            0 -1 725 5.7466826401650906e-03</internalNodes>
          <leafValues>
            -1.2762115895748138e-01 3.5671532154083252e-01</leafValues></_>
        <_>
          <internalNodes>
            0 -1 759 -1.4610961079597473e-03</internalNodes>
          <leafValues>
            -5.2778929471969604e-01 8.1702858209609985e-02</leafValues></_>
        <_>
          <internalNodes>
            0 -1 339 3.8115668576210737e-03</internalNodes>
          <leafValues>
            5.4407775402069092e-02 -7.2200953960418701e-01</leafValues></_>
        <_>
          <internalNodes>
            0 -1 267 4.5752570033073425e-02</internalNodes>
          <leafValues>
            -1.0791108757257462e-01 4.0392664074897766e-01</leafValues></_>
        <_>
          <internalNodes>
            0 -1 304 -2.8964420780539513e-02</internalNodes>
          <leafValues>
            3.7306034564971924e-01 -1.4863769710063934e-01</leafValues></_>
        <_>
          <internalNodes>
            0 -1 310 3.6214604042470455e-03</internalNodes>
          <leafValues>
            7.4545077979564667e-02 -5.9382241964340210e-01</leafValues></_>
        <_>
          <internalNodes>
            0 -1 213 2.8479440137743950e-02</internalNodes>
          <leafValues>
            -8.9074887335300446e-02 4.9079158902168274e-01</leafValues></_>
        <_>
          <internalNodes>
            0 -1 366 2.6159800589084625e-02</internalNodes>
          <leafValues>
            -1.2299413979053497e-01 4.0963003039360046e-01</leafValues></_>
        <_>
          <internalNodes>
            0 -1 529 -2.4805660359561443e-04</internalNodes>
          <leafValues>
            2.3893079161643982e-01 -1.9370456039905548e-01</leafValues></_>
        <_>
          <internalNodes>
            0 -1 664 -4.3767541646957397e-03</internalNodes>
          <leafValues>
            -8.1465154886245728e-01 4.7418601810932159e-02</leafValues></_></weakClassifiers></_>
    <!-- stage 4 -->
    <_>
      <maxWeakCount>28</maxWeakCount>
      <stageThreshold>-1.1307215690612793e+00</stageThreshold>
      <weakClassifiers>
        <_>
          <internalNodes>
            0 -1 520 -2.1220561116933823e-02</internalNodes>
          <leafValues>
            4.2857143282890320e-01 -1.7446808516979218e-01</leafValues></_>
        <_>
          <internalNodes>
            0 -1 281 3.3366508432663977e-05</internalNodes>
          <leafValues>
            -2.6427543163299561e-01 2.4146065115928650e-01</leafValues></_>
        <_>
          <internalNodes>
            0 -1 399 -7.7566936612129211e-02</internalNodes>
          <leafValues>
            4.8150008916854858e-01 -1.2666516005992889e-01</leafValues></_>
        <_>
          <internalNodes>
            0 -1 623 2.3576956242322922e-02</internalNodes>
          <leafValues>
            -1.2751363217830658e-01 4.9654915928840637e-01</leafValues></_>
        <_>
          <internalNodes>
            0 -1 534 -9.2891009990125895e-04</internalNodes>
          <leafValues>
            -5.8478212356567383e-01 8.8671006262302399e-02</leafValues></_>
        <_>
          <internalNodes>
            0 -1 50 1.9050216302275658e-02</internalNodes>
          <leafValues>
            -1.2258765846490860e-01 4.9065706133842468e-01</leafValues></_>
        <_>
          <internalNodes>
            0 -1 24 -4.2218059301376343e-02</internalNodes>
          <leafValues>
            6.4465773105621338e-01 -1.1845497786998749e-01</leafValues></_>
        <_>
          <internalNodes>
            0 -1 239 1.8221491575241089e-01</internalNodes>
          <leafValues>
            -1.5064150094985962e-01 3.9849963784217834e-01</leafValues></_>
        <_>
          <internalNodes>
            0 -1 572 -6.8355607800185680e-04</internalNodes>
          <leafValues>
            -6.0406398773193359e-01 6.8314857780933380e-02</leafValues></_>
        <_>
          <internalNodes>
            0 -1 661 1.3681911863386631e-02</internalNodes>
          <leafValues>
            -1.2138730287551880e-01 4.1390115022659302e-01</leafValues></_>
        <_>
          <internalNodes>
            0 -1 675 -1.1401697993278503e-02</internalNodes>
          <leafValues>
            4.1773208975791931e-01 -1.3378746807575226e-01</leafValues></_>
        <_>
          <internalNodes>
            0 -1 244 1.2348270502116065e-05</internalNodes>
          <leafValues>
            -1.7831920087337494e-01 2.5874891877174377e-01</leafValues></_>
        <_>
          <internalNodes>
            0 -1 14 -1.1275315191596746e-03</internalNodes>
          <leafValues>
            -5.2972429990768433e-01 9.6088208258152008e-02</leafValues></_>
        <_>
          <internalNodes>
            0 -1 13 4.8978265840560198e-04</internalNodes>
          <leafValues>
            7.2267353534698486e-02 -5.0141876935958862e-01</leafValues></_>
        <_>
          <internalNodes>
            0 -1 461 4.2950962670147419e-03</internalNodes>
          <leafValues>
            -1.4736974239349365e-01 3.5310274362564087e-01</leafValues></_>
        <_>
          <internalNodes>
            0 -1 431 -2.2703055292367935e-03</internalNodes>
          <leafValues>
            3.9359855651855469e-01 -1.6895702481269836e-01</leafValues></_>
        <_>
          <internalNodes>
            0 -1 536 -8.4571086335927248e-04</internalNodes>
          <leafValues>
            -6.3217055797576904e-01 7.5038030743598938e-02</leafValues></_>
        <_>
          <internalNodes>
            0 -1 258 1.0117624886333942e-02</internalNodes>
          <leafValues>
            -1.2017650902271271e-01 4.0570354461669922e-01</leafValues></_>
        <_>
          <internalNodes>
            0 -1 508 -2.7895712264580652e-05</internalNodes>
          <leafValues>
            2.2863793373107910e-01 -2.0706669986248016e-01</leafValues></_>
        <_>
          <internalNodes>
            0 -1 31 -1.9398364238440990e-03</internalNodes>
          <leafValues>
            -5.6984198093414307e-01 8.2164354622364044e-02</leafValues></_>
        <_>
          <internalNodes>
            0 -1 389 1.2354046106338501e-02</internalNodes>
          <leafValues>
            -1.2057821452617645e-01 4.2149513959884644e-01</leafValues></_>
        <_>
          <internalNodes>
            0 -1 90 1.9572729244828224e-02</internalNodes>
          <leafValues>
            -1.2328293174505234e-01 3.8489145040512085e-01</leafValues></_>
        <_>
          <internalNodes>
            0 -1 45 -3.2077014446258545e-02</internalNodes>
          <leafValues>
            3.5015162825584412e-01 -1.6247805953025818e-01</leafValues></_>
        <_>
          <internalNodes>
            0 -1 419 -3.4944619983434677e-04</internalNodes>
          <leafValues>
            -4.0773612260818481e-01 1.3435484468936920e-01</leafValues></_>
        <_>
          <internalNodes>
            0 -1 417 1.3364695478230715e-03</internalNodes>
          <leafValues>
            7.7345371246337891e-02 -5.4780137538909912e-01</leafValues></_>
        <_>
          <internalNodes>
            0 -1 312 1.8520388752222061e-02</internalNodes>
          <leafValues>
            -1.0659296065568924e-01 4.1470357775688171e-01</leafValues></_>
        <_>
          <internalNodes>
            0 -1 550 -2.8883992854389362e-05</internalNodes>
          <leafValues>
            2.2770324349403381e-01 -2.0666760206222534e-01</leafValues></_>
        <_>
          <internalNodes>
            0 -1 694 2.3629898205399513e-03</internalNodes>
          <leafValues>
            7.5348593294620514e-02 -5.7710307836532593e-01</leafValues></_></weakClassifiers></_>
    <!-- stage 5 -->
    <_>
      <maxWeakCount>22</maxWeakCount>
      <stageThreshold>-1.0839779376983643e+00</stageThreshold>
      <weakClassifiers>
        <_>
          <internalNodes>
            0 -1 587 -2.8813548851758242e-05</internalNodes>
          <leafValues>
            4.0212264657020569e-01 -2.6496815681457520e-01</leafValues></_>
        <_>
          <internalNodes>
            0 -1 359 3.0568604415748268e-05</internalNodes>
          <leafValues>
            -3.1069344282150269e-01 3.4006571769714355e-01</leafValues></_>
        <_>
          <internalNodes>
            0 -1 343 -4.0740827098488808e-03</internalNodes>
          <leafValues>
            6.0639542341232300e-01 -1.3985456526279449e-01</leafValues></_>
        <_>
          <internalNodes>
            0 -1 68 2.2042479366064072e-02</internalNodes>
          <leafValues>
            -1.6554386913776398e-01 4.6404972672462463e-01</leafValues></_>
        <_>
          <internalNodes>
            0 -1 604 3.6695211747428402e-05</internalNodes>
          <leafValues>
            -2.2960969805717468e-01 3.2232162356376648e-01</leafValues></_>
        <_>
          <internalNodes>
            0 -1 396 1.3021154329180717e-02</internalNodes>
          <leafValues>
            -1.0420364886522293e-01 5.9602683782577515e-01</leafValues></_>
        <_>
          <internalNodes>
            0 -1 242 -3.2176426611840725e-03</internalNodes>
          <leafValues>
            5.7800704240798950e-01 -1.2157657742500305e-01</leafValues></_>
        <_>
          <internalNodes>
            0 -1 552 1.4305599033832550e-02</internalNodes>
          <leafValues>
            -8.6017072200775146e-02 4.9750462174415588e-01</leafValues></_>
        <_>
          <internalNodes>
            0 -1 615 -4.7444387746509165e-05</internalNodes>
          <leafValues>
            2.7262789011001587e-01 -2.6431235671043396e-01</leafValues></_>
        <_>
          <internalNodes>
            0 -1 672 2.0479030907154083e-02</internalNodes>
          <leafValues>
            -1.4804758131504059e-01 5.5034911632537842e-01</leafValues></_>
        <_>
          <internalNodes>
            0 -1 475 -9.4364844262599945e-03</internalNodes>
          <leafValues>
            4.9902465939521790e-01 -1.3497906923294067e-01</leafValues></_>
        <_>
          <internalNodes>
            0 -1 336 9.8559353500604630e-03</internalNodes>
          <leafValues>
            -1.3303171098232269e-01 5.0261509418487549e-01</leafValues></_>
        <_>
          <internalNodes>
            0 -1 126 -1.3580188155174255e-02</internalNodes>
          <leafValues>
            3.5525670647621155e-01 -1.9633342325687408e-01</leafValues></_>
        <_>
          <internalNodes>
            0 -1 365 -2.5891544282785617e-05</internalNodes>
          <leafValues>
            3.3140209317207336e-01 -2.0515602827072144e-01</leafValues></_>
        <_>
          <internalNodes>
            0 -1 365 3.8808266253909096e-05</internalNodes>
          <leafValues>
            -2.0253258943557739e-01 2.9696601629257202e-01</leafValues></_>
        <_>
          <internalNodes>
            0 -1 56 -3.5139496903866529e-03</internalNodes>
          <leafValues>
            7.1817964315414429e-01 -7.2593420743942261e-02</leafValues></_>
        <_>
          <internalNodes>
            0 -1 174 2.7355836209608242e-05</internalNodes>
          <leafValues>
            -1.9006451964378357e-01 2.6964455842971802e-01</leafValues></_>
        <_>
          <internalNodes>
            0 -1 424 -7.1539678610861301e-03</internalNodes>
          <leafValues>
            4.4343683123588562e-01 -1.1692482233047485e-01</leafValues></_>
        <_>
          <internalNodes>
            0 -1 604 -2.8654816560447216e-05</internalNodes>
          <leafValues>
            2.9175361990928650e-01 -1.8985825777053833e-01</leafValues></_>
        <_>
          <internalNodes>
            0 -1 384 3.5371258854866028e-03</internalNodes>
          <leafValues>
            -8.1841289997100830e-02 7.1847397089004517e-01</leafValues></_>
        <_>
          <internalNodes>
            0 -1 677 -3.1651787139708176e-05</internalNodes>
          <leafValues>
            2.6563772559165955e-01 -2.0015652477741241e-01</leafValues></_>
        <_>
          <internalNodes>
            0 -1 129 -6.2404079362750053e-03</internalNodes>
          <leafValues>
            4.0209397673606873e-01 -1.2285262346267700e-01</leafValues></_></weakClassifiers></_>
    <!-- stage 6 -->
    <_>
      <maxWeakCount>24</maxWeakCount>
      <stageThreshold>-9.6271079778671265e-01</stageThreshold>
      <weakClassifiers>
        <_>
          <internalNodes>
            0 -1 324 3.3793465263443068e-05</internalNodes>
          <leafValues>
            -2.3333333432674408e-01 3.4881088137626648e-01</leafValues></_>
        <_>
          <internalNodes>
            0 -1 546 2.4543238396290690e-05</internalNodes>
          <leafValues>
            -2.1998998522758484e-01 2.9080983996391296e-01</leafValues></_>
        <_>
          <internalNodes>
            0 -1 318 -2.5990932044805959e-05</internalNodes>
          <leafValues>
            3.4455850720405579e-01 -1.8188752233982086e-01</leafValues></_>
        <_>
          <internalNodes>
            0 -1 318 2.7463309379527345e-05</internalNodes>
          <leafValues>
            -2.7693006396293640e-01 2.6707977056503296e-01</leafValues></_>
        <_>
          <internalNodes>
            0 -1 146 -2.1605873480439186e-02</internalNodes>
          <leafValues>
            6.7684435844421387e-01 -4.4191822409629822e-02</leafValues></_>
        <_>
          <internalNodes>
            0 -1 546 -4.1016384784597903e-05</internalNodes>
          <leafValues>
            2.9479572176933289e-01 -2.0613315701484680e-01</leafValues></_>
        <_>
          <internalNodes>
            0 -1 412 -2.1936748176813126e-02</internalNodes>
          <leafValues>
            6.0843139886856079e-01 -1.1248449981212616e-01</leafValues></_>
        <_>
          <internalNodes>
            0 -1 324 -3.9249422115972266e-05</internalNodes>
          <leafValues>
            3.7015840411186218e-01 -1.1841438710689545e-01</leafValues></_>
        <_>
          <internalNodes>
            0 -1 28 4.3020555377006531e-01</internalNodes>
          <leafValues>
            -1.3617868721485138e-01 5.2338737249374390e-01</leafValues></_>
        <_>
          <internalNodes>
            0 -1 704 -2.3409455025102943e-05</internalNodes>
          <leafValues>
            3.1088104844093323e-01 -1.6835424304008484e-01</leafValues></_>
        <_>
          <internalNodes>
            0 -1 704 2.3025069822324440e-05</internalNodes>
          <leafValues>
            -2.0838080346584320e-01 3.0596715211868286e-01</leafValues></_>
        <_>
          <internalNodes>
            0 -1 381 4.0308139286935329e-03</internalNodes>
          <leafValues>
            -6.7118257284164429e-02 6.2385445833206177e-01</leafValues></_>
        <_>
          <internalNodes>
            0 -1 532 -2.4608874809928238e-05</internalNodes>
          <leafValues>
            2.6612201333045959e-01 -1.7738611996173859e-01</leafValues></_>
        <_>
          <internalNodes>
            0 -1 532 2.7337588107911870e-05</internalNodes>
          <leafValues>
            -1.9528380036354065e-01 2.8069615364074707e-01</leafValues></_>
        <_>
          <internalNodes>
            0 -1 349 2.3096580058336258e-02</internalNodes>
          <leafValues>
            -6.9556921720504761e-02 6.7710739374160767e-01</leafValues></_>
        <_>
          <internalNodes>
            0 -1 303 -1.8746538087725639e-02</internalNodes>
          <leafValues>
            4.9166229367256165e-01 -9.8103553056716919e-02</leafValues></_>
        <_>
          <internalNodes>
            0 -1 341 -1.3377636205404997e-03</internalNodes>
          <leafValues>
            -4.7375756502151489e-01 1.2409756332635880e-01</leafValues></_>
        <_>
          <internalNodes>
            0 -1 646 1.1674473062157631e-02</internalNodes>
          <leafValues>
            -1.2318080663681030e-01 4.3160742521286011e-01</leafValues></_>
        <_>
          <internalNodes>
            0 -1 591 -2.5645149435149506e-05</internalNodes>
          <leafValues>
            2.2952282428741455e-01 -2.0566985011100769e-01</leafValues></_>
        <_>
          <internalNodes>
            0 -1 52 -9.6508279442787170e-02</internalNodes>
          <leafValues>
            5.9280794858932495e-01 -8.6667127907276154e-02</leafValues></_>
        <_>
          <internalNodes>
            0 -1 247 1.2348270502116065e-05</internalNodes>
          <leafValues>
            -1.9756203889846802e-01 2.4333480000495911e-01</leafValues></_>
        <_>
          <internalNodes>
            0 -1 603 2.3414464521920308e-05</internalNodes>
          <leafValues>
            -1.7961567640304565e-01 2.3156914114952087e-01</leafValues></_>
        <_>
          <internalNodes>
            0 -1 735 -2.2289390471996740e-05</internalNodes>
          <leafValues>
            2.6131844520568848e-01 -1.5820068120956421e-01</leafValues></_>
        <_>
          <internalNodes>
            0 -1 300 -1.1131583014503121e-03</internalNodes>
          <leafValues>
            -3.4751576185226440e-01 1.1441710591316223e-01</leafValues></_></weakClassifiers></_>
    <!-- stage 7 -->
    <_>
      <maxWeakCount>39</maxWeakCount>
      <stageThreshold>-1.1903470754623413e+00</stageThreshold>
      <weakClassifiers>
        <_>
          <internalNodes>
            0 -1 294 -7.0700058713555336e-03</internalNodes>
          <leafValues>
            6.1643832921981812e-01 -3.5048469901084900e-02</leafValues></_>
        <_>
          <internalNodes>
            0 -1 388 -3.6301764193922281e-03</internalNodes>
          <leafValues>
            7.7589333057403564e-01 -6.2958985567092896e-02</leafValues></_>
        <_>
          <internalNodes>
            0 -1 138 2.2036870941519737e-03</internalNodes>
          <leafValues>
            -1.1777808517217636e-01 5.8499687910079956e-01</leafValues></_>
        <_>
          <internalNodes>
            0 -1 196 3.1662548426538706e-03</internalNodes>
          <leafValues>
            -1.1019805818796158e-01 3.5725691914558411e-01</leafValues></_>
        <_>
          <internalNodes>
            0 -1 291 -2.4196229875087738e-02</internalNodes>
          <leafValues>
            5.0938689708709717e-01 -1.0327459126710892e-01</leafValues></_>
        <_>
          <internalNodes>
            0 -1 472 -1.1645011909422465e-05</internalNodes>
          <leafValues>
            2.0087608695030212e-01 -2.3665769398212433e-01</leafValues></_>
        <_>
          <internalNodes>
            0 -1 728 2.4259616620838642e-03</internalNodes>
          <leafValues>
            -8.3671167492866516e-02 5.1097786426544189e-01</leafValues></_>
        <_>
          <internalNodes>
            0 -1 730 -1.9664878491312265e-03</internalNodes>
          <leafValues>
            5.2765613794326782e-01 -7.8332871198654175e-02</leafValues></_>
        <_>
          <internalNodes>
            0 -1 573 -1.0258576367050409e-03</internalNodes>
          <leafValues>
            -4.2587548494338989e-01 1.0599067062139511e-01</leafValues></_>
        <_>
          <internalNodes>
            0 -1 376 2.2762227803468704e-02</internalNodes>
          <leafValues>
            -5.6031189858913422e-02 5.9949457645416260e-01</leafValues></_>
        <_>
          <internalNodes>
            0 -1 801 -1.1957123642787337e-03</internalNodes>
          <leafValues>
            -4.0723007917404175e-01 1.0699585080146790e-01</leafValues></_>
        <_>
          <internalNodes>
            0 -1 495 1.3305983738973737e-03</internalNodes>
          <leafValues>
            -7.6279342174530029e-02 5.2000629901885986e-01</leafValues></_>
        <_>
          <internalNodes>
            0 -1 408 2.6712074031820521e-05</internalNodes>
          <leafValues>
            -1.9942404329776764e-01 2.1058173477649689e-01</leafValues></_>
        <_>
          <internalNodes>
            0 -1 617 -1.6594638509559445e-05</internalNodes>
          <leafValues>
            2.4865463376045227e-01 -1.7365057766437531e-01</leafValues></_>
        <_>
          <internalNodes>
            0 -1 617 1.1906411600648426e-05</internalNodes>
          <leafValues>
            -1.7511141300201416e-01 2.3910714685916901e-01</leafValues></_>
        <_>
          <internalNodes>
            0 -1 430 2.2792513482272625e-03</internalNodes>
          <leafValues>
            -6.4831979572772980e-02 5.5408471822738647e-01</leafValues></_>
        <_>
          <internalNodes>
            0 -1 395 -3.3503179438412189e-03</internalNodes>
          <leafValues>
            5.3680950403213501e-01 -7.4230313301086426e-02</leafValues></_>
        <_>
          <internalNodes>
            0 -1 277 -1.3167705219530035e-05</internalNodes>
          <leafValues>
            2.6313075423240662e-01 -1.4917246997356415e-01</leafValues></_>
        <_>
          <internalNodes>
            0 -1 277 1.1645011909422465e-05</internalNodes>
          <leafValues>
            -2.2443418204784393e-01 2.7472326159477234e-01</leafValues></_>
        <_>
          <internalNodes>
            0 -1 311 -5.6787254288792610e-03</internalNodes>
          <leafValues>
            -4.2821967601776123e-01 1.0890688002109528e-01</leafValues></_>
        <_>
          <internalNodes>
            0 -1 169 5.9097039047628641e-04</internalNodes>
          <leafValues>
            -1.1602523177862167e-01 3.6072659492492676e-01</leafValues></_>
        <_>
          <internalNodes>
            0 -1 66 -1.0485912207514048e-03</internalNodes>
          <leafValues>
            -4.6424078941345215e-01 8.9917808771133423e-02</leafValues></_>
        <_>
          <internalNodes>
            0 -1 432 -1.2654631398618221e-02</internalNodes>
          <leafValues>
            4.9257507920265198e-01 -9.2409826815128326e-02</leafValues></_>
        <_>
          <internalNodes>
            0 -1 167 -1.3167705219530035e-05</internalNodes>
          <leafValues>
            2.5802922248840332e-01 -1.4809373021125793e-01</leafValues></_>
        <_>
          <internalNodes>
            0 -1 167 2.8977849069633521e-05</internalNodes>
          <leafValues>
            -1.8368475139141083e-01 2.7861541509628296e-01</leafValues></_>
        <_>
          <internalNodes>
            0 -1 417 -7.0602004416286945e-04</internalNodes>
          <leafValues>
            -3.7787887454032898e-01 1.0036402195692062e-01</leafValues></_>
        <_>
          <internalNodes>
            0 -1 212 -2.2362871095538139e-03</internalNodes>
          <leafValues>
            7.3884218931198120e-01 -5.0357297062873840e-02</leafValues></_>
        <_>
          <internalNodes>
            0 -1 334 6.6373487934470177e-03</internalNodes>
          <leafValues>
            1.1777295172214508e-01 -3.7330657243728638e-01</leafValues></_>
        <_>
          <internalNodes>
            0 -1 758 -2.3930273018777370e-03</internalNodes>
          <leafValues>
            4.6314784884452820e-01 -8.6503587663173676e-02</leafValues></_>
        <_>
          <internalNodes>
            0 -1 688 -2.6951543986797333e-05</internalNodes>
          <leafValues>
            2.5057080388069153e-01 -1.4609383046627045e-01</leafValues></_>
        <_>
          <internalNodes>
            0 -1 586 -1.1645011909422465e-05</internalNodes>
          <leafValues>
            1.8443079292774200e-01 -2.0056885480880737e-01</leafValues></_>
        <_>
          <internalNodes>
            0 -1 665 1.3545723049901426e-05</internalNodes>
          <leafValues>
            -1.8795970082283020e-01 2.0972838997840881e-01</leafValues></_>
        <_>
          <internalNodes>
            0 -1 666 -2.6337720919400454e-03</internalNodes>
          <leafValues>
            4.5342665910720825e-01 -9.1788150370121002e-02</leafValues></_>
        <_>
          <internalNodes>
            0 -1 426 -7.7156268525868654e-04</internalNodes>
          <leafValues>
            -4.3470209836959839e-01 9.3012057244777679e-02</leafValues></_>
        <_>
          <internalNodes>
            0 -1 367 -2.3375954478979111e-03</internalNodes>
          <leafValues>
            -5.2428609132766724e-01 6.4524471759796143e-02</leafValues></_>
        <_>
          <internalNodes>
            0 -1 626 -6.2224245630204678e-04</internalNodes>
          <leafValues>
            6.0118931531906128e-01 -7.3432907462120056e-02</leafValues></_>
        <_>
          <internalNodes>
            0 -1 525 -1.5155615983530879e-05</internalNodes>
          <leafValues>
            2.6682347059249878e-01 -1.4438670873641968e-01</leafValues></_>
        <_>
          <internalNodes>
            0 -1 241 -2.1998732336214744e-05</internalNodes>
          <leafValues>
            2.3915050923824310e-01 -1.6024036705493927e-01</leafValues></_>
        <_>
          <internalNodes>
            0 -1 4 -5.3853011131286621e-01</internalNodes>
          <leafValues>
            -8.1193262338638306e-01 4.6288780868053436e-02</leafValues></_></weakClassifiers></_>
    <!-- stage 8 -->
    <_>
      <maxWeakCount>29</maxWeakCount>
      <stageThreshold>-1.0501413345336914e+00</stageThreshold>
      <weakClassifiers>
        <_>
          <internalNodes>
            0 -1 78 3.5732078552246094e-01</internalNodes>
          <leafValues>
            2.2358176112174988e-01 -5.9226715564727783e-01</leafValues></_>
        <_>
          <internalNodes>
            0 -1 298 -6.4043812453746796e-03</internalNodes>
          <leafValues>
            6.4395618438720703e-01 -1.3345393538475037e-01</leafValues></_>
        <_>
          <internalNodes>
            0 -1 337 -1.6687292605638504e-02</internalNodes>
          <leafValues>
            5.6586068868637085e-01 -1.0954075306653976e-01</leafValues></_>
        <_>
          <internalNodes>
            0 -1 302 3.5375490784645081e-02</internalNodes>
          <leafValues>
            -1.0411484539508820e-01 5.4682588577270508e-01</leafValues></_>
        <_>
          <internalNodes>
            0 -1 668 8.7073817849159241e-03</internalNodes>
          <leafValues>
            -1.3576042652130127e-01 4.6588617563247681e-01</leafValues></_>
        <_>
          <internalNodes>
            0 -1 660 -2.8328821063041687e-02</internalNodes>
          <leafValues>
            5.4180115461349487e-01 -1.0757360607385635e-01</leafValues></_>
        <_>
          <internalNodes>
            0 -1 164 1.8580644391477108e-03</internalNodes>
          <leafValues>
            -9.6612632274627686e-02 4.6182671189308167e-01</leafValues></_>
        <_>
          <internalNodes>
            0 -1 64 -1.1933797039091587e-02</internalNodes>
          <leafValues>
            4.2425531148910522e-01 -1.3933034241199493e-01</leafValues></_>
        <_>
          <internalNodes>
            0 -1 122 2.8603186365216970e-03</internalNodes>
          <leafValues>
            -9.2402920126914978e-02 4.9418991804122925e-01</leafValues></_>
        <_>
          <internalNodes>
            0 -1 413 -2.6870578527450562e-02</internalNodes>
          <leafValues>
            3.6335363984107971e-01 -1.4696113765239716e-01</leafValues></_>
        <_>
          <internalNodes>
            0 -1 108 -3.1885468959808350e-01</internalNodes>
          <leafValues>
            6.0022115707397461e-01 -9.9585264921188354e-02</leafValues></_>
        <_>
          <internalNodes>
            0 -1 275 2.8468117117881775e-02</internalNodes>
          <leafValues>
            -1.7304411530494690e-01 3.4203010797500610e-01</leafValues></_>
        <_>
          <internalNodes>
            0 -1 453 -1.4726105146110058e-03</internalNodes>
          <leafValues>
            -5.9412086009979248e-01 1.0439623892307281e-01</leafValues></_>
        <_>
          <internalNodes>
            0 -1 464 7.7583565143868327e-04</internalNodes>
          <leafValues>
            -1.5883074700832367e-01 2.7956426143646240e-01</leafValues></_>
        <_>
          <internalNodes>
            0 -1 435 -2.6458855718374252e-03</internalNodes>
          <leafValues>
            4.7327041625976563e-01 -8.0358415842056274e-02</leafValues></_>
        <_>
          <internalNodes>
            0 -1 148 -1.5223296941258013e-04</internalNodes>
          <leafValues>
            -2.9496407508850098e-01 1.2479203939437866e-01</leafValues></_>
        <_>
          <internalNodes>
            0 -1 421 -1.0772987734526396e-03</internalNodes>
          <leafValues>
            -5.0014120340347290e-01 7.3779150843620300e-02</leafValues></_>
        <_>
          <internalNodes>
            0 -1 411 1.1893717572093010e-02</internalNodes>
          <leafValues>
            -8.9571848511695862e-02 4.4723767042160034e-01</leafValues></_>
        <_>
          <internalNodes>
            0 -1 479 -9.0336315333843231e-03</internalNodes>
          <leafValues>
            4.6328434348106384e-01 -7.9785697162151337e-02</leafValues></_>
        <_>
          <internalNodes>
            0 -1 510 -1.0473480215296149e-03</internalNodes>
          <leafValues>
            -3.9485931396484375e-01 1.0278119891881943e-01</leafValues></_>
        <_>
          <internalNodes>
            0 -1 193 7.3123397305607796e-03</internalNodes>
          <leafValues>
            -5.9763491153717041e-02 7.1614533662796021e-01</leafValues></_>
        <_>
          <internalNodes>
            0 -1 67 1.6087793046608567e-03</internalNodes>
          <leafValues>
            7.6838515698909760e-02 -5.1403641700744629e-01</leafValues></_>
        <_>
          <internalNodes>
            0 -1 390 -5.6486725807189941e-03</internalNodes>
          <leafValues>
            6.3807469606399536e-01 -6.2347378581762314e-02</leafValues></_>
        <_>
          <internalNodes>
            0 -1 691 -4.2515154927968979e-04</internalNodes>
          <leafValues>
            -4.0347599983215332e-01 1.0258514434099197e-01</leafValues></_>
        <_>
          <internalNodes>
            0 -1 641 6.7998077720403671e-03</internalNodes>
          <leafValues>
            -1.0742262750864029e-01 3.7245544791221619e-01</leafValues></_>
        <_>
          <internalNodes>
            0 -1 644 -4.8701465129852295e-03</internalNodes>
          <leafValues>
            3.4315636754035950e-01 -1.3062252104282379e-01</leafValues></_>
        <_>
          <internalNodes>
            0 -1 692 -5.4893386550247669e-04</internalNodes>
          <leafValues>
            -3.5133635997772217e-01 1.1537156254053116e-01</leafValues></_>
        <_>
          <internalNodes>
            0 -1 773 -1.3041159836575389e-03</internalNodes>
          <leafValues>
            -5.4524981975555420e-01 5.7258717715740204e-02</leafValues></_>
        <_>
          <internalNodes>
            0 -1 51 -2.2489169612526894e-02</internalNodes>
          <leafValues>
            2.7905508875846863e-01 -1.3401293754577637e-01</leafValues></_></weakClassifiers></_>
    <!-- stage 9 -->
    <_>
      <maxWeakCount>49</maxWeakCount>
      <stageThreshold>-1.1357876062393188e+00</stageThreshold>
      <weakClassifiers>
        <_>
          <internalNodes>
            0 -1 27 3.8852259516716003e-01</internalNodes>
          <leafValues>
            -7.4915826320648193e-02 4.9887639284133911e-01</leafValues></_>
        <_>
          <internalNodes>
            0 -1 773 7.3401239933446050e-04</internalNodes>
          <leafValues>
            1.1358179152011871e-01 -4.6325838565826416e-01</leafValues></_>
        <_>
          <internalNodes>
            0 -1 47 -6.0541396960616112e-03</internalNodes>
          <leafValues>
            6.7668902873992920e-01 -7.5092874467372894e-02</leafValues></_>
        <_>
          <internalNodes>
            0 -1 57 1.3987661805003881e-03</internalNodes>
          <leafValues>
            -1.7464396357536316e-01 4.3142139911651611e-01</leafValues></_>
        <_>
          <internalNodes>
            0 -1 763 -4.1166734881699085e-03</internalNodes>
          <leafValues>
            5.5932509899139404e-01 -6.3743300735950470e-02</leafValues></_>
        <_>
          <internalNodes>
            0 -1 756 -8.8566995691508055e-04</internalNodes>
          <leafValues>
            -4.2265212535858154e-01 1.1071117222309113e-01</leafValues></_>
        <_>
          <internalNodes>
            0 -1 764 3.1986508984118700e-03</internalNodes>
          <leafValues>
            -5.7054568082094193e-02 6.4511483907699585e-01</leafValues></_>
        <_>
          <internalNodes>
            0 -1 676 2.2030100226402283e-03</internalNodes>
          <leafValues>
            8.6676664650440216e-02 -5.0906920433044434e-01</leafValues></_>
        <_>
          <internalNodes>
            0 -1 166 -1.8533179536461830e-03</internalNodes>
          <leafValues>
            -4.2038032412528992e-01 8.8130801916122437e-02</leafValues></_>
        <_>
          <internalNodes>
            0 -1 719 6.0419738292694092e-03</internalNodes>
          <leafValues>
            -5.2187759429216385e-02 6.2900024652481079e-01</leafValues></_>
        <_>
          <internalNodes>
            0 -1 46 1.0536867193877697e-02</internalNodes>
          <leafValues>
            7.3300912976264954e-02 -4.8266464471817017e-01</leafValues></_>
        <_>
          <internalNodes>
            0 -1 198 6.0148711781948805e-04</internalNodes>
          <leafValues>
            -1.1755702644586563e-01 3.3451607823371887e-01</leafValues></_>
        <_>
          <internalNodes>
            0 -1 751 1.0731314541772008e-03</internalNodes>
          <leafValues>
            1.2708802521228790e-01 -3.4362652897834778e-01</leafValues></_>
        <_>
          <internalNodes>
            0 -1 624 3.2301232218742371e-02</internalNodes>
          <leafValues>
            -1.0792481899261475e-01 4.3450078368186951e-01</leafValues></_>
        <_>
          <internalNodes>
            0 -1 803 -3.9757770719006658e-04</internalNodes>
          <leafValues>
            -3.4867540001869202e-01 1.0625495761632919e-01</leafValues></_>
        <_>
          <internalNodes>
            0 -1 192 -7.5008943676948547e-03</internalNodes>
          <leafValues>
            5.6688988208770752e-01 -7.1142159402370453e-02</leafValues></_>
        <_>
          <internalNodes>
            0 -1 378 -5.1784597337245941e-02</internalNodes>
          <leafValues>
            3.8327378034591675e-01 -7.2803407907485962e-02</leafValues></_>
        <_>
          <internalNodes>
            0 -1 40 -1.1979330331087112e-02</internalNodes>
          <leafValues>
            -5.6228125095367432e-01 5.8144912123680115e-02</leafValues></_>
        <_>
          <internalNodes>
            0 -1 43 1.3817459344863892e-02</internalNodes>
          <leafValues>
            -5.8422837406396866e-02 5.2429723739624023e-01</leafValues></_>
        <_>
          <internalNodes>
            0 -1 373 2.8969274833798409e-02</internalNodes>
          <leafValues>
            -8.8109560310840607e-02 3.4400811791419983e-01</leafValues></_>
        <_>
          <internalNodes>
            0 -1 34 -1.2129076640121639e-04</internalNodes>
          <leafValues>
            -2.3943951725959778e-01 1.2909762561321259e-01</leafValues></_>
        <_>
          <internalNodes>
            0 -1 352 1.8403221666812897e-01</internalNodes>
          <leafValues>
            -1.0170076787471771e-01 2.8134626150131226e-01</leafValues></_>
        <_>
          <internalNodes>
            0 -1 65 -1.8994301557540894e-02</internalNodes>
          <leafValues>
            4.2084380984306335e-01 -7.2279810905456543e-02</leafValues></_>
        <_>
          <internalNodes>
            0 -1 135 7.8632514923810959e-03</internalNodes>
          <leafValues>
            -1.1121181398630142e-01 3.3681482076644897e-01</leafValues></_>
        <_>
          <internalNodes>
            0 -1 36 9.7517762333154678e-04</internalNodes>
          <leafValues>
            7.8283414244651794e-02 -4.2063701152801514e-01</leafValues></_>
        <_>
          <internalNodes>
            0 -1 747 4.5827543362975121e-03</internalNodes>
          <leafValues>
            -6.2101881951093674e-02 4.6001145243644714e-01</leafValues></_>
        <_>
          <internalNodes>
            0 -1 743 -7.0085604675114155e-03</internalNodes>
          <leafValues>
            5.5841016769409180e-01 -4.7076333314180374e-02</leafValues></_>
        <_>
          <internalNodes>
            0 -1 783 8.9016614947468042e-04</internalNodes>
          <leafValues>
            7.7876657247543335e-02 -3.6860838532447815e-01</leafValues></_>
        <_>
          <internalNodes>
            0 -1 614 -2.9232394881546497e-03</internalNodes>
          <leafValues>
            -4.4974476099014282e-01 5.7237457484006882e-02</leafValues></_>
        <_>
          <internalNodes>
            0 -1 170 -2.9000039212405682e-03</internalNodes>
          <leafValues>
            6.0287052392959595e-01 -4.6350155025720596e-02</leafValues></_>
        <_>
          <internalNodes>
            0 -1 106 -2.3559231311082840e-02</internalNodes>
          <leafValues>
            3.0655524134635925e-01 -8.5325926542282104e-02</leafValues></_>
        <_>
          <internalNodes>
            0 -1 2 -4.1159917600452900e-04</internalNodes>
          <leafValues>
            -2.2252254188060760e-01 1.3619190454483032e-01</leafValues></_>
        <_>
          <internalNodes>
            0 -1 218 -6.1565008945763111e-04</internalNodes>
          <leafValues>
            -2.4912171065807343e-01 1.1121594160795212e-01</leafValues></_>
        <_>
          <internalNodes>
            0 -1 703 -7.7506521483883262e-04</internalNodes>
          <leafValues>
            3.4926110506057739e-01 -8.2602098584175110e-02</leafValues></_>
        <_>
          <internalNodes>
            0 -1 645 6.2346099875867367e-03</internalNodes>
          <leafValues>
            -9.7046554088592529e-02 2.9946026206016541e-01</leafValues></_>
        <_>
          <internalNodes>
            0 -1 630 -3.3006985904648900e-04</internalNodes>
          <leafValues>
            -3.4678155183792114e-01 8.2230068743228912e-02</leafValues></_>
        <_>
          <internalNodes>
            0 -1 282 -3.2630399800837040e-03</internalNodes>
          <leafValues>
            -3.9375931024551392e-01 6.7903883755207062e-02</leafValues></_>
        <_>
          <internalNodes>
            0 -1 401 2.6736715808510780e-03</internalNodes>
          <leafValues>
            -1.6216740012168884e-01 2.0057238638401031e-01</leafValues></_>
        <_>
          <internalNodes>
            0 -1 779 1.2286269338801503e-03</internalNodes>
          <leafValues>
            -1.1770796030759811e-01 2.2444528341293335e-01</leafValues></_>
        <_>
          <internalNodes>
            0 -1 597 -7.3192140553146601e-04</internalNodes>
          <leafValues>
            -3.7000370025634766e-01 7.9656064510345459e-02</leafValues></_>
        <_>
          <internalNodes>
            0 -1 346 -4.3558175675570965e-03</internalNodes>
          <leafValues>
            4.2188686132431030e-01 -6.8481266498565674e-02</leafValues></_>
        <_>
          <internalNodes>
            0 -1 8 5.1931635243818164e-04</internalNodes>
          <leafValues>
            9.3585096299648285e-02 -3.0113866925239563e-01</leafValues></_>
        <_>
          <internalNodes>
            0 -1 423 7.3702569352462888e-04</internalNodes>
          <leafValues>
            -1.2087286263704300e-01 2.4228462576866150e-01</leafValues></_>
        <_>
          <internalNodes>
            0 -1 621 -2.0129508338868618e-03</internalNodes>
          <leafValues>
            2.3273226618766785e-01 -1.1570765823125839e-01</leafValues></_>
        <_>
          <internalNodes>
            0 -1 622 2.4078525602817535e-02</internalNodes>
          <leafValues>
            -7.2014018893241882e-02 4.6380195021629333e-01</leafValues></_>
        <_>
          <internalNodes>
            0 -1 87 1.6232788329944015e-03</internalNodes>
          <leafValues>
            7.6481863856315613e-02 -4.2512029409408569e-01</leafValues></_>
        <_>
          <internalNodes>
            0 -1 537 -7.5377407483756542e-04</internalNodes>
          <leafValues>
            -3.3283367753028870e-01 8.1202298402786255e-02</leafValues></_>
        <_>
          <internalNodes>
            0 -1 382 -1.0584304109215736e-03</internalNodes>
          <leafValues>
            4.1031783819198608e-01 -7.1783877909183502e-02</leafValues></_>
        <_>
          <internalNodes>
            0 -1 680 1.0616779327392578e-03</internalNodes>
          <leafValues>
            7.3568046092987061e-02 -3.6101719737052917e-01</leafValues></_></weakClassifiers></_>
    <!-- stage 10 -->
    <_>
      <maxWeakCount>47</maxWeakCount>
      <stageThreshold>-1.0644524097442627e+00</stageThreshold>
      <weakClassifiers>
        <_>
          <internalNodes>
            0 -1 696 -1.7128901556134224e-02</internalNodes>
          <leafValues>
            4.1860464215278625e-01 -5.6034483015537262e-02</leafValues></_>
        <_>
          <internalNodes>
            0 -1 459 -7.6491065556183457e-04</internalNodes>
          <leafValues>
            -4.5895755290985107e-01 9.8336860537528992e-02</leafValues></_>
        <_>
          <internalNodes>
            0 -1 37 -1.7778497189283371e-02</internalNodes>
          <leafValues>
            4.0789240598678589e-01 -1.0291657596826553e-01</leafValues></_>
        <_>
          <internalNodes>
            0 -1 580 -3.1104408204555511e-02</internalNodes>
          <leafValues>
            2.8779968619346619e-01 -1.4965580403804779e-01</leafValues></_>
        <_>
          <internalNodes>
            0 -1 141 -1.0511991567909718e-03</internalNodes>
          <leafValues>
            -4.2403510212898254e-01 9.5207773149013519e-02</leafValues></_>
        <_>
          <internalNodes>
            0 -1 663 1.3302589766681194e-02</internalNodes>
          <leafValues>
            -1.2250728160142899e-01 3.3994343876838684e-01</leafValues></_>
        <_>
          <internalNodes>
            0 -1 540 -7.7847708016633987e-03</internalNodes>
          <leafValues>
            3.4635350108146667e-01 -5.6003693491220474e-02</leafValues></_>
        <_>
          <internalNodes>
            0 -1 780 7.5203168671578169e-04</internalNodes>
          <leafValues>
            4.6180289238691330e-02 -4.4035649299621582e-01</leafValues></_>
        <_>
          <internalNodes>
            0 -1 351 3.7158012390136719e-02</internalNodes>
          <leafValues>
            -8.5585631430149078e-02 3.7036600708961487e-01</leafValues></_>
        <_>
          <internalNodes>
            0 -1 123 -1.7553580924868584e-02</internalNodes>
          <leafValues>
            4.1720661520957947e-01 -1.1530833691358566e-01</leafValues></_>
        <_>
          <internalNodes>
            0 -1 290 -3.8086872547864914e-02</internalNodes>
          <leafValues>
            3.9285990595817566e-01 -7.0175245404243469e-02</leafValues></_>
        <_>
          <internalNodes>
            0 -1 205 -2.4123858660459518e-02</internalNodes>
          <leafValues>
            3.1112155318260193e-01 -1.5638694167137146e-01</leafValues></_>
        <_>
          <internalNodes>
            0 -1 177 1.4235205017030239e-02</internalNodes>
          <leafValues>
            -1.8728257715702057e-01 2.3434618115425110e-01</leafValues></_>
        <_>
          <internalNodes>
            0 -1 132 2.4238601326942444e-03</internalNodes>
          <leafValues>
            6.9585569202899933e-02 -5.1866716146469116e-01</leafValues></_>
        <_>
          <internalNodes>
            0 -1 139 6.0525387525558472e-03</internalNodes>
          <leafValues>
            -1.0808484256267548e-01 3.4194749593734741e-01</leafValues></_>
        <_>
          <internalNodes>
            0 -1 158 -1.6965080052614212e-02</internalNodes>
          <leafValues>
            3.1559416651725769e-01 -9.8590798676013947e-02</leafValues></_>
        <_>
          <internalNodes>
            0 -1 274 3.7488054949790239e-03</internalNodes>
          <leafValues>
            -1.5410739183425903e-01 2.2430771589279175e-01</leafValues></_>
        <_>
          <internalNodes>
            0 -1 632 -1.2472607195377350e-03</internalNodes>
          <leafValues>
            -4.2704582214355469e-01 9.8673388361930847e-02</leafValues></_>
        <_>
          <internalNodes>
            0 -1 9 -1.0399394668638706e-03</internalNodes>
          <leafValues>
            -3.8929611444473267e-01 7.2280831634998322e-02</leafValues></_>
        <_>
          <internalNodes>
            0 -1 349 2.7248576283454895e-02</internalNodes>
          <leafValues>
            -6.3895799219608307e-02 5.5863338708877563e-01</leafValues></_>
        <_>
          <internalNodes>
            0 -1 480 -1.2809407198801637e-03</internalNodes>
          <leafValues>
            -4.4019302725791931e-01 7.9096071422100067e-02</leafValues></_>
        <_>
          <internalNodes>
            0 -1 377 -2.4046216160058975e-02</internalNodes>
          <leafValues>
            3.8998997211456299e-01 -8.2948841154575348e-02</leafValues></_>
        <_>
          <internalNodes>
            0 -1 233 1.4974785968661308e-02</internalNodes>
          <leafValues>
            -8.6442865431308746e-02 3.5415086150169373e-01</leafValues></_>
        <_>
          <internalNodes>
            0 -1 636 4.1809584945440292e-03</internalNodes>
          <leafValues>
            -1.0731070488691330e-01 3.1866639852523804e-01</leafValues></_>
        <_>
          <internalNodes>
            0 -1 657 -2.0238645374774933e-02</internalNodes>
          <leafValues>
            3.2678052783012390e-01 -8.9975118637084961e-02</leafValues></_>
        <_>
          <internalNodes>
            0 -1 447 -3.1597036868333817e-03</internalNodes>
          <leafValues>
            -5.1251184940338135e-01 6.8636260926723480e-02</leafValues></_>
        <_>
          <internalNodes>
            0 -1 799 -3.0645425431430340e-04</internalNodes>
          <leafValues>
            -3.4800940752029419e-01 7.8628197312355042e-02</leafValues></_>
        <_>
          <internalNodes>
            0 -1 789 4.9910438247025013e-04</internalNodes>
          <leafValues>
            8.9773140847682953e-02 -3.0143451690673828e-01</leafValues></_>
        <_>
          <internalNodes>
            0 -1 360 -1.9320968538522720e-02</internalNodes>
          <leafValues>
            1.6851082444190979e-01 -1.8335354328155518e-01</leafValues></_>
        <_>
          <internalNodes>
            0 -1 639 6.1215534806251526e-03</internalNodes>
          <leafValues>
            -7.8923240303993225e-02 3.7230584025382996e-01</leafValues></_>
        <_>
          <internalNodes>
            0 -1 556 1.3397362083196640e-02</internalNodes>
          <leafValues>
            -9.4204075634479523e-02 2.9485836625099182e-01</leafValues></_>
        <_>
          <internalNodes>
            0 -1 1 8.9768180623650551e-04</internalNodes>
          <leafValues>
            7.7176861464977264e-02 -3.8179469108581543e-01</leafValues></_>
        <_>
          <internalNodes>
            0 -1 356 -5.5040796287357807e-03</internalNodes>
          <leafValues>
            4.7692030668258667e-01 -6.8666175007820129e-02</leafValues></_>
        <_>
          <internalNodes>
            0 -1 127 6.2912347493693233e-04</internalNodes>
          <leafValues>
            -9.6264749765396118e-02 2.7862033247947693e-01</leafValues></_>
        <_>
          <internalNodes>
            0 -1 38 -1.6408979892730713e-02</internalNodes>
          <leafValues>
            3.2969129085540771e-01 -1.0596706718206406e-01</leafValues></_>
        <_>
          <internalNodes>
            0 -1 738 4.6471817768178880e-04</internalNodes>
          <leafValues>
            7.1379065513610840e-02 -4.0348032116889954e-01</leafValues></_>
        <_>
          <internalNodes>
            0 -1 316 1.2592372950166464e-03</internalNodes>
          <leafValues>
            -1.2691661715507507e-01 2.1882924437522888e-01</leafValues></_>
        <_>
          <internalNodes>
            0 -1 154 -2.1881639957427979e-02</internalNodes>
          <leafValues>
            2.7115210890769958e-01 -1.0522876679897308e-01</leafValues></_>
        <_>
          <internalNodes>
            0 -1 25 -2.7063870802521706e-03</internalNodes>
          <leafValues>
            -5.4816472530364990e-01 5.6469172239303589e-02</leafValues></_>
        <_>
          <internalNodes>
            0 -1 114 6.9514317438006401e-03</internalNodes>
          <leafValues>
            -1.1037791520357132e-01 2.7127733826637268e-01</leafValues></_>
        <_>
          <internalNodes>
            0 -1 509 -1.5428808983415365e-03</internalNodes>
          <leafValues>
            5.2922374010086060e-01 -5.2642289549112320e-02</leafValues></_>
        <_>
          <internalNodes>
            0 -1 155 -4.5528315240517259e-04</internalNodes>
          <leafValues>
            -2.9926517605781555e-01 1.0281441360712051e-01</leafValues></_>
        <_>
          <internalNodes>
            0 -1 548 -3.7165519315749407e-03</internalNodes>
          <leafValues>
            1.7163826525211334e-01 -1.7101383209228516e-01</leafValues></_>
        <_>
          <internalNodes>
            0 -1 632 1.3166764983907342e-03</internalNodes>
          <leafValues>
            7.0297196507453918e-02 -4.1903284192085266e-01</leafValues></_>
        <_>
          <internalNodes>
            0 -1 561 2.7205292135477066e-03</internalNodes>
          <leafValues>
            -1.1654844135046005e-01 2.5706726312637329e-01</leafValues></_>
        <_>
          <internalNodes>
            0 -1 682 -4.8276054440066218e-04</internalNodes>
          <leafValues>
            1.8241091072559357e-01 -1.4453859627246857e-01</leafValues></_>
        <_>
          <internalNodes>
            0 -1 75 1.4602270908653736e-02</internalNodes>
          <leafValues>
            -8.4630332887172699e-02 3.1010851263999939e-01</leafValues></_></weakClassifiers></_>
    <!-- stage 11 -->
    <_>
      <maxWeakCount>31</maxWeakCount>
      <stageThreshold>-1.0401878356933594e+00</stageThreshold>
      <weakClassifiers>
        <_>
          <internalNodes>
            0 -1 504 -1.0688500478863716e-03</internalNodes>
          <leafValues>
            -4.1734418272972107e-01 2.2705696523189545e-01</leafValues></_>
        <_>
          <internalNodes>
            0 -1 344 -6.8621273385360837e-04</internalNodes>
          <leafValues>
            -4.7129303216934204e-01 1.2576945126056671e-01</leafValues></_>
        <_>
          <internalNodes>
            0 -1 507 1.7568652983754873e-03</internalNodes>
          <leafValues>
            1.2699623405933380e-01 -5.5263191461563110e-01</leafValues></_>
        <_>
          <internalNodes>
            0 -1 714 7.3719928041100502e-03</internalNodes>
          <leafValues>
            1.0868162661790848e-01 -5.8568596839904785e-01</leafValues></_>
        <_>
          <internalNodes>
            0 -1 746 1.0255058296024799e-03</internalNodes>
          <leafValues>
            1.0290960967540741e-01 -5.0417089462280273e-01</leafValues></_>
        <_>
          <internalNodes>
            0 -1 428 -9.0964767150580883e-04</internalNodes>
          <leafValues>
            -4.6473884582519531e-01 9.1729559004306793e-02</leafValues></_>
        <_>
          <internalNodes>
            0 -1 222 -1.7851683497428894e-01</internalNodes>
          <leafValues>
            -4.7360897064208984e-01 1.2242816388607025e-01</leafValues></_>
        <_>
          <internalNodes>
            0 -1 674 1.0092326439917088e-02</internalNodes>
          <leafValues>
            9.0206913650035858e-02 -5.3348869085311890e-01</leafValues></_>
        <_>
          <internalNodes>
            0 -1 493 -1.2063470203429461e-03</internalNodes>
          <leafValues>
            -4.1842028498649597e-01 9.4968937337398529e-02</leafValues></_>
        <_>
          <internalNodes>
            0 -1 286 -6.6414833068847656e-02</internalNodes>
          <leafValues>
            3.7490013241767883e-01 -1.1561648547649384e-01</leafValues></_>
        <_>
          <internalNodes>
            0 -1 98 -2.2996272309683263e-04</internalNodes>
          <leafValues>
            -3.4900352358818054e-01 1.0638402402400970e-01</leafValues></_>
        <_>
          <internalNodes>
            0 -1 262 -1.1751315323635936e-03</internalNodes>
          <leafValues>
            -3.3882117271423340e-01 1.2339600920677185e-01</leafValues></_>
        <_>
          <internalNodes>
            0 -1 62 -1.0004792362451553e-02</internalNodes>
          <leafValues>
            5.6752437353134155e-01 -8.5220955312252045e-02</leafValues></_>
        <_>
          <internalNodes>
            0 -1 72 -1.4321994967758656e-03</internalNodes>
          <leafValues>
            -5.0234979391098022e-01 8.2903459668159485e-02</leafValues></_>
        <_>
          <internalNodes>
            0 -1 748 -9.4998395070433617e-03</internalNodes>
          <leafValues>
            5.4554641246795654e-01 -7.8707315027713776e-02</leafValues></_>
        <_>
          <internalNodes>
            0 -1 341 1.2568518286570907e-03</internalNodes>
          <leafValues>
            1.0095530003309250e-01 -4.1475427150726318e-01</leafValues></_>
        <_>
          <internalNodes>
            0 -1 678 -1.5284160617738962e-03</internalNodes>
          <leafValues>
            -4.6818459033966064e-01 7.7028103172779083e-02</leafValues></_>
        <_>
          <internalNodes>
            0 -1 386 -1.7125676386058331e-03</internalNodes>
          <leafValues>
            6.5676736831665039e-01 -5.7928785681724548e-02</leafValues></_>
        <_>
          <internalNodes>
            0 -1 710 -4.4274458196014166e-04</internalNodes>
          <leafValues>
            -2.6364538073539734e-01 1.4083696901798248e-01</leafValues></_>
        <_>
          <internalNodes>
            0 -1 760 1.0046639945358038e-03</internalNodes>
          <leafValues>
            -9.0148121118545532e-02 4.4134929776191711e-01</leafValues></_>
        <_>
          <internalNodes>
            0 -1 263 -4.3599755736067891e-04</internalNodes>
          <leafValues>
            -3.0704897642135620e-01 1.2194881588220596e-01</leafValues></_>
        <_>
          <internalNodes>
            0 -1 95 -2.6063568657264113e-04</internalNodes>
          <leafValues>
            -3.0749416351318359e-01 1.1032982915639877e-01</leafValues></_>
        <_>
          <internalNodes>
            0 -1 256 -2.2756356745958328e-02</internalNodes>
          <leafValues>
            3.1248003244400024e-01 -1.0983268171548843e-01</leafValues></_>
        <_>
          <internalNodes>
            0 -1 248 2.0295947324484587e-03</internalNodes>
          <leafValues>
            -1.9151903688907623e-01 1.9922330975532532e-01</leafValues></_>
        <_>
          <internalNodes>
            0 -1 71 1.9130866974592209e-02</internalNodes>
          <leafValues>
            -8.7164059281349182e-02 4.1758504509925842e-01</leafValues></_>
        <_>
          <internalNodes>
            0 -1 7 -1.1374424211680889e-03</internalNodes>
          <leafValues>
            -3.3018544316291809e-01 1.1044434458017349e-01</leafValues></_>
        <_>
          <internalNodes>
            0 -1 484 -1.0233070701360703e-02</internalNodes>
          <leafValues>
            7.5945717096328735e-01 -4.7591425478458405e-02</leafValues></_>
        <_>
          <internalNodes>
            0 -1 788 -1.4205705374479294e-03</internalNodes>
          <leafValues>
            -3.5302543640136719e-01 1.1149365454912186e-01</leafValues></_>
        <_>
          <internalNodes>
            0 -1 594 -7.6029007323086262e-04</internalNodes>
          <leafValues>
            -2.9683861136436462e-01 1.1533799767494202e-01</leafValues></_>
        <_>
          <internalNodes>
            0 -1 215 -7.5821746140718460e-03</internalNodes>
          <leafValues>
            6.7131817340850830e-01 -5.9520538896322250e-02</leafValues></_>
        <_>
          <internalNodes>
            0 -1 599 4.2497988790273666e-02</internalNodes>
          <leafValues>
            -7.7404052019119263e-02 4.3270578980445862e-01</leafValues></_></weakClassifiers></_>
    <!-- stage 12 -->
    <_>
      <maxWeakCount>55</maxWeakCount>
      <stageThreshold>-9.4902282953262329e-01</stageThreshold>
      <weakClassifiers>
        <_>
          <internalNodes>
            0 -1 543 -8.1223987042903900e-02</internalNodes>
          <leafValues>
            3.6434108018875122e-01 -1.0323886573314667e-01</leafValues></_>
        <_>
          <internalNodes>
            0 -1 273 1.0296059772372246e-03</internalNodes>
          <leafValues>
            -1.7965191602706909e-01 1.9898474216461182e-01</leafValues></_>
        <_>
          <internalNodes>
            0 -1 102 -8.1487819552421570e-03</internalNodes>
          <leafValues>
            4.1485378146171570e-01 -8.0956831574440002e-02</leafValues></_>
        <_>
          <internalNodes>
            0 -1 754 -8.9473708067089319e-04</internalNodes>
          <leafValues>
            -4.1605299711227417e-01 5.0554178655147552e-02</leafValues></_>
        <_>
          <internalNodes>
            0 -1 726 1.7543095164000988e-03</internalNodes>
          <leafValues>
            8.4561049938201904e-02 -4.8856285214424133e-01</leafValues></_>
        <_>
          <internalNodes>
            0 -1 397 -5.7942699640989304e-03</internalNodes>
          <leafValues>
            5.4501658678054810e-01 -6.4496010541915894e-02</leafValues></_>
        <_>
          <internalNodes>
            0 -1 433 -6.5754139795899391e-03</internalNodes>
          <leafValues>
            2.4726212024688721e-01 -1.4249506592750549e-01</leafValues></_>
        <_>
          <internalNodes>
            0 -1 795 -5.5449735373258591e-04</internalNodes>
          <leafValues>
            -4.5555400848388672e-01 6.7678622901439667e-02</leafValues></_>
        <_>
          <internalNodes>
            0 -1 391 3.8801312446594238e-02</internalNodes>
          <leafValues>
            -9.8772667348384857e-02 3.2964137196540833e-01</leafValues></_>
        <_>
          <internalNodes>
            0 -1 115 -1.5366509323939681e-03</internalNodes>
          <leafValues>
            -4.6520769596099854e-01 7.2100535035133362e-02</leafValues></_>
        <_>
          <internalNodes>
            0 -1 10 2.6471965014934540e-02</internalNodes>
          <leafValues>
            -1.0905540734529495e-01 2.7381932735443115e-01</leafValues></_>
        <_>
          <internalNodes>
            0 -1 405 -1.4301193878054619e-02</internalNodes>
          <leafValues>
            2.2461354732513428e-01 -1.2652729451656342e-01</leafValues></_>
        <_>
          <internalNodes>
            0 -1 361 1.2862652074545622e-03</internalNodes>
          <leafValues>
            -1.5536379814147949e-01 1.8851011991500854e-01</leafValues></_>
        <_>
          <internalNodes>
            0 -1 42 -6.4548306167125702e-02</internalNodes>
          <leafValues>
            1.6571468114852905e-01 -1.6197977960109711e-01</leafValues></_>
        <_>
          <internalNodes>
            0 -1 173 1.2116238474845886e-01</internalNodes>
          <leafValues>
            -7.0810072124004364e-02 4.5726749300956726e-01</leafValues></_>
        <_>
          <internalNodes>
            0 -1 379 -6.3354952726513147e-04</internalNodes>
          <leafValues>
            -2.7097699046134949e-01 1.0671159625053406e-01</leafValues></_>
        <_>
          <internalNodes>
            0 -1 323 -1.8238063901662827e-02</internalNodes>
          <leafValues>
            4.0009263157844543e-01 -7.2037152945995331e-02</leafValues></_>
        <_>
          <internalNodes>
            0 -1 374 1.3745382893830538e-03</internalNodes>
          <leafValues>
            9.3248553574085236e-02 -3.2272839546203613e-01</leafValues></_>
        <_>
          <internalNodes>
            0 -1 288 4.2439188109710813e-04</internalNodes>
          <leafValues>
            -1.6181649267673492e-01 1.7202454805374146e-01</leafValues></_>
        <_>
          <internalNodes>
            0 -1 662 2.3912782780826092e-03</internalNodes>
          <leafValues>
            -1.2648057937622070e-01 2.1440997719764709e-01</leafValues></_>
        <_>
          <internalNodes>
            0 -1 44 -1.0725533589720726e-02</internalNodes>
          <leafValues>
            2.4626852571964264e-01 -1.0779102146625519e-01</leafValues></_>
        <_>
          <internalNodes>
            0 -1 160 1.2516648508608341e-02</internalNodes>
          <leafValues>
            -1.4124095439910889e-01 2.2214698791503906e-01</leafValues></_>
        <_>
          <internalNodes>
            0 -1 103 -1.2203748337924480e-04</internalNodes>
          <leafValues>
            -2.3139861226081848e-01 1.1541298031806946e-01</leafValues></_>
        <_>
          <internalNodes>
            0 -1 517 -1.5749606536701322e-03</internalNodes>
          <leafValues>
            -3.4068053960800171e-01 7.5792312622070313e-02</leafValues></_>
        <_>
          <internalNodes>
            0 -1 271 -1.4018254354596138e-02</internalNodes>
          <leafValues>
            3.3365908265113831e-01 -8.4395855665206909e-02</leafValues></_>
        <_>
          <internalNodes>
            0 -1 348 -6.8104015663266182e-03</internalNodes>
          <leafValues>
            5.3063976764678955e-01 -5.5704314261674881e-02</leafValues></_>
        <_>
          <internalNodes>
            0 -1 357 -1.2890280224382877e-02</internalNodes>
          <leafValues>
            2.4207647144794464e-01 -1.1404486000537872e-01</leafValues></_>
        <_>
          <internalNodes>
            0 -1 637 -2.5901231914758682e-02</internalNodes>
          <leafValues>
            2.2367700934410095e-01 -1.1919617652893066e-01</leafValues></_>
        <_>
          <internalNodes>
            0 -1 707 5.3507642587646842e-04</internalNodes>
          <leafValues>
            7.3135986924171448e-02 -3.8923296332359314e-01</leafValues></_>
        <_>
          <internalNodes>
            0 -1 707 -2.2946015815250576e-04</internalNodes>
          <leafValues>
            -2.9864567518234253e-01 1.0178866982460022e-01</leafValues></_>
        <_>
          <internalNodes>
            0 -1 454 -3.5685484763234854e-03</internalNodes>
          <leafValues>
            3.8079941272735596e-01 -6.7337155342102051e-02</leafValues></_>
        <_>
          <internalNodes>
            0 -1 474 3.6505009047687054e-03</internalNodes>
          <leafValues>
            4.0434505790472031e-02 -6.8835359811782837e-01</leafValues></_>
        <_>
          <internalNodes>
            0 -1 79 7.2351172566413879e-03</internalNodes>
          <leafValues>
            -9.7160182893276215e-02 2.8184482455253601e-01</leafValues></_>
        <_>
          <internalNodes>
            0 -1 712 1.3066964223980904e-02</internalNodes>
          <leafValues>
            -9.5683023333549500e-02 2.5957748293876648e-01</leafValues></_>
        <_>
          <internalNodes>
            0 -1 476 -1.4453956391662359e-03</internalNodes>
          <leafValues>
            1.9249631464481354e-01 -1.4166618883609772e-01</leafValues></_>
        <_>
          <internalNodes>
            0 -1 659 1.7639602301642299e-03</internalNodes>
          <leafValues>
            7.1767069399356842e-02 -3.5354441404342651e-01</leafValues></_>
        <_>
          <internalNodes>
            0 -1 420 -7.7318223193287849e-03</internalNodes>
          <leafValues>
            5.0491601228713989e-01 -5.1917038857936859e-02</leafValues></_>
        <_>
          <internalNodes>
            0 -1 0 -4.1151652112603188e-04</internalNodes>
          <leafValues>
            -2.5107672810554504e-01 1.0561612993478775e-01</leafValues></_>
        <_>
          <internalNodes>
            0 -1 442 3.0438533052802086e-02</internalNodes>
          <leafValues>
            -6.7856386303901672e-02 3.9530402421951294e-01</leafValues></_>
        <_>
          <internalNodes>
            0 -1 364 -3.7855114787817001e-03</internalNodes>
          <leafValues>
            2.6609805226325989e-01 -1.1322209984064102e-01</leafValues></_>
        <_>
          <internalNodes>
            0 -1 172 2.5891624391078949e-03</internalNodes>
          <leafValues>
            4.8925198614597321e-02 -5.4640960693359375e-01</leafValues></_>
        <_>
          <internalNodes>
            0 -1 393 -1.7609728965908289e-03</internalNodes>
          <leafValues>
            6.7133790254592896e-01 -3.9916612207889557e-02</leafValues></_>
        <_>
          <internalNodes>
            0 -1 137 1.9584079273045063e-03</internalNodes>
          <leafValues>
            6.1895933002233505e-02 -3.9418694376945496e-01</leafValues></_>
        <_>
          <internalNodes>
            0 -1 221 4.7313971444964409e-03</internalNodes>
          <leafValues>
            -1.8786075711250305e-01 1.2172719836235046e-01</leafValues></_>
        <_>
          <internalNodes>
            0 -1 93 -1.0386236011981964e-02</internalNodes>
          <leafValues>
            1.8502478301525116e-01 -1.2864488363265991e-01</leafValues></_>
        <_>
          <internalNodes>
            0 -1 284 -3.6299754865467548e-03</internalNodes>
          <leafValues>
            -4.8691791296005249e-01 6.5469734370708466e-02</leafValues></_>
        <_>
          <internalNodes>
            0 -1 731 9.2140701599419117e-04</internalNodes>
          <leafValues>
            -9.4918631017208099e-02 2.4522989988327026e-01</leafValues></_>
        <_>
          <internalNodes>
            0 -1 289 4.3196575716137886e-03</internalNodes>
          <leafValues>
            4.4041618704795837e-02 -5.5784898996353149e-01</leafValues></_>
        <_>
          <internalNodes>
            0 -1 330 3.6203218623995781e-03</internalNodes>
          <leafValues>
            -1.2270520627498627e-01 2.0524875819683075e-01</leafValues></_>
        <_>
          <internalNodes>
            0 -1 523 -1.5291303861886263e-03</internalNodes>
          <leafValues>
            -5.2466738224029541e-01 4.7193471342325211e-02</leafValues></_>
        <_>
          <internalNodes>
            0 -1 120 -4.3015573173761368e-03</internalNodes>
          <leafValues>
            5.1883476972579956e-01 -4.9375157803297043e-02</leafValues></_>
        <_>
          <internalNodes>
            0 -1 232 -2.2740446031093597e-02</internalNodes>
          <leafValues>
            2.0905353128910065e-01 -1.1428973823785782e-01</leafValues></_>
        <_>
          <internalNodes>
            0 -1 191 -2.0570653676986694e-01</internalNodes>
          <leafValues>
            6.1708635091781616e-01 -3.6527857184410095e-02</leafValues></_>
        <_>
          <internalNodes>
            0 -1 214 -3.6497236578725278e-04</internalNodes>
          <leafValues>
            -2.2516489028930664e-01 9.9035076797008514e-02</leafValues></_>
        <_>
          <internalNodes>
            0 -1 410 4.5055276132188737e-04</internalNodes>
          <leafValues>
            -1.2505982816219330e-01 1.8168641626834869e-01</leafValues></_></weakClassifiers></_>
    <!-- stage 13 -->
    <_>
      <maxWeakCount>37</maxWeakCount>
      <stageThreshold>-9.3732565641403198e-01</stageThreshold>
      <weakClassifiers>
        <_>
          <internalNodes>
            0 -1 753 -4.1391504928469658e-03</internalNodes>
          <leafValues>
            7.0460051298141479e-01 -8.7627060711383820e-03</leafValues></_>
        <_>
          <internalNodes>
            0 -1 74 -3.7951809354126453e-03</internalNodes>
          <leafValues>
            7.2983950376510620e-01 -5.9393711388111115e-02</leafValues></_>
        <_>
          <internalNodes>
            0 -1 483 -3.1600706279277802e-03</internalNodes>
          <leafValues>
            6.8488240242004395e-01 -1.0100156068801880e-01</leafValues></_>
        <_>
          <internalNodes>
            0 -1 755 1.7348153050988913e-03</internalNodes>
          <leafValues>
            -8.4259934723377228e-02 5.5920666456222534e-01</leafValues></_>
        <_>
          <internalNodes>
            0 -1 798 -2.2426319774240255e-03</internalNodes>
          <leafValues>
            -2.8716218471527100e-01 1.7292407155036926e-01</leafValues></_>
        <_>
          <internalNodes>
            0 -1 96 -2.4105649441480637e-02</internalNodes>
          <leafValues>
            5.5921602249145508e-01 -9.2089295387268066e-02</leafValues></_>
        <_>
          <internalNodes>
            0 -1 593 -1.3763381502940319e-05</internalNodes>
          <leafValues>
            2.6092341542243958e-01 -1.6093587875366211e-01</leafValues></_>
        <_>
          <internalNodes>
            0 -1 679 -2.3093014955520630e-02</internalNodes>
          <leafValues>
            6.2021529674530029e-01 -6.4637765288352966e-02</leafValues></_>
        <_>
          <internalNodes>
            0 -1 97 3.8066320121288300e-04</internalNodes>
          <leafValues>
            9.8908081650733948e-02 -3.9157596230506897e-01</leafValues></_>
        <_>
          <internalNodes>
            0 -1 101 -4.0015767444856465e-04</internalNodes>
          <leafValues>
            -3.0915561318397522e-01 1.3464406132698059e-01</leafValues></_>
        <_>
          <internalNodes>
            0 -1 133 -1.5504432376474142e-03</internalNodes>
          <leafValues>
            5.8921778202056885e-01 -5.3740959614515305e-02</leafValues></_>
        <_>
          <internalNodes>
            0 -1 128 1.5489503275603056e-03</internalNodes>
          <leafValues>
            -1.1042365431785583e-01 3.4194272756576538e-01</leafValues></_>
        <_>
          <internalNodes>
            0 -1 695 1.9998135976493359e-03</internalNodes>
          <leafValues>
            -5.0274875015020370e-02 5.2183425426483154e-01</leafValues></_>
        <_>
          <internalNodes>
            0 -1 737 9.3737320275977254e-04</internalNodes>
          <leafValues>
            8.8477291166782379e-02 -3.8933736085891724e-01</leafValues></_>
        <_>
          <internalNodes>
            0 -1 769 -8.6053204722702503e-04</internalNodes>
          <leafValues>
            -4.0566977858543396e-01 7.8114479780197144e-02</leafValues></_>
        <_>
          <internalNodes>
            0 -1 144 1.1906411600648426e-05</internalNodes>
          <leafValues>
            -1.5707927942276001e-01 2.0754304528236389e-01</leafValues></_>
        <_>
          <internalNodes>
            0 -1 452 -4.3325354345142841e-03</internalNodes>
          <leafValues>
            6.5692806243896484e-01 -3.0415436252951622e-02</leafValues></_>
        <_>
          <internalNodes>
            0 -1 533 1.0788838844746351e-03</internalNodes>
          <leafValues>
            7.6350569725036621e-02 -4.4741654396057129e-01</leafValues></_>
        <_>
          <internalNodes>
            0 -1 450 4.9817264080047607e-03</internalNodes>
          <leafValues>
            -1.3130994141101837e-01 2.7542090415954590e-01</leafValues></_>
        <_>
          <internalNodes>
            0 -1 578 -2.0936572924256325e-02</internalNodes>
          <leafValues>
            5.4966372251510620e-01 -5.2957516163587570e-02</leafValues></_>
        <_>
          <internalNodes>
            0 -1 502 3.2907366403378546e-05</internalNodes>
          <leafValues>
            -1.6310390830039978e-01 1.9614018499851227e-01</leafValues></_>
        <_>
          <internalNodes>
            0 -1 685 2.3754513822495937e-03</internalNodes>
          <leafValues>
            -1.0246570408344269e-01 3.5745671391487122e-01</leafValues></_>
        <_>
          <internalNodes>
            0 -1 535 -3.3316944609396160e-04</internalNodes>
          <leafValues>
            -3.6133337020874023e-01 9.1735407710075378e-02</leafValues></_>
        <_>
          <internalNodes>
            0 -1 711 1.3394239431363530e-05</internalNodes>
          <leafValues>
            -1.3572806119918823e-01 2.2016774117946625e-01</leafValues></_>
        <_>
          <internalNodes>
            0 -1 711 -1.1583900231926236e-05</internalNodes>
          <leafValues>
            2.2777050733566284e-01 -1.6720950603485107e-01</leafValues></_>
        <_>
          <internalNodes>
            0 -1 462 -1.3027143431827426e-03</internalNodes>
          <leafValues>
            5.4451996088027954e-01 -4.6594902873039246e-02</leafValues></_>
        <_>
          <internalNodes>
            0 -1 673 -2.2317995317280293e-03</internalNodes>
          <leafValues>
            -3.6895793676376343e-01 8.3856388926506042e-02</leafValues></_>
        <_>
          <internalNodes>
            0 -1 781 1.7193446401506662e-03</internalNodes>
          <leafValues>
            8.5314303636550903e-02 -3.5570609569549561e-01</leafValues></_>
        <_>
          <internalNodes>
            0 -1 581 9.4926683232188225e-03</internalNodes>
          <leafValues>
            -1.1108297109603882e-01 3.0122369527816772e-01</leafValues></_>
        <_>
          <internalNodes>
            0 -1 501 -3.3499032724648714e-05</internalNodes>
          <leafValues>
            1.4265230298042297e-01 -2.1122522652149200e-01</leafValues></_>
        <_>
          <internalNodes>
            0 -1 178 1.3545723049901426e-05</internalNodes>
          <leafValues>
            -1.5126314759254456e-01 2.0510627329349518e-01</leafValues></_>
        <_>
          <internalNodes>
            0 -1 462 1.0152756003662944e-03</internalNodes>
          <leafValues>
            -6.1644624918699265e-02 4.7019684314727783e-01</leafValues></_>
        <_>
          <internalNodes>
            0 -1 481 -1.4822676312178373e-03</internalNodes>
          <leafValues>
            5.1760244369506836e-01 -5.3380012512207031e-02</leafValues></_>
        <_>
          <internalNodes>
            0 -1 477 -1.6644785646349192e-03</internalNodes>
          <leafValues>
            -4.4596374034881592e-01 7.8238397836685181e-02</leafValues></_>
        <_>
          <internalNodes>
            0 -1 451 -3.6914530210196972e-03</internalNodes>
          <leafValues>
            6.2474888563156128e-01 -5.4357714951038361e-02</leafValues></_>
        <_>
          <internalNodes>
            0 -1 86 -7.9823110718280077e-04</internalNodes>
          <leafValues>
            -2.5143271684646606e-01 1.2442508339881897e-01</leafValues></_>
        <_>
          <internalNodes>
            0 -1 331 3.6193443520460278e-05</internalNodes>
          <leafValues>
            -1.4833405613899231e-01 1.9493989646434784e-01</leafValues></_></weakClassifiers></_>
    <!-- stage 14 -->
    <_>
      <maxWeakCount>61</maxWeakCount>
      <stageThreshold>-9.3808966875076294e-01</stageThreshold>
      <weakClassifiers>
        <_>
          <internalNodes>
            0 -1 455 2.2373419255018234e-02</internalNodes>
          <leafValues>
            -8.0409357324242592e-03 5.4339623451232910e-01</leafValues></_>
        <_>
          <internalNodes>
            0 -1 55 -2.6261406019330025e-03</internalNodes>
          <leafValues>
            4.7667092084884644e-01 -5.5269513279199600e-02</leafValues></_>
        <_>
          <internalNodes>
            0 -1 445 -2.3367282003164291e-02</internalNodes>
          <leafValues>
            -4.6481597423553467e-01 5.8214616030454636e-02</leafValues></_>
        <_>
          <internalNodes>
            0 -1 749 -2.5318241678178310e-03</internalNodes>
          <leafValues>
            4.6307742595672607e-01 -6.3688054680824280e-02</leafValues></_>
        <_>
          <internalNodes>
            0 -1 434 4.9774888902902603e-03</internalNodes>
          <leafValues>
            -5.7303696870803833e-02 4.9925386905670166e-01</leafValues></_>
        <_>
          <internalNodes>
            0 -1 513 -1.6780607402324677e-03</internalNodes>
          <leafValues>
            -4.6939954161643982e-01 4.7580827027559280e-02</leafValues></_>
        <_>
          <internalNodes>
            0 -1 58 3.2378770411014557e-03</internalNodes>
          <leafValues>
            -6.6184222698211670e-02 3.6408540606498718e-01</leafValues></_>
        <_>
          <internalNodes>
            0 -1 583 -1.2633373262360692e-03</internalNodes>
          <leafValues>
            1.1916919052600861e-01 -1.9101800024509430e-01</leafValues></_>
        <_>
          <internalNodes>
            0 -1 538 3.4091412089765072e-03</internalNodes>
          <leafValues>
            8.2473732531070709e-02 -4.4364571571350098e-01</leafValues></_>
        <_>
          <internalNodes>
            0 -1 518 1.0390081442892551e-03</internalNodes>
          <leafValues>
            -1.0647545009851456e-01 2.5476175546646118e-01</leafValues></_>
        <_>
          <internalNodes>
            0 -1 130 4.6340207336470485e-04</internalNodes>
          <leafValues>
            7.7586859464645386e-02 -3.4392645955085754e-01</leafValues></_>
        <_>
          <internalNodes>
            0 -1 295 -6.0724988579750061e-03</internalNodes>
          <leafValues>
            3.4839832782745361e-01 -8.2019008696079254e-02</leafValues></_>
        <_>
          <internalNodes>
            0 -1 415 1.2858075788244605e-03</internalNodes>
          <leafValues>
            -7.6838918030261993e-02 4.0276110172271729e-01</leafValues></_>
        <_>
          <internalNodes>
            0 -1 771 3.1688148155808449e-03</internalNodes>
          <leafValues>
            8.9114896953105927e-02 -2.8509452939033508e-01</leafValues></_>
        <_>
          <internalNodes>
            0 -1 131 1.2814465910196304e-02</internalNodes>
          <leafValues>
            -8.8240675628185272e-02 2.9632806777954102e-01</leafValues></_>
        <_>
          <internalNodes>
            0 -1 801 9.1654644347727299e-04</internalNodes>
          <leafValues>
            1.0013293474912643e-01 -2.5751501321792603e-01</leafValues></_>
        <_>
          <internalNodes>
            0 -1 802 -1.8037448171526194e-04</internalNodes>
          <leafValues>
            -2.5452867150306702e-01 9.0626202523708344e-02</leafValues></_>
        <_>
          <internalNodes>
            0 -1 603 1.1123924050480127e-03</internalNodes>
          <leafValues>
            -3.8441725075244904e-02 6.5580761432647705e-01</leafValues></_>
        <_>
          <internalNodes>
            0 -1 598 1.3051558285951614e-02</internalNodes>
          <leafValues>
            -1.3135787844657898e-01 1.7746573686599731e-01</leafValues></_>
        <_>
          <internalNodes>
            0 -1 652 -3.7012803659308702e-05</internalNodes>
          <leafValues>
            1.8461871147155762e-01 -1.3331994414329529e-01</leafValues></_>
        <_>
          <internalNodes>
            0 -1 752 5.9693418734241277e-05</internalNodes>
          <leafValues>
            -1.3525411486625671e-01 1.7085649073123932e-01</leafValues></_>
        <_>
          <internalNodes>
            0 -1 698 7.6094543328508735e-04</internalNodes>
          <leafValues>
            -1.2934416532516479e-01 2.1448633074760437e-01</leafValues></_>
        <_>
          <internalNodes>
            0 -1 117 -1.1413444299250841e-03</internalNodes>
          <leafValues>
            -3.7303066253662109e-01 5.9225268661975861e-02</leafValues></_>
        <_>
          <internalNodes>
            0 -1 152 -1.4844098687171936e-01</internalNodes>
          <leafValues>
            3.0591815710067749e-01 -7.7317692339420319e-02</leafValues></_>
        <_>
          <internalNodes>
            0 -1 490 1.4014277840033174e-03</internalNodes>
          <leafValues>
            -1.7705850303173065e-01 1.3853134214878082e-01</leafValues></_>
        <_>
          <internalNodes>
            0 -1 652 1.0311999358236790e-03</internalNodes>
          <leafValues>
            -3.8952752947807312e-02 5.8799242973327637e-01</leafValues></_>
        <_>
          <internalNodes>
            0 -1 794 -1.0013957507908344e-03</internalNodes>
          <leafValues>
