<?xml version="1.0"?>
<opencv_storage>
<cascade>
  <stageType>BOOST</stageType>
  <featureType>HAAR</featureType>
  <height>24</height>
  <width>24</width>
  <stageParams>
    <boostType>GAB</boostType>
    <minHitRate>9.9500000476837158e-01</minHitRate>
    <maxFalseAlarm>5.0000000000000000e-01</maxFalseAlarm>
    <weightTrimRate>9.4999998807907104e-01</weightTrimRate>
    <maxDepth>1</maxDepth>
    <maxWeakCount>100</maxWeakCount></stageParams>
  <featureParams>
    <maxCatCount>0</maxCatCount>
    <featSize>1</featSize>
    <mode>BASIC</mode></featureParams>
  <stageNum>20</stageNum>
  <stages>
    <!-- stage 0 -->
    <_>
      <maxWeakCount>5</maxWeakCount>
      <stageThreshold>-1.6752673387527466e+00</stageThreshold>
      <weakClassifiers>
        <_>
          <internalNodes>
            0 -1 18 1.2734964489936829e-01</internalNodes>
          <leafValues>
            -9.0262901782989502e-01 3.6986300349235535e-01</leafValues></_>
        <_>
          <internalNodes>
            0 -1 13 -6.4130626618862152e-02</internalNodes>
          <leafValues>
            3.7787437438964844e-01 -6.5951639413833618e-01</leafValues></_>
        <_>
          <internalNodes>
            0 -1 73 -3.3350601792335510e-02</internalNodes>
          <leafValues>
            4.2142644524574280e-01 -5.7135337591171265e-01</leafValues></_>
        <_>
          <internalNodes>
            0 -1 117 -6.6001096274703741e-04</internalNodes>
          <leafValues>
            -9.6488374471664429e-01 1.6596052050590515e-01</leafValues></_>
        <_>
          <internalNodes>
            0 -1 118 4.8248170060105622e-04</internalNodes>
          <leafValues>
            2.9227095842361450e-01 -6.5144890546798706e-01</leafValues></_></weakClassifiers></_>
    <!-- stage 1 -->
    <_>
      <maxWeakCount>8</maxWeakCount>
      <stageThreshold>-1.8432037830352783e+00</stageThreshold>
      <weakClassifiers>
        <_>
          <internalNodes>
            0 -1 96 2.1599528193473816e-01</internalNodes>
          <leafValues>
            -8.5130113363265991e-01 6.6666668653488159e-01</leafValues></_>
        <_>
          <internalNodes>
            0 -1 15 -2.5433480739593506e-01</internalNodes>
          <leafValues>
            7.5413888692855835e-01 -5.1254874467849731e-01</leafValues></_>
        <_>
          <internalNodes>
            0 -1 26 9.0923190116882324e-02</internalNodes>
          <leafValues>
            -4.6699631214141846e-01 5.8459609746932983e-01</leafValues></_>
        <_>
          <internalNodes>
            0 -1 77 -7.5462302193045616e-03</internalNodes>
          <leafValues>
            5.3535878658294678e-01 -3.1441080570220947e-01</leafValues></_>
        <_>
          <internalNodes>
            0 -1 128 2.7378485538065434e-04</internalNodes>
          <leafValues>
            2.2213493287563324e-01 -7.8748661279678345e-01</leafValues></_>
        <_>
          <internalNodes>
            0 -1 124 -6.8349940702319145e-03</internalNodes>
          <leafValues>
            -1. 1.7679455876350403e-01</leafValues></_>
        <_>
          <internalNodes>
            0 -1 123 -1.7581370193511248e-03</internalNodes>
          <leafValues>
            3.7868165969848633e-01 -4.8176348209381104e-01</leafValues></_>
        <_>
          <internalNodes>
            0 -1 160 1.7910656752064824e-03</internalNodes>
          <leafValues>
            -4.6488240361213684e-01 4.3040409684181213e-01</leafValues></_></weakClassifiers></_>
    <!-- stage 2 -->
    <_>
      <maxWeakCount>7</maxWeakCount>
      <stageThreshold>-1.4336581230163574e+00</stageThreshold>
      <weakClassifiers>
        <_>
          <internalNodes>
            0 -1 70 4.9981340765953064e-02</internalNodes>
          <leafValues>
            -8.5046726465225220e-01 3.3333334326744080e-01</leafValues></_>
        <_>
          <internalNodes>
            0 -1 6 6.8465240299701691e-02</internalNodes>
          <leafValues>
            -5.2640700340270996e-01 3.4558361768722534e-01</leafValues></_>
        <_>
          <internalNodes>
            0 -1 114 -2.4056012625806034e-04</internalNodes>
          <leafValues>
            2.8186887502670288e-01 -4.8588132858276367e-01</leafValues></_>
        <_>
          <internalNodes>
            0 -1 122 -1.6901668906211853e-01</internalNodes>
          <leafValues>
            5.6177371740341187e-01 -2.7753004431724548e-01</leafValues></_>
        <_>
          <internalNodes>
            0 -1 81 1.4635815750807524e-03</internalNodes>
          <leafValues>
            1.6647370159626007e-01 -9.1281384229660034e-01</leafValues></_>
        <_>
          <internalNodes>
            0 -1 4 3.9757769554853439e-03</internalNodes>
          <leafValues>
            -3.4502354264259338e-01 4.2373275756835938e-01</leafValues></_>
        <_>
          <internalNodes>
            0 -1 88 4.3664993718266487e-03</internalNodes>
          <leafValues>
            1.1742714792490005e-01 -1.</leafValues></_></weakClassifiers></_>
    <!-- stage 3 -->
    <_>
      <maxWeakCount>5</maxWeakCount>
      <stageThreshold>-1.4486207962036133e+00</stageThreshold>
      <weakClassifiers>
        <_>
          <internalNodes>
            0 -1 25 1.0991288349032402e-02</internalNodes>
          <leafValues>
            -8.4571963548660278e-01 -2.7027027681469917e-02</leafValues></_>
        <_>
          <internalNodes>
            0 -1 110 -6.6520646214485168e-04</internalNodes>
          <leafValues>
            -9.7496204078197479e-02 -7.5361937284469604e-01</leafValues></_>
        <_>
          <internalNodes>
            0 -1 120 -2.6349539402872324e-03</internalNodes>
          <leafValues>
            -9.7488403320312500e-01 1.0423485934734344e-01</leafValues></_>
        <_>
          <internalNodes>
            0 -1 139 -2.1058756392449141e-03</internalNodes>
          <leafValues>
            -8.9313787221908569e-01 1.2666803598403931e-01</leafValues></_>
        <_>
          <internalNodes>
            0 -1 142 -5.3495379688683897e-05</internalNodes>
          <leafValues>
            2.8349810838699341e-01 -4.8156562447547913e-01</leafValues></_></weakClassifiers></_>
    <!-- stage 4 -->
    <_>
      <maxWeakCount>8</maxWeakCount>
      <stageThreshold>-1.8671318292617798e+00</stageThreshold>
      <weakClassifiers>
        <_>
          <internalNodes>
            0 -1 158 4.3936587870121002e-02</internalNodes>
          <leafValues>
            -8.5352110862731934e-01 2.5714287161827087e-01</leafValues></_>
        <_>
          <internalNodes>
            0 -1 134 -3.3014811575412750e-02</internalNodes>
          <leafValues>
            3.8197991251945496e-01 -5.4673117399215698e-01</leafValues></_>
        <_>
          <internalNodes>
            0 -1 106 -1.5024089254438877e-02</internalNodes>
          <leafValues>
            4.3748262524604797e-01 -4.5748201012611389e-01</leafValues></_>
        <_>
          <internalNodes>
            0 -1 16 5.6568093597888947e-02</internalNodes>
          <leafValues>
            -3.1747639179229736e-01 4.6317166090011597e-01</leafValues></_>
        <_>
          <internalNodes>
            0 -1 12 -1.6660134133417159e-04</internalNodes>
          <leafValues>
            -7.6704603433609009e-01 1.9888593256473541e-01</leafValues></_>
        <_>
          <internalNodes>
            0 -1 102 -4.4163214624859393e-05</internalNodes>
          <leafValues>
            3.0013442039489746e-01 -4.3229290843009949e-01</leafValues></_>
        <_>
          <internalNodes>
            0 -1 39 1.3358048163354397e-03</internalNodes>
          <leafValues>
            1.3090150058269501e-01 -9.5492053031921387e-01</leafValues></_>
        <_>
          <internalNodes>
            0 -1 169 2.5466510560363531e-03</internalNodes>
          <leafValues>
            -3.5334837436676025e-01 4.1058430075645447e-01</leafValues></_></weakClassifiers></_>
    <!-- stage 5 -->
    <_>
      <maxWeakCount>7</maxWeakCount>
      <stageThreshold>-1.9318531751632690e+00</stageThreshold>
      <weakClassifiers>
        <_>
          <internalNodes>
            0 -1 43 -8.8705331087112427e-02</internalNodes>
          <leafValues>
            8.5714288055896759e-02 -8.4788733720779419e-01</leafValues></_>
        <_>
          <internalNodes>
            0 -1 59 4.1325420170323923e-05</internalNodes>
          <leafValues>
            -7.2292673587799072e-01 1.3756579160690308e-01</leafValues></_>
        <_>
          <internalNodes>
            0 -1 145 -1.1300478945486248e-04</internalNodes>
          <leafValues>
            4.1191503405570984e-01 -4.8893088102340698e-01</leafValues></_>
        <_>
          <internalNodes>
            0 -1 80 4.1576124203857034e-05</internalNodes>
          <leafValues>
            -3.8267377018928528e-01 4.7683385014533997e-01</leafValues></_>
        <_>
          <internalNodes>
            0 -1 119 4.5970817154739052e-05</internalNodes>
          <leafValues>
            -3.6072084307670593e-01 5.0816577672958374e-01</leafValues></_>
        <_>
          <internalNodes>
            0 -1 58 5.8122452173847705e-05</internalNodes>
          <leafValues>
            -4.0893617272377014e-01 3.9633220434188843e-01</leafValues></_>
        <_>
          <internalNodes>
            0 -1 36 4.7506906412309036e-05</internalNodes>
          <leafValues>
            -3.5971158742904663e-01 4.2071491479873657e-01</leafValues></_></weakClassifiers></_>
    <!-- stage 6 -->
    <_>
      <maxWeakCount>8</maxWeakCount>
      <stageThreshold>-1.8530324697494507e+00</stageThreshold>
      <weakClassifiers>
        <_>
          <internalNodes>
            0 -1 60 -2.7256295084953308e-02</internalNodes>
          <leafValues>
            -9.5890410244464874e-02 -8.6952286958694458e-01</leafValues></_>
        <_>
          <internalNodes>
            0 -1 7 -2.9662493616342545e-03</internalNodes>
          <leafValues>
            5.1413923501968384e-01 -5.2026218175888062e-01</leafValues></_>
        <_>
          <internalNodes>
            0 -1 28 -2.6985209842678159e-05</internalNodes>
          <leafValues>
            3.8070917129516602e-01 -4.1198110580444336e-01</leafValues></_>
        <_>
          <internalNodes>
            0 -1 132 -4.2280127672711387e-05</internalNodes>
          <leafValues>
            3.1585222482681274e-01 -5.0154423713684082e-01</leafValues></_>
        <_>
          <internalNodes>
            0 -1 89 -2.2202352993190289e-03</internalNodes>
          <leafValues>
            5.8214652538299561e-01 -2.5886139273643494e-01</leafValues></_>
        <_>
          <internalNodes>
            0 -1 35 4.4877425534650683e-04</internalNodes>
          <leafValues>
            -3.2074072957038879e-01 4.6035635471343994e-01</leafValues></_>
        <_>
          <internalNodes>
            0 -1 0 -1.4644803479313850e-02</internalNodes>
          <leafValues>
            6.6927587985992432e-01 -1.8979197740554810e-01</leafValues></_>
        <_>
          <internalNodes>
            0 -1 54 -2.7227037207921967e-05</internalNodes>
          <leafValues>
            4.3708249926567078e-01 -3.7882155179977417e-01</leafValues></_></weakClassifiers></_>
    <!-- stage 7 -->
    <_>
      <maxWeakCount>9</maxWeakCount>
      <stageThreshold>-1.4883829355239868e+00</stageThreshold>
      <weakClassifiers>
        <_>
          <internalNodes>
            0 -1 44 5.6301288306713104e-02</internalNodes>
          <leafValues>
            -8.4745764732360840e-01 6.2769599895045316e-18</leafValues></_>
        <_>
          <internalNodes>
            0 -1 92 -5.9910095296800137e-03</internalNodes>
          <leafValues>
            4.1115286946296692e-01 -4.8256677389144897e-01</leafValues></_>
        <_>
          <internalNodes>
            0 -1 144 -9.5120109617710114e-03</internalNodes>
          <leafValues>
            4.5220550894737244e-01 -3.0312937498092651e-01</leafValues></_>
        <_>
          <internalNodes>
            0 -1 159 3.0897762626409531e-03</internalNodes>
          <leafValues>
            1.7154587805271149e-01 -7.7638006210327148e-01</leafValues></_>
        <_>
          <internalNodes>
            0 -1 133 -2.2102510556578636e-03</internalNodes>
          <leafValues>
            -9.3969714641571045e-01 1.2185682356357574e-01</leafValues></_>
        <_>
          <internalNodes>
            0 -1 11 -1.5126825310289860e-02</internalNodes>
          <leafValues>
            6.4005631208419800e-01 -2.0792607963085175e-01</leafValues></_>
        <_>
          <internalNodes>
            0 -1 140 2.0448958966881037e-03</internalNodes>
          <leafValues>
            -2.4269002676010132e-01 5.1888608932495117e-01</leafValues></_>
        <_>
          <internalNodes>
            0 -1 164 -8.8978768326342106e-04</internalNodes>
          <leafValues>
            -7.4811798334121704e-01 1.6145688295364380e-01</leafValues></_>
        <_>
          <internalNodes>
            0 -1 108 -2.3950736969709396e-02</internalNodes>
          <leafValues>
            2.8852608799934387e-01 -3.8243195414543152e-01</leafValues></_></weakClassifiers></_>
    <!-- stage 8 -->
    <_>
      <maxWeakCount>7</maxWeakCount>
      <stageThreshold>-1.7092607021331787e+00</stageThreshold>
      <weakClassifiers>
        <_>
          <internalNodes>
            0 -1 2 -1.0781830549240112e-01</internalNodes>
          <leafValues>
            -2.4242424964904785e-01 -8.5493230819702148e-01</leafValues></_>
        <_>
          <internalNodes>
            0 -1 101 -3.7639646325260401e-04</internalNodes>
          <leafValues>
            -9.2735934257507324e-01 -2.0793366432189941e-01</leafValues></_>
        <_>
          <internalNodes>
            0 -1 141 -1.8727381248027086e-03</internalNodes>
          <leafValues>
            -9.2878252267837524e-01 7.2035096585750580e-02</leafValues></_>
        <_>
          <internalNodes>
            0 -1 68 -3.5919588990509510e-03</internalNodes>
          <leafValues>
            -1. 9.4950854778289795e-02</leafValues></_>
        <_>
          <internalNodes>
            0 -1 87 1.4630724908784032e-03</internalNodes>
          <leafValues>
            8.5885904729366302e-02 -9.5182013511657715e-01</leafValues></_>
        <_>
          <internalNodes>
            0 -1 37 4.9641504883766174e-03</internalNodes>
          <leafValues>
            -3.5754466056823730e-01 3.0771267414093018e-01</leafValues></_>
        <_>
          <internalNodes>
            0 -1 115 9.6560409292578697e-04</internalNodes>
          <leafValues>
            1.7770375311374664e-01 -7.1342128515243530e-01</leafValues></_></weakClassifiers></_>
    <!-- stage 9 -->
    <_>
      <maxWeakCount>9</maxWeakCount>
      <stageThreshold>-1.5027850866317749e+00</stageThreshold>
      <weakClassifiers>
        <_>
          <internalNodes>
            0 -1 91 5.3983172401785851e-03</internalNodes>
          <leafValues>
            -8.3654731512069702e-01 1.</leafValues></_>
        <_>
          <internalNodes>
            0 -1 103 -3.6282958462834358e-03</internalNodes>
          <leafValues>
            3.6677464842796326e-01 -5.0400245189666748e-01</leafValues></_>
        <_>
          <internalNodes>
            0 -1 38 -1.2920305132865906e-01</internalNodes>
          <leafValues>
            5.7670497894287109e-01 -2.2031851112842560e-01</leafValues></_>
        <_>
          <internalNodes>
            0 -1 8 -1.0011005215346813e-03</internalNodes>
          <leafValues>
            6.8235379457473755e-01 -1.8438294529914856e-01</leafValues></_>
        <_>
          <internalNodes>
            0 -1 14 3.8414084701798856e-04</internalNodes>
          <leafValues>
            2.1936322748661041e-01 -6.3668060302734375e-01</leafValues></_>
        <_>
          <internalNodes>
            0 -1 150 -1.5658994016121142e-05</internalNodes>
          <leafValues>
            3.6295792460441589e-01 -3.3222582936286926e-01</leafValues></_>
        <_>
          <internalNodes>
            0 -1 97 -2.2130997385829687e-03</internalNodes>
          <leafValues>
            6.8868088722229004e-01 -2.1085004508495331e-01</leafValues></_>
        <_>
          <internalNodes>
            0 -1 22 -2.3339512699749321e-04</internalNodes>
          <leafValues>
            -5.2930980920791626e-01 2.7473181486129761e-01</leafValues></_>
        <_>
          <internalNodes>
            0 -1 53 4.0816423279466107e-05</internalNodes>
          <leafValues>
            -3.4343317151069641e-01 3.5046726465225220e-01</leafValues></_></weakClassifiers></_>
    <!-- stage 10 -->
    <_>
      <maxWeakCount>8</maxWeakCount>
      <stageThreshold>-1.5560951232910156e+00</stageThreshold>
      <weakClassifiers>
        <_>
          <internalNodes>
            0 -1 56 4.3305419385433197e-02</internalNodes>
          <leafValues>
            -8.3873957395553589e-01 2.3809523880481720e-01</leafValues></_>
        <_>
          <internalNodes>
            0 -1 23 -1.9936252385377884e-02</internalNodes>
          <leafValues>
            1.9238842651247978e-02 -6.1538857221603394e-01</leafValues></_>
        <_>
          <internalNodes>
            0 -1 90 -1.7760058399289846e-03</internalNodes>
          <leafValues>
            2.3889499902725220e-01 -4.2267802357673645e-01</leafValues></_>
        <_>
          <internalNodes>
            0 -1 111 -8.9826789917424321e-05</internalNodes>
          <leafValues>
            2.4042946100234985e-01 -3.7921437621116638e-01</leafValues></_>
        <_>
          <internalNodes>
            0 -1 109 -5.9146205894649029e-03</internalNodes>
          <leafValues>
            -1. 1.5569691359996796e-01</leafValues></_>
        <_>
          <internalNodes>
            0 -1 3 -8.1314742565155029e-02</internalNodes>
          <leafValues>
            5.0752055644989014e-01 -2.4985015392303467e-01</leafValues></_>
        <_>
          <internalNodes>
            0 -1 165 -2.1813421044498682e-03</internalNodes>
          <leafValues>
            6.3124018907546997e-01 -1.4793898165225983e-01</leafValues></_>
        <_>
          <internalNodes>
            0 -1 113 -1.7900757491588593e-02</internalNodes>
          <leafValues>
            3.6030203104019165e-01 -3.1225365400314331e-01</leafValues></_></weakClassifiers></_>
    <!-- stage 11 -->
    <_>
      <maxWeakCount>6</maxWeakCount>
      <stageThreshold>-1.6062861680984497e+00</stageThreshold>
      <weakClassifiers>
        <_>
          <internalNodes>
            0 -1 9 3.3704359084367752e-02</internalNodes>
          <leafValues>
            -8.2967031002044678e-01 7.5000000000000000e-01</leafValues></_>
        <_>
          <internalNodes>
            0 -1 112 -1.1154301464557648e-03</internalNodes>
          <leafValues>
            -8.4351104497909546e-01 -1.6845941543579102e-01</leafValues></_>
        <_>
          <internalNodes>
            0 -1 168 7.3179253377020359e-04</internalNodes>
          <leafValues>
            1.0193257033824921e-01 -7.7855199575424194e-01</leafValues></_>
        <_>
          <internalNodes>
            0 -1 143 1.6883066855370998e-03</internalNodes>
          <leafValues>
            9.9149174988269806e-02 -9.1867148876190186e-01</leafValues></_>
        <_>
          <internalNodes>
            0 -1 64 5.2048675715923309e-03</internalNodes>
          <leafValues>
            -2.6689228415489197e-01 3.5924226045608521e-01</leafValues></_>
        <_>
          <internalNodes>
            0 -1 27 -1.6694294754415751e-03</internalNodes>
          <leafValues>
            -8.7930673360824585e-01 1.3270574808120728e-01</leafValues></_></weakClassifiers></_>
    <!-- stage 12 -->
    <_>
      <maxWeakCount>8</maxWeakCount>
      <stageThreshold>-1.5857157707214355e+00</stageThreshold>
      <weakClassifiers>
        <_>
          <internalNodes>
            0 -1 33 1.0619668662548065e-01</internalNodes>
          <leafValues>
            -8.5043144226074219e-01 -2.2807016968727112e-01</leafValues></_>
        <_>
          <internalNodes>
            0 -1 30 -8.4726223722100258e-03</internalNodes>
          <leafValues>
            3.2997298240661621e-01 -4.8399943113327026e-01</leafValues></_>
        <_>
          <internalNodes>
            0 -1 55 -4.2648814618587494e-02</internalNodes>
          <leafValues>
            2.8012001514434814e-01 -3.4101301431655884e-01</leafValues></_>
        <_>
          <internalNodes>
            0 -1 107 5.0921915099024773e-03</internalNodes>
          <leafValues>
            -2.1154561638832092e-01 5.0952291488647461e-01</leafValues></_>
        <_>
          <internalNodes>
            0 -1 94 -2.0419638603925705e-03</internalNodes>
          <leafValues>
            -9.0585041046142578e-01 1.0877930372953415e-01</leafValues></_>
        <_>
          <internalNodes>
            0 -1 48 1.4168331399559975e-03</internalNodes>
          <leafValues>
            -2.8974348306655884e-01 3.0876389145851135e-01</leafValues></_>
        <_>
          <internalNodes>
            0 -1 32 -1.6904076933860779e-01</internalNodes>
          <leafValues>
            4.5300763845443726e-01 -2.4082618951797485e-01</leafValues></_>
        <_>
          <internalNodes>
            0 -1 34 6.5742398146539927e-04</internalNodes>
          <leafValues>
            -2.9591900110244751e-01 3.1488427519798279e-01</leafValues></_></weakClassifiers></_>
    <!-- stage 13 -->
    <_>
      <maxWeakCount>9</maxWeakCount>
      <stageThreshold>-1.7695542573928833e+00</stageThreshold>
      <weakClassifiers>
        <_>
          <internalNodes>
            0 -1 153 2.5507761165499687e-03</internalNodes>
          <leafValues>
            -8.3639705181121826e-01 8.3333331346511841e-01</leafValues></_>
        <_>
          <internalNodes>
            0 -1 146 -1.4617362059652805e-02</internalNodes>
          <leafValues>
            2.9562330245971680e-01 -4.8976969718933105e-01</leafValues></_>
        <_>
          <internalNodes>
            0 -1 71 -3.9647291414439678e-03</internalNodes>
          <leafValues>
            -7.5231438875198364e-01 1.1588613688945770e-01</leafValues></_>
        <_>
          <internalNodes>
            0 -1 29 4.4586398871615529e-05</internalNodes>
          <leafValues>
            -3.7772029638290405e-01 2.7782168984413147e-01</leafValues></_>
        <_>
          <internalNodes>
            0 -1 131 -1.4981685671955347e-03</internalNodes>
          <leafValues>
            -6.9786208868026733e-01 1.7515471577644348e-01</leafValues></_>
        <_>
          <internalNodes>
            0 -1 170 -1.9729566702153534e-04</internalNodes>
          <leafValues>
            -5.0681251287460327e-01 1.9460357725620270e-01</leafValues></_>
        <_>
          <internalNodes>
            0 -1 104 -2.8299521654844284e-03</internalNodes>
          <leafValues>
            5.6521689891815186e-01 -1.7555408179759979e-01</leafValues></_>
        <_>
          <internalNodes>
            0 -1 46 5.6789226830005646e-02</internalNodes>
          <leafValues>
            1.5810847282409668e-01 -6.7632275819778442e-01</leafValues></_>
        <_>
          <internalNodes>
            0 -1 62 3.5211874637752771e-04</internalNodes>
          <leafValues>
            1.6755008697509766e-01 -5.5583852529525757e-01</leafValues></_></weakClassifiers></_>
    <!-- stage 14 -->
    <_>
      <maxWeakCount>10</maxWeakCount>
      <stageThreshold>-1.5334920883178711e+00</stageThreshold>
      <weakClassifiers>
        <_>
          <internalNodes>
            0 -1 149 8.5405427962541580e-03</internalNodes>
          <leafValues>
            -8.4952378273010254e-01 -1.5999999642372131e-01</leafValues></_>
        <_>
          <internalNodes>
            0 -1 95 -8.1641562283039093e-03</internalNodes>
          <leafValues>
            6.9082063436508179e-01 -4.2644757032394409e-01</leafValues></_>
        <_>
          <internalNodes>
            0 -1 10 -2.1246317774057388e-03</internalNodes>
          <leafValues>
            -6.2787491083145142e-01 1.7046833038330078e-01</leafValues></_>
        <_>
          <internalNodes>
            0 -1 126 -8.0214720219373703e-03</internalNodes>
          <leafValues>
            -1. 7.2624452412128448e-02</leafValues></_>
        <_>
          <internalNodes>
            0 -1 1 9.7220146562904119e-04</internalNodes>
          <leafValues>
            8.7115705013275146e-02 -1.</leafValues></_>
        <_>
          <internalNodes>
            0 -1 20 2.0380956120789051e-03</internalNodes>
          <leafValues>
            -1.9777998328208923e-01 5.1408505439758301e-01</leafValues></_>
        <_>
          <internalNodes>
            0 -1 98 1.3565793633460999e-03</internalNodes>
          <leafValues>
            1.1183980107307434e-01 -9.4837325811386108e-01</leafValues></_>
        <_>
          <internalNodes>
            0 -1 167 6.6577410325407982e-04</internalNodes>
          <leafValues>
            -2.2693347930908203e-01 4.3963301181793213e-01</leafValues></_>
        <_>
          <internalNodes>
            0 -1 156 2.3480569943785667e-03</internalNodes>
          <leafValues>
            -2.7187618613243103e-01 3.9374133944511414e-01</leafValues></_>
        <_>
          <internalNodes>
            0 -1 5 -8.9727091835811734e-04</internalNodes>
          <leafValues>
            -7.0144975185394287e-01 1.2974643707275391e-01</leafValues></_></weakClassifiers></_>
    <!-- stage 15 -->
    <_>
      <maxWeakCount>12</maxWeakCount>
      <stageThreshold>-1.6716891527175903e+00</stageThreshold>
      <weakClassifiers>
        <_>
          <internalNodes>
            0 -1 93 1.3656260445713997e-02</internalNodes>
          <leafValues>
            -8.3394831418991089e-01 2.5000000000000000e-01</leafValues></_>
        <_>
          <internalNodes>
            0 -1 138 -8.5818814113736153e-04</internalNodes>
          <leafValues>
            -3.7192892283201218e-02 -5.3648436069488525e-01</leafValues></_>
        <_>
          <internalNodes>
            0 -1 125 -5.1858660299330950e-04</internalNodes>
          <leafValues>
            -4.8551845550537109e-01 1.3546296954154968e-01</leafValues></_>
        <_>
          <internalNodes>
            0 -1 130 -4.0102008730173111e-02</internalNodes>
          <leafValues>
            -8.3675354719161987e-01 8.3733178675174713e-02</leafValues></_>
        <_>
          <internalNodes>
            0 -1 163 -5.9860241599380970e-03</internalNodes>
          <leafValues>
            6.4204752445220947e-01 -1.3154631853103638e-01</leafValues></_>
        <_>
          <internalNodes>
            0 -1 155 2.0271001849323511e-03</internalNodes>
          <leafValues>
            -1.3163933157920837e-01 5.7713371515274048e-01</leafValues></_>
        <_>
          <internalNodes>
            0 -1 52 5.9894379228353500e-03</internalNodes>
          <leafValues>
            -1.7101144790649414e-01 4.7299593687057495e-01</leafValues></_>
        <_>
          <internalNodes>
            0 -1 127 1.1298498138785362e-03</internalNodes>
          <leafValues>
            1.3091486692428589e-01 -9.2296612262725830e-01</leafValues></_>
        <_>
          <internalNodes>
            0 -1 99 -2.0918268710374832e-03</internalNodes>
          <leafValues>
            4.7574242949485779e-01 -1.9973401725292206e-01</leafValues></_>
        <_>
          <internalNodes>
            0 -1 78 1.0865067597478628e-03</internalNodes>
          <leafValues>
            1.0810526460409164e-01 -1.</leafValues></_>
        <_>
          <internalNodes>
            0 -1 85 1.1226545320823789e-03</internalNodes>
          <leafValues>
            -2.4502673745155334e-01 3.6337083578109741e-01</leafValues></_>
        <_>
          <internalNodes>
            0 -1 83 4.7803968191146851e-02</internalNodes>
          <leafValues>
            1.1948510259389877e-01 -8.5151851177215576e-01</leafValues></_></weakClassifiers></_>
    <!-- stage 16 -->
    <_>
      <maxWeakCount>10</maxWeakCount>
      <stageThreshold>-1.9180239439010620e+00</stageThreshold>
      <weakClassifiers>
        <_>
          <internalNodes>
            0 -1 166 -1.2519812211394310e-02</internalNodes>
          <leafValues>
            3.4482758492231369e-02 -8.4126985073089600e-01</leafValues></_>
        <_>
          <internalNodes>
            0 -1 79 1.0771839879453182e-03</internalNodes>
          <leafValues>
            -4.6243563294410706e-01 2.3609666526317596e-01</leafValues></_>
        <_>
          <internalNodes>
            0 -1 24 6.9265319034457207e-03</internalNodes>
          <leafValues>
            -1.7528663575649261e-01 4.8998120427131653e-01</leafValues></_>
        <_>
          <internalNodes>
            0 -1 17 -3.5631567239761353e-02</internalNodes>
          <leafValues>
            6.3559585809707642e-01 -1.1430976539850235e-01</leafValues></_>
        <_>
          <internalNodes>
            0 -1 129 -2.2875561844557524e-03</internalNodes>
          <leafValues>
            -8.9035612344741821e-01 9.9269084632396698e-02</leafValues></_>
        <_>
          <internalNodes>
            0 -1 74 -4.2193792760372162e-03</internalNodes>
          <leafValues>
            4.3364018201828003e-01 -1.7930929362773895e-01</leafValues></_>
        <_>
          <internalNodes>
            0 -1 50 7.7760531567037106e-03</internalNodes>
          <leafValues>
            -2.7905437350273132e-01 3.1238904595375061e-01</leafValues></_>
        <_>
          <internalNodes>
            0 -1 66 -5.0246650062035769e-05</internalNodes>
          <leafValues>
            2.9913845658302307e-01 -2.8788793087005615e-01</leafValues></_>
        <_>
          <internalNodes>
            0 -1 19 1.0743560269474983e-03</internalNodes>
          <leafValues>
            -2.2095303237438202e-01 4.2478927969932556e-01</leafValues></_>
        <_>
          <internalNodes>
            0 -1 42 -7.2420397773385048e-03</internalNodes>
          <leafValues>
            4.9122285842895508e-01 -1.5531887114048004e-01</leafValues></_></weakClassifiers></_>
    <!-- stage 17 -->
    <_>
      <maxWeakCount>11</maxWeakCount>
      <stageThreshold>-1.4892704486846924e+00</stageThreshold>
      <weakClassifiers>
        <_>
          <internalNodes>
            0 -1 148 1.5853699296712875e-02</internalNodes>
          <leafValues>
            -8.2481753826141357e-01 1.</leafValues></_>
        <_>
          <internalNodes>
            0 -1 100 -4.8809957661433145e-05</internalNodes>
          <leafValues>
            -4.5814692974090576e-02 -5.6321591138839722e-01</leafValues></_>
        <_>
          <internalNodes>
            0 -1 21 -9.1868860181421041e-04</internalNodes>
          <leafValues>
            -8.3191484212875366e-01 6.2991783022880554e-02</leafValues></_>
        <_>
          <internalNodes>
            0 -1 116 -1.5251822769641876e-03</internalNodes>
          <leafValues>
            -8.9202642440795898e-01 9.8720587790012360e-02</leafValues></_>
        <_>
          <internalNodes>
            0 -1 157 -2.8533218428492546e-03</internalNodes>
          <leafValues>
            3.7076348066329956e-01 -1.9658637046813965e-01</leafValues></_>
        <_>
          <internalNodes>
            0 -1 75 -9.0874485671520233e-02</internalNodes>
          <leafValues>
            4.8779812455177307e-01 -2.1357892453670502e-01</leafValues></_>
        <_>
          <internalNodes>
            0 -1 105 -2.5111205875873566e-02</internalNodes>
          <leafValues>
            4.0223076939582825e-01 -2.1399860084056854e-01</leafValues></_>
        <_>
          <internalNodes>
            0 -1 45 -2.3990683257579803e-02</internalNodes>
          <leafValues>
            3.4629058837890625e-01 -2.1840015053749084e-01</leafValues></_>
        <_>
          <internalNodes>
            0 -1 49 5.1575242541730404e-03</internalNodes>
          <leafValues>
            8.5592672228813171e-02 -8.3655256032943726e-01</leafValues></_>
        <_>
          <internalNodes>
            0 -1 67 1.6462821804452688e-04</internalNodes>
          <leafValues>
            -3.2690805196762085e-01 2.7681985497474670e-01</leafValues></_>
        <_>
          <internalNodes>
            0 -1 63 -5.4497930250363424e-05</internalNodes>
          <leafValues>
            3.0352878570556641e-01 -2.8074109554290771e-01</leafValues></_></weakClassifiers></_>
    <!-- stage 18 -->
    <_>
      <maxWeakCount>13</maxWeakCount>
      <stageThreshold>-1.6929279565811157e+00</stageThreshold>
      <weakClassifiers>
        <_>
          <internalNodes>
            0 -1 161 1.3249644543975592e-03</internalNodes>
          <leafValues>
            -8.4180790185928345e-01 -1.5789473056793213e-01</leafValues></_>
        <_>
          <internalNodes>
            0 -1 72 5.2391011267900467e-03</internalNodes>
          <leafValues>
            -4.3119314312934875e-01 3.1516906619071960e-01</leafValues></_>
        <_>
          <internalNodes>
            0 -1 31 2.8733443468809128e-04</internalNodes>
          <leafValues>
            9.0317361056804657e-02 -6.8067920207977295e-01</leafValues></_>
        <_>
          <internalNodes>
            0 -1 154 5.0977221690118313e-04</internalNodes>
          <leafValues>
            9.6817255020141602e-02 -6.2286931276321411e-01</leafValues></_>
        <_>
          <internalNodes>
            0 -1 65 3.9752647280693054e-02</internalNodes>
          <leafValues>
            6.1415452510118484e-02 -1.</leafValues></_>
        <_>
          <internalNodes>
            0 -1 57 2.7781835524365306e-04</internalNodes>
          <leafValues>
            -2.6851081848144531e-01 2.7118813991546631e-01</leafValues></_>
        <_>
          <internalNodes>
            0 -1 40 7.2114169597625732e-02</internalNodes>
          <leafValues>
            1.3484074175357819e-01 -5.9900337457656860e-01</leafValues></_>
        <_>
          <internalNodes>
            0 -1 76 -1.8003606237471104e-03</internalNodes>
          <leafValues>
            -1. 5.7631406933069229e-02</leafValues></_>
        <_>
          <internalNodes>
            0 -1 86 2.5743599981069565e-03</internalNodes>
          <leafValues>
            -1.4385238289833069e-01 5.6489336490631104e-01</leafValues></_>
        <_>
          <internalNodes>
            0 -1 51 6.0142396250739694e-05</internalNodes>
          <leafValues>
            -2.4896416068077087e-01 3.2458990812301636e-01</leafValues></_>
        <_>
          <internalNodes>
            0 -1 69 -3.5935480264015496e-04</internalNodes>
          <leafValues>
            -6.7094951868057251e-01 1.1668457835912704e-01</leafValues></_>
        <_>
          <internalNodes>
            0 -1 82 1.6283432487398386e-03</internalNodes>
          <leafValues>
            7.7548615634441376e-02 -8.1482923030853271e-01</leafValues></_>
        <_>
          <internalNodes>
            0 -1 135 -3.3290644641965628e-03</internalNodes>
          <leafValues>
            5.0614714622497559e-01 -1.6255730390548706e-01</leafValues></_></weakClassifiers></_>
    <!-- stage 19 -->
    <_>
      <maxWeakCount>11</maxWeakCount>
      <stageThreshold>-1.6785123348236084e+00</stageThreshold>
      <weakClassifiers>
        <_>
          <internalNodes>
            0 -1 147 2.7430910617113113e-02</internalNodes>
          <leafValues>
            -8.3364140987396240e-01 1.1111111193895340e-01</leafValues></_>
        <_>
          <internalNodes>
            0 -1 136 -3.1758109107613564e-03</internalNodes>
          <leafValues>
            2.6544660329818726e-01 -4.3605747818946838e-01</leafValues></_>
        <_>
          <internalNodes>
            0 -1 162 -2.7340691303834319e-04</internalNodes>
          <leafValues>
            -9.0063172578811646e-01 7.8171104192733765e-02</leafValues></_>
        <_>
          <internalNodes>
            0 -1 151 -1.0931493714451790e-02</internalNodes>
          <leafValues>
            -8.6575949192047119e-01 1.0184230655431747e-01</leafValues></_>
        <_>
          <internalNodes>
            0 -1 121 3.7944366340525448e-05</internalNodes>
          <leafValues>
            -3.0169129371643066e-01 2.5266915559768677e-01</leafValues></_>
        <_>
          <internalNodes>
            0 -1 61 -3.7284416612237692e-04</internalNodes>
          <leafValues>
            -5.0907039642333984e-01 1.4763234555721283e-01</leafValues></_>
        <_>
          <internalNodes>
            0 -1 47 2.7383631095290184e-04</internalNodes>
          <leafValues>
            -1.6197668015956879e-01 4.8315906524658203e-01</leafValues></_>
        <_>
          <internalNodes>
            0 -1 152 -4.7667119360994548e-05</internalNodes>
          <leafValues>
            2.5202712416648865e-01 -2.9880589246749878e-01</leafValues></_>
        <_>
          <internalNodes>
            0 -1 41 -2.4209795519709587e-03</internalNodes>
          <leafValues>
            3.4530028700828552e-01 -1.9661086797714233e-01</leafValues></_>
        <_>
          <internalNodes>
            0 -1 84 -1.3881715014576912e-02</internalNodes>
          <leafValues>
            6.0062116384506226e-01 -1.2845225632190704e-01</leafValues></_>
        <_>
          <internalNodes>
            0 -1 137 1.5756149077787995e-03</internalNodes>
          <leafValues>
            -1.9083340466022491e-01 4.6902930736541748e-01</leafValues></_></weakClassifiers></_></stages>
  <features>
    <_>
      <rects>
        <_>
          0 2 6 10 -1.</_>
        <_>
          0 2 3 5 2.</_>
        <_>
          3 7 3 5 2.</_></rects>
      <tilted>0</tilted></_>
    <_>
      <rects>
        <_>
          0 3 4 2 -1.</_>
        <_>
          0 3 2 1 2.</_>
        <_>
          2 4 2 1 2.</_></rects>
      <tilted>0</tilted></_>
    <_>
      <rects>
        <_>
          0 4 8 20 -1.</_>
        <_>
          4 4 4 20 2.</_></rects>
      <tilted>0</tilted></_>
    <_>
      <rects>
        <_>
          0 4 22 8 -1.</_>
        <_>
          0 8 22 4 2.</_></rects>
      <tilted>0</tilted></_>
    <_>
      <rects>
        <_>
          0 5 21 4 -1.</_>
        <_>
          0 7 21 2 2.</_></rects>
      <tilted>0</tilted></_>
    <_>
      <rects>
        <_>
          0 7 4 3 -1.</_>
        <_>
          0 8 4 1 3.</_></rects>
      <tilted>0</tilted></_>
    <_>
      <rects>
        <_>
          0 8 8 10 -1.</_>
        <_>
          4 8 4 10 2.</_></rects>
      <tilted>0</tilted></_>
    <_>
      <rects>
        <_>
          0 9 3 3 -1.</_>
        <_>
          1 9 1 3 3.</_></rects>
      <tilted>0</tilted></_>
    <_>
      <rects>
        <_>
          0 10 3 1 -1.</_>
        <_>
          1 10 1 1 3.</_></rects>
      <tilted>0</tilted></_>
    <_>
      <rects>
        <_>
          0 10 1 12 -1.</_>
        <_>
          0 16 1 6 2.</_></rects>
      <tilted>0</tilted></_>
    <_>
      <rects>
        <_>
          0 10 11 2 -1.</_>
        <_>
          0 11 11 1 2.</_></rects>
      <tilted>0</tilted></_>
    <_>
      <rects>
        <_>
          0 12 4 9 -1.</_>
        <_>
          2 12 2 9 2.</_></rects>
      <tilted>0</tilted></_>
    <_>
      <rects>
        <_>
          0 17 1 3 -1.</_>
        <_>
          0 18 1 1 3.</_></rects>
      <tilted>0</tilted></_>
    <_>
      <rects>
        <_>
          0 20 24 4 -1.</_>
        <_>
          8 20 8 4 3.</_></rects>
      <tilted>0</tilted></_>
    <_>
      <rects>
        <_>
          0 23 4 1 -1.</_>
        <_>
          2 23 2 1 2.</_></rects>
      <tilted>0</tilted></_>
    <_>
      <rects>
        <_>
          1 0 23 12 -1.</_>
        <_>
          1 6 23 6 2.</_></rects>
      <tilted>0</tilted></_>
    <_>
      <rects>
        <_>
          1 5 15 10 -1.</_>
        <_>
          6 5 5 10 3.</_></rects>
      <tilted>0</tilted></_>
    <_>
      <rects>
        <_>
          1 6 8 5 -1.</_>
        <_>
          5 6 4 5 2.</_></rects>
      <tilted>0</tilted></_>
    <_>
      <rects>
        <_>
          1 6 18 10 -1.</_>
        <_>
          7 6 6 10 3.</_></rects>
      <tilted>0</tilted></_>
    <_>
      <rects>
        <_>
          1 10 3 3 -1.</_>
        <_>
          2 10 1 3 3.</_></rects>
      <tilted>0</tilted></_>
    <_>
      <rects>
        <_>
          1 10 3 6 -1.</_>
        <_>
          2 10 1 6 3.</_></rects>
      <tilted>0</tilted></_>
    <_>
      <rects>
        <_>
          1 11 3 3 -1.</_>
        <_>
          1 12 3 1 3.</_></rects>
      <tilted>0</tilted></_>
    <_>
      <rects>
        <_>
          2 1 2 5 -1.</_>
        <_>
          3 1 1 5 2.</_></rects>
      <tilted>0</tilted></_>
    <_>
      <rects>
        <_>
          2 1 21 9 -1.</_>
        <_>
          2 4 21 3 3.</_></rects>
      <tilted>0</tilted></_>
    <_>
      <rects>
        <_>
          2 4 4 8 -1.</_>
        <_>
          2 4 2 4 2.</_>
        <_>
          4 8 2 4 2.</_></rects>
      <tilted>0</tilted></_>
    <_>
      <rects>
        <_>
          2 5 2 10 -1.</_>
        <_>
          3 5 1 10 2.</_></rects>
      <tilted>0</tilted></_>
    <_>
      <rects>
        <_>
          2 7 18 9 -1.</_>
        <_>
          8 7 6 9 3.</_></rects>
      <tilted>0</tilted></_>
    <_>
      <rects>
        <_>
          2 9 8 3 -1.</_>
        <_>
          2 10 8 1 3.</_></rects>
      <tilted>0</tilted></_>
    <_>
      <rects>
        <_>
          2 17 1 2 -1.</_>
        <_>
          2 18 1 1 2.</_></rects>
      <tilted>0</tilted></_>
    <_>
      <rects>
        <_>
          2 17 3 1 -1.</_>
        <_>
          3 17 1 1 3.</_></rects>
      <tilted>0</tilted></_>
    <_>
      <rects>
        <_>
          2 20 8 4 -1.</_>
        <_>
          2 20 4 2 2.</_>
        <_>
          6 22 4 2 2.</_></rects>
      <tilted>0</tilted></_>
    <_>
      <rects>
        <_>
          3 0 1 2 -1.</_>
        <_>
          3 1 1 1 2.</_></rects>
      <tilted>0</tilted></_>
    <_>
      <rects>
        <_>
          3 0 18 24 -1.</_>
        <_>
          3 8 18 8 3.</_></rects>
      <tilted>0</tilted></_>
    <_>
      <rects>
        <_>
          3 1 21 12 -1.</_>
        <_>
          3 5 21 4 3.</_></rects>
      <tilted>0</tilted></_>
    <_>
      <rects>
        <_>
          3 9 3 6 -1.</_>
        <_>
          4 9 1 6 3.</_></rects>
      <tilted>0</tilted></_>
    <_>
      <rects>
        <_>
          3 10 3 2 -1.</_>
        <_>
          4 10 1 2 3.</_></rects>
      <tilted>0</tilted></_>
    <_>
      <rects>
        <_>
          3 12 3 1 -1.</_>
        <_>
          4 12 1 1 3.</_></rects>
      <tilted>0</tilted></_>
    <_>
      <rects>
        <_>
          3 16 8 4 -1.</_>
        <_>
          7 16 4 4 2.</_></rects>
      <tilted>0</tilted></_>
    <_>
      <rects>
        <_>
          4 0 16 21 -1.</_>
        <_>
          4 7 16 7 3.</_></rects>
      <tilted>0</tilted></_>
    <_>
      <rects>
        <_>
          4 10 4 3 -1.</_>
        <_>
          4 11 4 1 3.</_></rects>
      <tilted>0</tilted></_>
    <_>
      <rects>
        <_>
          4 10 10 14 -1.</_>
        <_>
          9 10 5 14 2.</_></rects>
      <tilted>0</tilted></_>
    <_>
      <rects>
        <_>
          4 16 6 4 -1.</_>
        <_>
          4 16 3 2 2.</_>
        <_>
          7 18 3 2 2.</_></rects>
      <tilted>0</tilted></_>
    <_>
      <rects>
        <_>
          4 18 5 6 -1.</_>
        <_>
          4 20 5 2 3.</_></rects>
      <tilted>0</tilted></_>
    <_>
      <rects>
        <_>
          4 18 15 6 -1.</_>
        <_>
          4 21 15 3 2.</_></rects>
      <tilted>0</tilted></_>
    <_>
      <rects>
        <_>
          4 20 14 4 -1.</_>
        <_>
          4 22 14 2 2.</_></rects>
      <tilted>0</tilted></_>
    <_>
      <rects>
        <_>
          5 1 12 9 -1.</_>
        <_>
          5 4 12 3 3.</_></rects>
      <tilted>0</tilted></_>
    <_>
      <rects>
        <_>
          5 3 5 20 -1.</_>
        <_>
          5 13 5 10 2.</_></rects>
      <tilted>0</tilted></_>
    <_>
      <rects>
        <_>
          5 6 2 2 -1.</_>
        <_>
          5 6 1 1 2.</_>
        <_>
          6 7 1 1 2.</_></rects>
      <tilted>0</tilted></_>
    <_>
      <rects>
        <_>
          5 10 2 7 -1.</_>
        <_>
          6 10 1 7 2.</_></rects>
      <tilted>0</tilted></_>
    <_>
      <rects>
        <_>
          5 10 6 1 -1.</_>
        <_>
          8 10 3 1 2.</_></rects>
      <tilted>0</tilted></_>
    <_>
      <rects>
        <_>
          5 10 12 2 -1.</_>
        <_>
          9 10 4 2 3.</_></rects>
      <tilted>0</tilted></_>
    <_>
      <rects>
        <_>
          5 13 2 2 -1.</_>
        <_>
          5 13 1 1 2.</_>
        <_>
          6 14 1 1 2.</_></rects>
      <tilted>0</tilted></_>
    <_>
      <rects>
        <_>
          5 16 6 6 -1.</_>
        <_>
          5 18 6 2 3.</_></rects>
      <tilted>0</tilted></_>
    <_>
      <rects>
        <_>
          5 20 2 2 -1.</_>
        <_>
          5 20 1 1 2.</_>
        <_>
          6 21 1 1 2.</_></rects>
      <tilted>0</tilted></_>
    <_>
      <rects>
        <_>
          6 0 1 2 -1.</_>
        <_>
          6 1 1 1 2.</_></rects>
      <tilted>0</tilted></_>
    <_>
      <rects>
        <_>
          6 0 17 15 -1.</_>
        <_>
          6 5 17 5 3.</_></rects>
      <tilted>0</tilted></_>
    <_>
      <rects>
        <_>
          6 1 12 4 -1.</_>
        <_>
          6 3 12 2 2.</_></rects>
      <tilted>0</tilted></_>
    <_>
      <rects>
        <_>
          6 12 2 1 -1.</_>
        <_>
          7 12 1 1 2.</_></rects>
      <tilted>0</tilted></_>
    <_>
      <rects>
        <_>
          6 13 1 3 -1.</_>
        <_>
          6 14 1 1 3.</_></rects>
      <tilted>0</tilted></_>
    <_>
      <rects>
        <_>
          6 16 2 1 -1.</_>
        <_>
          7 16 1 1 2.</_></rects>
      <tilted>0</tilted></_>
    <_>
      <rects>
        <_>
          6 18 12 6 -1.</_>
        <_>
          6 20 12 2 3.</_></rects>
      <tilted>0</tilted></_>
    <_>
      <rects>
        <_>
          6 21 6 1 -1.</_>
        <_>
          8 21 2 1 3.</_></rects>
      <tilted>0</tilted></_>
    <_>
      <rects>
        <_>
          7 0 2 3 -1.</_>
        <_>
          8 0 1 3 2.</_></rects>
      <tilted>0</tilted></_>
    <_>
      <rects>
        <_>
          7 4 2 2 -1.</_>
        <_>
          7 4 1 1 2.</_>
        <_>
          8 5 1 1 2.</_></rects>
      <tilted>0</tilted></_>
    <_>
      <rects>
        <_>
          7 4 4 9 -1.</_>
        <_>
          9 4 2 9 2.</_></rects>
      <tilted>0</tilted></_>
    <_>
      <rects>
        <_>
          7 4 4 12 -1.</_>
        <_>
          7 8 4 4 3.</_></rects>
      <tilted>0</tilted></_>
    <_>
      <rects>
        <_>
          7 8 2 2 -1.</_>
        <_>
          7 8 1 1 2.</_>
        <_>
          8 9 1 1 2.</_></rects>
      <tilted>0</tilted></_>
    <_>
      <rects>
        <_>
          7 10 2 2 -1.</_>
        <_>
          8 10 1 2 2.</_></rects>
      <tilted>0</tilted></_>
    <_>
      <rects>
        <_>
          7 12 14 2 -1.</_>
        <_>
          7 12 7 1 2.</_>
        <_>
          14 13 7 1 2.</_></rects>
      <tilted>0</tilted></_>
    <_>
      <rects>
        <_>
          7 18 2 1 -1.</_>
        <_>
          8 18 1 1 2.</_></rects>
      <tilted>0</tilted></_>
    <_>
      <rects>
        <_>
          7 20 13 4 -1.</_>
        <_>
          7 22 13 2 2.</_></rects>
      <tilted>0</tilted></_>
    <_>
      <rects>
        <_>
          8 0 6 4 -1.</_>
        <_>
          10 0 2 4 3.</_></rects>
      <tilted>0</tilted></_>
    <_>
      <rects>
        <_>
          8 1 7 3 -1.</_>
        <_>
          8 2 7 1 3.</_></rects>
      <tilted>0</tilted></_>
    <_>
      <rects>
        <_>
          8 1 16 16 -1.</_>
        <_>
          8 1 8 8 2.</_>
        <_>
          16 9 8 8 2.</_></rects>
      <tilted>0</tilted></_>
    <_>
      <rects>
        <_>
          8 2 6 19 -1.</_>
        <_>
          10 2 2 19 3.</_></rects>
      <tilted>0</tilted></_>
    <_>
      <rects>
        <_>
          8 3 15 18 -1.</_>
        <_>
          13 3 5 18 3.</_></rects>
      <tilted>0</tilted></_>
    <_>
      <rects>
        <_>
          8 8 6 1 -1.</_>
        <_>
          10 8 2 1 3.</_></rects>
      <tilted>0</tilted></_>
    <_>
      <rects>
        <_>
          8 18 7 6 -1.</_>
        <_>
          8 20 7 2 3.</_></rects>
      <tilted>0</tilted></_>
    <_>
      <rects>
        <_>
          8 20 3 2 -1.</_>
        <_>
          9 20 1 2 3.</_></rects>
      <tilted>0</tilted></_>
    <_>
      <rects>
        <_>
          8 20 2 3 -1.</_>
        <_>
          8 21 2 1 3.</_></rects>
      <tilted>0</tilted></_>
    <_>
      <rects>
        <_>
          8 22 1 2 -1.</_>
        <_>
          8 23 1 1 2.</_></rects>
      <tilted>0</tilted></_>
    <_>
      <rects>
        <_>
          9 0 6 1 -1.</_>
        <_>
          11 0 2 1 3.</_></rects>
      <tilted>0</tilted></_>
    <_>
      <rects>
        <_>
          9 1 3 7 -1.</_>
        <_>
          10 1 1 7 3.</_></rects>
      <tilted>0</tilted></_>
    <_>
      <rects>
        <_>
          9 3 4 10 -1.</_>
        <_>
          9 8 4 5 2.</_></rects>
      <tilted>0</tilted></_>
    <_>
      <rects>
        <_>
          9 6 6 4 -1.</_>
        <_>
          12 6 3 4 2.</_></rects>
      <tilted>0</tilted></_>
    <_>
      <rects>
        <_>
          9 16 9 3 -1.</_>
        <_>
          9 17 9 1 3.</_></rects>
      <tilted>0</tilted></_>
    <_>
      <rects>
        <_>
          9 19 6 3 -1.</_>
        <_>
          9 20 6 1 3.</_></rects>
      <tilted>0</tilted></_>
    <_>
      <rects>
        <_>
          9 20 3 3 -1.</_>
        <_>
          10 20 1 3 3.</_></rects>
      <tilted>0</tilted></_>
    <_>
      <rects>
        <_>
          10 0 2 24 -1.</_>
        <_>
          10 0 1 12 2.</_>
        <_>
          11 12 1 12 2.</_></rects>
      <tilted>0</tilted></_>
    <_>
      <rects>
        <_>
          10 4 7 3 -1.</_>
        <_>
          10 5 7 1 3.</_></rects>
      <tilted>0</tilted></_>
    <_>
      <rects>
        <_>
          10 15 4 4 -1.</_>
        <_>
          10 17 4 2 2.</_></rects>
      <tilted>0</tilted></_>
    <_>
      <rects>
        <_>
          10 20 3 3 -1.</_>
        <_>
          10 21 3 1 3.</_></rects>
      <tilted>0</tilted></_>
    <_>
      <rects>
        <_>
          10 20 8 2 -1.</_>
        <_>
          10 21 8 1 2.</_></rects>
      <tilted>0</tilted></_>
    <_>
      <rects>
        <_>
          10 22 12 2 -1.</_>
        <_>
          10 22 6 1 2.</_>
        <_>
          16 23 6 1 2.</_></rects>
      <tilted>0</tilted></_>
    <_>
      <rects>
        <_>
          11 0 2 5 -1.</_>
        <_>
          12 0 1 5 2.</_></rects>
      <tilted>0</tilted></_>
    <_>
      <rects>
        <_>
          11 0 6 3 -1.</_>
        <_>
          11 1 6 1 3.</_></rects>
      <tilted>0</tilted></_>
    <_>
      <rects>
        <_>
          11 0 8 21 -1.</_>
        <_>
          11 7 8 7 3.</_></rects>
      <tilted>0</tilted></_>
    <_>
      <rects>
        <_>
          11 2 3 3 -1.</_>
        <_>
          11 3 3 1 3.</_></rects>
      <tilted>0</tilted></_>
    <_>
      <rects>
        <_>
          11 3 3 4 -1.</_>
        <_>
          12 3 1 4 3.</_></rects>
      <tilted>0</tilted></_>
    <_>
      <rects>
        <_>
          11 3 4 3 -1.</_>
        <_>
          11 4 4 1 3.</_></rects>
      <tilted>0</tilted></_>
    <_>
      <rects>
        <_>
          11 12 1 3 -1.</_>
        <_>
          11 13 1 1 3.</_></rects>
      <tilted>0</tilted></_>
    <_>
      <rects>
        <_>
          11 13 3 1 -1.</_>
        <_>
          12 13 1 1 3.</_></rects>
      <tilted>0</tilted></_>
    <_>
      <rects>
        <_>
          11 18 1 2 -1.</_>
        <_>
          11 19 1 1 2.</_></rects>
      <tilted>0</tilted></_>
    <_>
      <rects>
        <_>
          11 20 6 3 -1.</_>
        <_>
          11 21 6 1 3.</_></rects>
      <tilted>0</tilted></_>
    <_>
      <rects>
        <_>
          11 21 6 3 -1.</_>
        <_>
          11 22 6 1 3.</_></rects>
      <tilted>0</tilted></_>
    <_>
      <rects>
        <_>
          12 0 12 8 -1.</_>
        <_>
          12 0 6 4 2.</_>
        <_>
          18 4 6 4 2.</_></rects>
      <tilted>0</tilted></_>
    <_>
      <rects>
        <_>
          12 0 9 15 -1.</_>
        <_>
          12 5 9 5 3.</_></rects>
      <tilted>0</tilted></_>
    <_>
      <rects>
        <_>
          12 2 2 6 -1.</_>
        <_>
          12 5 2 3 2.</_></rects>
      <tilted>0</tilted></_>
    <_>
      <rects>
        <_>
          12 2 12 14 -1.</_>
        <_>
          16 2 4 14 3.</_></rects>
      <tilted>0</tilted></_>
    <_>
      <rects>
        <_>
          12 8 6 1 -1.</_>
        <_>
          15 8 3 1 2.</_></rects>
      <tilted>0</tilted></_>
    <_>
      <rects>
        <_>
          12 10 6 2 -1.</_>
        <_>
          15 10 3 2 2.</_></rects>
      <tilted>0</tilted></_>
    <_>
      <rects>
        <_>
          12 11 2 1 -1.</_>
        <_>
          13 11 1 1 2.</_></rects>
      <tilted>0</tilted></_>
    <_>
      <rects>
        <_>
          12 15 3 8 -1.</_>
        <_>
          13 15 1 8 3.</_></rects>
      <tilted>0</tilted></_>
    <_>
      <rects>
        <_>
          12 15 12 6 -1.</_>
        <_>
          16 15 4 6 3.</_></rects>
      <tilted>0</tilted></_>
    <_>
      <rects>
        <_>
          12 16 5 2 -1.</_>
        <_>
          12 17 5 1 2.</_></rects>
      <tilted>0</tilted></_>
    <_>
      <rects>
        <_>
          12 17 3 5 -1.</_>
        <_>
          13 17 1 5 3.</_></rects>
      <tilted>0</tilted></_>
    <_>
      <rects>
        <_>
          12 18 3 5 -1.</_>
        <_>
          13 18 1 5 3.</_></rects>
      <tilted>0</tilted></_>
    <_>
      <rects>
        <_>
          12 19 3 2 -1.</_>
        <_>
          13 19 1 2 3.</_></rects>
      <tilted>0</tilted></_>
    <_>
      <rects>
        <_>
          12 19 3 4 -1.</_>
        <_>
          13 19 1 4 3.</_></rects>
      <tilted>0</tilted></_>
    <_>
      <rects>
        <_>
          13 2 2 2 -1.</_>
        <_>
          13 2 1 1 2.</_>
        <_>
          14 3 1 1 2.</_></rects>
      <tilted>0</tilted></_>
    <_>
      <rects>
        <_>
          13 8 10 3 -1.</_>
        <_>
          13 9 10 1 3.</_></rects>
      <tilted>0</tilted></_>
    <_>
      <rects>
        <_>
          13 22 2 2 -1.</_>
        <_>
          14 22 1 2 2.</_></rects>
      <tilted>0</tilted></_>
    <_>
      <rects>
        <_>
          14 0 10 18 -1.</_>
        <_>
          14 9 10 9 2.</_></rects>
      <tilted>0</tilted></_>
    <_>
      <rects>
        <_>
          14 6 2 15 -1.</_>
        <_>
          15 6 1 15 2.</_></rects>
      <tilted>0</tilted></_>
    <_>
      <rects>
        <_>
          14 6 3 18 -1.</_>
        <_>
          15 6 1 18 3.</_></rects>
      <tilted>0</tilted></_>
    <_>
      <rects>
        <_>
          14 7 2 16 -1.</_>
        <_>
          14 7 1 8 2.</_>
        <_>
          15 15 1 8 2.</_></rects>
      <tilted>0</tilted></_>
    <_>
      <rects>
        <_>
          14 12 4 3 -1.</_>
        <_>
          16 12 2 3 2.</_></rects>
      <tilted>0</tilted></_>
    <_>
      <rects>
        <_>
          14 16 4 2 -1.</_>
        <_>
          14 17 4 1 2.</_></rects>
      <tilted>0</tilted></_>
    <_>
      <rects>
        <_>
          14 23 3 1 -1.</_>
        <_>
          15 23 1 1 3.</_></rects>
      <tilted>0</tilted></_>
    <_>
      <rects>
        <_>
          15 2 3 6 -1.</_>
        <_>
          16 2 1 6 3.</_></rects>
      <tilted>0</tilted></_>
    <_>
      <rects>
        <_>
          15 2 9 9 -1.</_>
        <_>
          15 5 9 3 3.</_></rects>
      <tilted>0</tilted></_>
    <_>
      <rects>
        <_>
          15 7 8 3 -1.</_>
        <_>
          15 8 8 1 3.</_></rects>
      <tilted>0</tilted></_>
    <_>
      <rects>
        <_>
          15 8 2 1 -1.</_>
        <_>
          16 8 1 1 2.</_></rects>
      <tilted>0</tilted></_>
    <_>
      <rects>
        <_>
          15 10 9 3 -1.</_>
        <_>
          15 11 9 1 3.</_></rects>
      <tilted>0</tilted></_>
    <_>
      <rects>
        <_>
          16 0 8 12 -1.</_>
        <_>
          16 0 4 6 2.</_>
        <_>
          20 6 4 6 2.</_></rects>
      <tilted>0</tilted></_>
    <_>
      <rects>
        <_>
          16 5 2 6 -1.</_>
        <_>
          16 7 2 2 3.</_></rects>
      <tilted>0</tilted></_>
    <_>
      <rects>
        <_>
          16 16 6 4 -1.</_>
        <_>
          16 16 3 2 2.</_>
        <_>
          19 18 3 2 2.</_></rects>
      <tilted>0</tilted></_>
    <_>
      <rects>
        <_>
          17 3 2 4 -1.</_>
        <_>
          17 5 2 2 2.</_></rects>
      <tilted>0</tilted></_>
    <_>
      <rects>
        <_>
          17 9 2 3 -1.</_>
        <_>
          18 9 1 3 2.</_></rects>
      <tilted>0</tilted></_>
    <_>
      <rects>
        <_>
          17 9 7 3 -1.</_>
        <_>
          17 10 7 1 3.</_></rects>
      <tilted>0</tilted></_>
    <_>
      <rects>
        <_>
          17 10 6 3 -1.</_>
        <_>
          19 10 2 3 3.</_></rects>
      <tilted>0</tilted></_>
    <_>
      <rects>
        <_>
          17 11 6 3 -1.</_>
        <_>
          17 12 6 1 3.</_></rects>
      <tilted>0</tilted></_>
    <_>
      <rects>
        <_>
          17 14 1 4 -1.</_>
        <_>
          17 16 1 2 2.</_></rects>
      <tilted>0</tilted></_>
    <_>
      <rects>
        <_>
          17 14 5 3 -1.</_>
        <_>
          17 15 5 1 3.</_></rects>
      <tilted>0</tilted></_>
    <_>
      <rects>
        <_>
          18 8 6 7 -1.</_>
        <_>
          20 8 2 7 3.</_></rects>
      <tilted>0</tilted></_>
    <_>
      <rects>
        <_>
          18 10 2 1 -1.</_>
        <_>
          19 10 1 1 2.</_></rects>
      <tilted>0</tilted></_>
    <_>
      <rects>
        <_>
          18 10 6 5 -1.</_>
        <_>
          20 10 2 5 3.</_></rects>
      <tilted>0</tilted></_>
    <_>
      <rects>
        <_>
          19 0 2 10 -1.</_>
        <_>
          19 5 2 5 2.</_></rects>
      <tilted>0</tilted></_>
    <_>
      <rects>
        <_>
          19 1 1 6 -1.</_>
        <_>
          19 4 1 3 2.</_></rects>
      <tilted>0</tilted></_>
    <_>
      <rects>
        <_>
          19 5 4 6 -1.</_>
        <_>
          19 5 2 3 2.</_>
        <_>
          21 8 2 3 2.</_></rects>
      <tilted>0</tilted></_>
    <_>
      <rects>
        <_>
          19 9 2 2 -1.</_>
        <_>
          19 9 1 1 2.</_>
        <_>
          20 10 1 1 2.</_></rects>
      <tilted>0</tilted></_>
    <_>
      <rects>
        <_>
          19 10 3 9 -1.</_>
        <_>
          19 13 3 3 3.</_></rects>
      <tilted>0</tilted></_>
    <_>
      <rects>
        <_>
          19 13 4 3 -1.</_>
        <_>
          19 14 4 1 3.</_></rects>
      <tilted>0</tilted></_>
    <_>
      <rects>
        <_>
          19 19 1 2 -1.</_>
        <_>
          19 20 1 1 2.</_></rects>
      <tilted>0</tilted></_>
    <_>
      <rects>
        <_>
          19 22 3 2 -1.</_>
        <_>
          20 22 1 2 3.</_></rects>
      <tilted>0</tilted></_>
    <_>
      <rects>
        <_>
          20 5 2 6 -1.</_>
        <_>
          20 5 1 3 2.</_>
        <_>
          21 8 1 3 2.</_></rects>
      <tilted>0</tilted></_>
    <_>
      <rects>
        <_>
          20 8 2 14 -1.</_>
        <_>
          20 8 1 7 2.</_>
        <_>
          21 15 1 7 2.</_></rects>
      <tilted>0</tilted></_>
    <_>
      <rects>
        <_>
          20 9 2 6 -1.</_>
        <_>
          21 9 1 6 2.</_></rects>
      <tilted>0</tilted></_>
    <_>
      <rects>
        <_>
          20 9 4 12 -1.</_>
        <_>
          22 9 2 12 2.</_></rects>
      <tilted>0</tilted></_>
    <_>
      <rects>
        <_>
          20 14 4 6 -1.</_>
        <_>
          20 16 4 2 3.</_></rects>
      <tilted>0</tilted></_>
    <_>
      <rects>
        <_>
          20 17 4 6 -1.</_>
        <_>
          22 17 2 6 2.</_></rects>
      <tilted>0</tilted></_>
    <_>
      <rects>
        <_>
          20 18 2 2 -1.</_>
        <_>
          20 18 1 1 2.</_>
        <_>
          21 19 1 1 2.</_></rects>
      <tilted>0</tilted></_>
    <_>
      <rects>
        <_>
          20 22 1 2 -1.</_>
        <_>
          20 23 1 1 2.</_></rects>
      <tilted>0</tilted></_>
    <_>
      <rects>
        <_>
          21 0 2 14 -1.</_>
        <_>
          21 0 1 7 2.</_>
        <_>
          22 7 1 7 2.</_></rects>
      <tilted>0</tilted></_>
    <_>
      <rects>
        <_>
          21 4 3 3 -1.</_>
        <_>
          21 5 3 1 3.</_></rects>
      <tilted>0</tilted></_>
    <_>
      <rects>
        <_>
          21 10 2 4 -1.</_>
        <_>
          22 10 1 4 2.</_></rects>
      <tilted>0</tilted></_>
    <_>
      <rects>
        <_>
          21 11 3 7 -1.</_>
        <_>
          22 11 1 7 3.</_></rects>
      <tilted>0</tilted></_>
    <_>
      <rects>
        <_>
          21 12 3 3 -1.</_>
        <_>
          22 12 1 3 3.</_></rects>
      <tilted>0</tilted></_>
    <_>
      <rects>
        <_>
          21 21 3 3 -1.</_>
        <_>
          21 22 3 1 3.</_></rects>
      <tilted>0</tilted></_>
    <_>
      <rects>
        <_>
          22 11 2 11 -1.</_>
        <_>
          23 11 1 11 2.</_></rects>
      <tilted>0</tilted></_>
    <_>
      <rects>
        <_>
          22 19 1 4 -1.</_>
        <_>
          22 21 1 2 2.</_></rects>
      <tilted>0</tilted></_></features></cascade>
</opencv_storage>
