<?xml version="1.0"?>
<opencv_storage>
<cascade>
  <stageType>BOOST</stageType>
  <featureType>HAAR</featureType>
  <height>24</height>
  <width>24</width>
  <stageParams>
    <boostType>GAB</boostType>
    <minHitRate>9.9500000476837158e-01</minHitRate>
    <maxFalseAlarm>5.0000000000000000e-01</maxFalseAlarm>
    <weightTrimRate>9.4999998807907104e-01</weightTrimRate>
    <maxDepth>1</maxDepth>
    <maxWeakCount>100</maxWeakCount></stageParams>
  <featureParams>
    <maxCatCount>0</maxCatCount>
    <featSize>1</featSize>
    <mode>BASIC</mode></featureParams>
  <stageNum>20</stageNum>
  <stages>
    <!-- stage 0 -->
    <_>
      <maxWeakCount>18</maxWeakCount>
      <stageThreshold>-9.3408530950546265e-01</stageThreshold>
      <weakClassifiers>
        <_>
          <internalNodes>
            0 -1 30 1.0460588335990906e-01</internalNodes>
          <leafValues>
            -1.4958624541759491e-01 7.0441460609436035e-01</leafValues></_>
        <_>
          <internalNodes>
            0 -1 467 3.4709653118625283e-04</internalNodes>
          <leafValues>
            -2.2158512473106384e-01 4.8349586129188538e-01</leafValues></_>
        <_>
          <internalNodes>
            0 -1 599 2.7479141863295808e-05</internalNodes>
          <leafValues>
            -2.2419618070125580e-01 3.8255411386489868e-01</leafValues></_>
        <_>
          <internalNodes>
            0 -1 467 -1.9574075122363865e-04</internalNodes>
          <leafValues>
            2.6678860187530518e-01 -3.1224638223648071e-01</leafValues></_>
        <_>
          <internalNodes>
            0 -1 317 8.6489401292055845e-04</internalNodes>
          <leafValues>
            -1.8458876013755798e-01 4.1309466958045959e-01</leafValues></_>
        <_>
          <internalNodes>
            0 -1 628 2.3250114172697067e-02</internalNodes>
          <leafValues>
            -1.8537297844886780e-01 5.3544765710830688e-01</leafValues></_>
        <_>
          <internalNodes>
            0 -1 578 -4.1367627680301666e-02</internalNodes>
          <leafValues>
            4.8274543881416321e-01 -1.6380824148654938e-01</leafValues></_>
        <_>
          <internalNodes>
            0 -1 488 2.8865862637758255e-02</internalNodes>
          <leafValues>
            -1.3652665913105011e-01 5.2810573577880859e-01</leafValues></_>
        <_>
          <internalNodes>
            0 -1 110 -1.1509362608194351e-02</internalNodes>
          <leafValues>
            5.5541598796844482e-01 -1.5813478827476501e-01</leafValues></_>
        <_>
          <internalNodes>
            0 -1 432 -1.0561503469944000e-02</internalNodes>
          <leafValues>
            -7.4997782707214355e-01 1.1140963435173035e-01</leafValues></_>
        <_>
          <internalNodes>
            0 -1 78 -4.6777985990047455e-03</internalNodes>
          <leafValues>
            4.0084671974182129e-01 -1.8023045361042023e-01</leafValues></_>
        <_>
          <internalNodes>
            0 -1 132 6.8628741428256035e-04</internalNodes>
          <leafValues>
            -1.9603435695171356e-01 3.7962669134140015e-01</leafValues></_>
        <_>
          <internalNodes>
            0 -1 541 -1.7438216600567102e-03</internalNodes>
          <leafValues>
            -7.0671391487121582e-01 8.8240534067153931e-02</leafValues></_>
        <_>
          <internalNodes>
            0 -1 508 -2.8216258215252310e-05</internalNodes>
          <leafValues>
            2.3808752000331879e-01 -2.4964037537574768e-01</leafValues></_>
        <_>
          <internalNodes>
            0 -1 18 -1.1285537481307983e-01</internalNodes>
          <leafValues>
            5.5873352289199829e-01 -9.1669365763664246e-02</leafValues></_>
        <_>
          <internalNodes>
            0 -1 187 2.8555627068271860e-05</internalNodes>
          <leafValues>
            -2.1364003419876099e-01 3.0323094129562378e-01</leafValues></_>
        <_>
          <internalNodes>
            0 -1 456 -8.3984679076820612e-04</internalNodes>
          <leafValues>
            -6.6575503349304199e-01 8.4887854754924774e-02</leafValues></_>
        <_>
          <internalNodes>
            0 -1 101 8.9314626529812813e-04</internalNodes>
          <leafValues>
            -2.2293040156364441e-01 2.9065403342247009e-01</leafValues></_></weakClassifiers></_>
    <!-- stage 1 -->
    <_>
      <maxWeakCount>29</maxWeakCount>
      <stageThreshold>-9.9586701393127441e-01</stageThreshold>
      <weakClassifiers>
        <_>
          <internalNodes>
            0 -1 29 1.3334998488426208e-01</internalNodes>
          <leafValues>
            -1.0324129462242126e-01 7.0708447694778442e-01</leafValues></_>
        <_>
          <internalNodes>
            0 -1 350 -3.6848336458206177e-03</internalNodes>
          <leafValues>
            6.1415338516235352e-01 -7.5583003461360931e-02</leafValues></_>
        <_>
          <internalNodes>
            0 -1 425 3.3239441108889878e-05</internalNodes>
          <leafValues>
            -2.7383074164390564e-01 2.9518088698387146e-01</leafValues></_>
        <_>
          <internalNodes>
            0 -1 558 -2.9466253181453794e-05</internalNodes>
          <leafValues>
            3.1314677000045776e-01 -2.1294893324375153e-01</leafValues></_>
        <_>
          <internalNodes>
            0 -1 630 -6.0189858078956604e-02</internalNodes>
          <leafValues>
            6.2426656484603882e-01 -1.2897768616676331e-01</leafValues></_>
        <_>
          <internalNodes>
            0 -1 695 5.8266315609216690e-03</internalNodes>
          <leafValues>
            -1.2610495090484619e-01 4.8398926854133606e-01</leafValues></_>
        <_>
          <internalNodes>
            0 -1 266 6.3067971495911479e-05</internalNodes>
          <leafValues>
            -2.1134871244430542e-01 2.6786342263221741e-01</leafValues></_>
        <_>
          <internalNodes>
            0 -1 351 3.0449285986833274e-05</internalNodes>
          <leafValues>
            -2.0755596458911896e-01 2.8380820155143738e-01</leafValues></_>
        <_>
          <internalNodes>
            0 -1 639 2.7858433313667774e-03</internalNodes>
          <leafValues>
            -1.8332709372043610e-01 3.1970953941345215e-01</leafValues></_>
        <_>
          <internalNodes>
            0 -1 384 -3.4638931974768639e-03</internalNodes>
          <leafValues>
            -7.8980648517608643e-01 1.0202769190073013e-01</leafValues></_>
        <_>
          <internalNodes>
            0 -1 426 2.6526289730099961e-05</internalNodes>
          <leafValues>
            -2.2159862518310547e-01 2.4812260270118713e-01</leafValues></_>
        <_>
          <internalNodes>
            0 -1 380 6.2706125900149345e-03</internalNodes>
          <leafValues>
            -1.1183480918407440e-01 4.2614245414733887e-01</leafValues></_>
        <_>
          <internalNodes>
            0 -1 383 1.9526074174791574e-03</internalNodes>
          <leafValues>
            8.6968921124935150e-02 -6.6087001562118530e-01</leafValues></_>
        <_>
          <internalNodes>
            0 -1 216 -3.2096728682518005e-02</internalNodes>
          <leafValues>
            4.3006631731987000e-01 -1.3861607015132904e-01</leafValues></_>
        <_>
          <internalNodes>
            0 -1 642 -5.9628953749779612e-05</internalNodes>
          <leafValues>
            2.6692104339599609e-01 -2.0441694557666779e-01</leafValues></_>
        <_>
          <internalNodes>
            0 -1 91 2.6142485439777374e-02</internalNodes>
          <leafValues>
            -1.0016613453626633e-01 5.5514234304428101e-01</leafValues></_>
        <_>
          <internalNodes>
            0 -1 14 -2.2838407754898071e-01</internalNodes>
          <leafValues>
            5.2818733453750610e-01 -1.2011850625276566e-01</leafValues></_>
        <_>
          <internalNodes>
            0 -1 316 -1.5994689892977476e-03</internalNodes>
          <leafValues>
            -6.0214143991470337e-01 9.3950130045413971e-02</leafValues></_>
        <_>
          <internalNodes>
            0 -1 281 7.5902314856648445e-03</internalNodes>
          <leafValues>
            -1.3578359782695770e-01 3.9475050568580627e-01</leafValues></_>
        <_>
          <internalNodes>
            0 -1 330 2.7632024284685031e-05</internalNodes>
          <leafValues>
            -2.0173577964305878e-01 2.6328560709953308e-01</leafValues></_>
        <_>
          <internalNodes>
            0 -1 460 2.6404024538351223e-05</internalNodes>
          <leafValues>
            -1.8770138919353485e-01 2.5793549418449402e-01</leafValues></_>
        <_>
          <internalNodes>
            0 -1 731 -1.0075489990413189e-03</internalNodes>
          <leafValues>
            -4.8497474193572998e-01 1.0724752396345139e-01</leafValues></_>
        <_>
          <internalNodes>
            0 -1 376 3.4510623663663864e-05</internalNodes>
          <leafValues>
            -2.0272409915924072e-01 2.4886883795261383e-01</leafValues></_>
        <_>
          <internalNodes>
            0 -1 290 2.4196352809667587e-02</internalNodes>
          <leafValues>
            -1.2183719873428345e-01 4.2116880416870117e-01</leafValues></_>
        <_>
          <internalNodes>
            0 -1 602 5.8171250857412815e-03</internalNodes>
          <leafValues>
            6.6855303943157196e-02 -8.5206550359725952e-01</leafValues></_>
        <_>
          <internalNodes>
            0 -1 415 -2.6892525056609884e-05</internalNodes>
          <leafValues>
            2.1288594603538513e-01 -2.5406455993652344e-01</leafValues></_>
        <_>
          <internalNodes>
            0 -1 205 -3.0967421480454504e-05</internalNodes>
          <leafValues>
            2.6569235324859619e-01 -1.7438210546970367e-01</leafValues></_>
        <_>
          <internalNodes>
            0 -1 361 -2.7432467322796583e-03</internalNodes>
          <leafValues>
            -6.0008573532104492e-01 9.5709495246410370e-02</leafValues></_>
        <_>
          <internalNodes>
            0 -1 451 3.9599090814590454e-03</internalNodes>
          <leafValues>
            -1.4704017341136932e-01 3.5105884075164795e-01</leafValues></_></weakClassifiers></_>
    <!-- stage 2 -->
    <_>
      <maxWeakCount>31</maxWeakCount>
      <stageThreshold>-8.9959347248077393e-01</stageThreshold>
      <weakClassifiers>
        <_>
          <internalNodes>
            0 -1 41 2.1034494042396545e-01</internalNodes>
          <leafValues>
            -1.4173228293657303e-02 7.2660702466964722e-01</leafValues></_>
        <_>
          <internalNodes>
            0 -1 249 -9.1456025838851929e-03</internalNodes>
          <leafValues>
            7.0054656267166138e-01 -3.4012194722890854e-02</leafValues></_>
        <_>
          <internalNodes>
            0 -1 579 -3.0326933483593166e-05</internalNodes>
          <leafValues>
            2.1912738680839539e-01 -2.1617457270622253e-01</leafValues></_>
        <_>
          <internalNodes>
            0 -1 336 3.0264025554060936e-05</internalNodes>
          <leafValues>
            -2.1037450432777405e-01 2.2126060724258423e-01</leafValues></_>
        <_>
          <internalNodes>
            0 -1 665 -2.1467781625688076e-03</internalNodes>
          <leafValues>
            -5.7985031604766846e-01 8.1423707306385040e-02</leafValues></_>
        <_>
          <internalNodes>
            0 -1 726 -5.1703993231058121e-03</internalNodes>
          <leafValues>
            4.7056776285171509e-01 -1.0981380194425583e-01</leafValues></_>
        <_>
          <internalNodes>
            0 -1 633 2.6669774204492569e-02</internalNodes>
          <leafValues>
            -1.5840271115303040e-01 4.4621342420578003e-01</leafValues></_>
        <_>
          <internalNodes>
            0 -1 580 3.7375520914793015e-03</internalNodes>
          <leafValues>
            -1.2406090646982193e-01 3.7690195441246033e-01</leafValues></_>
        <_>
          <internalNodes>
            0 -1 345 -1.7118135001510382e-03</internalNodes>
          <leafValues>
            -5.5943828821182251e-01 8.0241903662681580e-02</leafValues></_>
        <_>
          <internalNodes>
            0 -1 534 -2.9189923225203529e-05</internalNodes>
          <leafValues>
            2.0675802230834961e-01 -2.1434661746025085e-01</leafValues></_>
        <_>
          <internalNodes>
            0 -1 328 1.6768109053373337e-03</internalNodes>
          <leafValues>
            -1.3151210546493530e-01 3.5299709439277649e-01</leafValues></_>
        <_>
          <internalNodes>
            0 -1 47 -4.8078697174787521e-02</internalNodes>
          <leafValues>
            5.1784664392471313e-01 -8.0507345497608185e-02</leafValues></_>
        <_>
          <internalNodes>
            0 -1 150 2.8209167794557288e-05</internalNodes>
          <leafValues>
            -1.9096189737319946e-01 2.3908711969852448e-01</leafValues></_>
        <_>
          <internalNodes>
            0 -1 365 -1.4287926023826003e-03</internalNodes>
          <leafValues>
            5.2570450305938721e-01 -8.8455520570278168e-02</leafValues></_>
        <_>
          <internalNodes>
            0 -1 323 -1.1836385820060968e-03</internalNodes>
          <leafValues>
            -4.5501834154129028e-01 1.1561084538698196e-01</leafValues></_>
        <_>
          <internalNodes>
            0 -1 16 1.1404735967516899e-02</internalNodes>
          <leafValues>
            -7.2802297770977020e-02 6.7325639724731445e-01</leafValues></_>
        <_>
          <internalNodes>
            0 -1 341 3.2831539865583181e-03</internalNodes>
          <leafValues>
            7.9656504094600677e-02 -6.2935966253280640e-01</leafValues></_>
        <_>
          <internalNodes>
            0 -1 419 -1.6129594296216965e-02</internalNodes>
          <leafValues>
            5.5601555109024048e-01 -8.9976094663143158e-02</leafValues></_>
        <_>
          <internalNodes>
            0 -1 560 1.4096469385549426e-03</internalNodes>
          <leafValues>
            -1.7121948301792145e-01 2.8171721100807190e-01</leafValues></_>
        <_>
          <internalNodes>
            0 -1 734 3.4301583655178547e-03</internalNodes>
          <leafValues>
            5.4797593504190445e-02 -8.6571145057678223e-01</leafValues></_>
        <_>
          <internalNodes>
            0 -1 414 2.5950208510039374e-05</internalNodes>
          <leafValues>
            -1.9896395504474640e-01 2.1873162686824799e-01</leafValues></_>
        <_>
          <internalNodes>
            0 -1 446 -2.8949303668923676e-05</internalNodes>
          <leafValues>
            2.0484970510005951e-01 -2.2874955832958221e-01</leafValues></_>
        <_>
          <internalNodes>
            0 -1 427 -1.1765777599066496e-03</internalNodes>
          <leafValues>
            -6.4117950201034546e-01 7.3568344116210938e-02</leafValues></_>
        <_>
          <internalNodes>
            0 -1 25 -3.8877942133694887e-03</internalNodes>
          <leafValues>
            4.3241670727729797e-01 -1.0803064703941345e-01</leafValues></_>
        <_>
          <internalNodes>
            0 -1 208 5.9977266937494278e-04</internalNodes>
          <leafValues>
            -1.6228690743446350e-01 2.6105716824531555e-01</leafValues></_>
        <_>
          <internalNodes>
            0 -1 453 3.5910608858102933e-05</internalNodes>
          <leafValues>
            -1.8056349456310272e-01 2.3846904933452606e-01</leafValues></_>
        <_>
          <internalNodes>
            0 -1 15 -4.7592836618423462e-01</internalNodes>
          <leafValues>
            -7.9856306314468384e-01 6.1227738857269287e-02</leafValues></_>
        <_>
          <internalNodes>
            0 -1 423 -1.1229491792619228e-03</internalNodes>
          <leafValues>
            2.9393362998962402e-01 -1.4600789546966553e-01</leafValues></_>
        <_>
          <internalNodes>
            0 -1 722 -9.0363330673426390e-04</internalNodes>
          <leafValues>
            -4.3757936358451843e-01 1.1151392012834549e-01</leafValues></_>
        <_>
          <internalNodes>
            0 -1 482 3.7361893191700801e-05</internalNodes>
          <leafValues>
            -1.7446230351924896e-01 2.3217681050300598e-01</leafValues></_>
        <_>
          <internalNodes>
            0 -1 678 -5.4717040620744228e-04</internalNodes>
          <leafValues>
            -3.2293069362640381e-01 1.3326366245746613e-01</leafValues></_></weakClassifiers></_>
    <!-- stage 3 -->
    <_>
      <maxWeakCount>24</maxWeakCount>
      <stageThreshold>-9.5746403932571411e-01</stageThreshold>
      <weakClassifiers>
        <_>
          <internalNodes>
            0 -1 40 1.9580258429050446e-01</internalNodes>
          <leafValues>
            2.6302218437194824e-02 6.8200838565826416e-01</leafValues></_>
        <_>
          <internalNodes>
            0 -1 647 1.5439670532941818e-02</internalNodes>
          <leafValues>
            -1.1292961984872818e-01 6.2015759944915771e-01</leafValues></_>
        <_>
          <internalNodes>
            0 -1 476 -2.4437323212623596e-02</internalNodes>
          <leafValues>
            4.3020766973495483e-01 -2.0858876407146454e-01</leafValues></_>
        <_>
          <internalNodes>
            0 -1 234 1.7193485796451569e-01</internalNodes>
          <leafValues>
            -1.1374156922101974e-01 5.5724948644638062e-01</leafValues></_>
        <_>
          <internalNodes>
            0 -1 280 1.6867347061634064e-02</internalNodes>
          <leafValues>
            -1.8511253595352173e-01 5.0846403837203979e-01</leafValues></_>
        <_>
          <internalNodes>
            0 -1 322 -1.2984868139028549e-02</internalNodes>
          <leafValues>
            4.9406096339225769e-01 -1.8301144242286682e-01</leafValues></_>
        <_>
          <internalNodes>
            0 -1 343 1.2909600511193275e-02</internalNodes>
          <leafValues>
            -9.1864965856075287e-02 6.2255376577377319e-01</leafValues></_>
        <_>
          <internalNodes>
            0 -1 298 -7.2438269853591919e-03</internalNodes>
          <leafValues>
            4.6516481041908264e-01 -1.5074582397937775e-01</leafValues></_>
        <_>
          <internalNodes>
            0 -1 2 -2.1506618708372116e-02</internalNodes>
          <leafValues>
            5.0484400987625122e-01 -1.0008587688207626e-01</leafValues></_>
        <_>
          <internalNodes>
            0 -1 133 9.2712352052330971e-03</internalNodes>
          <leafValues>
            -1.1021389812231064e-01 4.8990800976753235e-01</leafValues></_>
        <_>
          <internalNodes>
            0 -1 507 -3.0332128517329693e-05</internalNodes>
          <leafValues>
            2.9260638356208801e-01 -1.8582585453987122e-01</leafValues></_>
        <_>
          <internalNodes>
            0 -1 77 -8.1606768071651459e-03</internalNodes>
          <leafValues>
            4.1551256179809570e-01 -1.2401922047138214e-01</leafValues></_>
        <_>
          <internalNodes>
            0 -1 606 6.3778292387723923e-03</internalNodes>
          <leafValues>
            -1.4559014141559601e-01 3.6883145570755005e-01</leafValues></_>
        <_>
          <internalNodes>
            0 -1 643 -4.2901298002107069e-05</internalNodes>
          <leafValues>
            2.8593355417251587e-01 -2.0632119476795197e-01</leafValues></_>
        <_>
          <internalNodes>
            0 -1 247 -3.2763432711362839e-02</internalNodes>
          <leafValues>
            4.3707847595214844e-01 -1.2564635276794434e-01</leafValues></_>
        <_>
          <internalNodes>
            0 -1 268 1.7793892766349018e-04</internalNodes>
          <leafValues>
            -2.0514471828937531e-01 2.5380000472068787e-01</leafValues></_>
        <_>
          <internalNodes>
            0 -1 311 4.1387891396880150e-03</internalNodes>
          <leafValues>
            6.4714781939983368e-02 -7.5842803716659546e-01</leafValues></_>
        <_>
          <internalNodes>
            0 -1 411 -3.7643741961801425e-05</internalNodes>
          <leafValues>
            2.2335544228553772e-01 -2.2358684241771698e-01</leafValues></_>
        <_>
          <internalNodes>
            0 -1 320 6.5262001007795334e-03</internalNodes>
          <leafValues>
            -1.2000142782926559e-01 3.8276189565658569e-01</leafValues></_>
        <_>
          <internalNodes>
            0 -1 42 2.5052465498447418e-03</internalNodes>
          <leafValues>
            -1.2266080081462860e-01 4.2251035571098328e-01</leafValues></_>
        <_>
          <internalNodes>
            0 -1 12 -4.3667841237038374e-04</internalNodes>
          <leafValues>
            -4.7841501235961914e-01 1.1120507866144180e-01</leafValues></_>
        <_>
          <internalNodes>
            0 -1 12 3.9056071545928717e-04</internalNodes>
          <leafValues>
            1.0664823651313782e-01 -4.5041346549987793e-01</leafValues></_>
        <_>
          <internalNodes>
            0 -1 395 -5.0169886089861393e-03</internalNodes>
          <leafValues>
            4.4401678442955017e-01 -1.2342344224452972e-01</leafValues></_>
        <_>
          <internalNodes>
            0 -1 363 6.5306527540087700e-03</internalNodes>
          <leafValues>
            -1.1823258548974991e-01 4.8981815576553345e-01</leafValues></_></weakClassifiers></_>
    <!-- stage 4 -->
    <_>
      <maxWeakCount>34</maxWeakCount>
      <stageThreshold>-9.5175403356552124e-01</stageThreshold>
      <weakClassifiers>
        <_>
          <internalNodes>
            0 -1 604 -2.4042464792728424e-03</internalNodes>
          <leafValues>
            5.9412175416946411e-01 9.9706742912530899e-03</leafValues></_>
        <_>
          <internalNodes>
            0 -1 272 -4.0005827322602272e-03</internalNodes>
          <leafValues>
            4.7548714280128479e-01 -1.1332170665264130e-01</leafValues></_>
        <_>
          <internalNodes>
            0 -1 285 1.5296572819352150e-03</internalNodes>
          <leafValues>
            -2.0392753183841705e-01 2.6423513889312744e-01</leafValues></_>
        <_>
          <internalNodes>
            0 -1 217 -2.4311721324920654e-02</internalNodes>
          <leafValues>
            3.5267791152000427e-01 -1.9958820939064026e-01</leafValues></_>
        <_>
          <internalNodes>
            0 -1 638 9.2718433588743210e-03</internalNodes>
          <leafValues>
            -1.3707390427589417e-01 3.8840863108634949e-01</leafValues></_>
        <_>
          <internalNodes>
            0 -1 637 -6.6380701027810574e-03</internalNodes>
          <leafValues>
            4.2172703146934509e-01 -1.3237690925598145e-01</leafValues></_>
        <_>
          <internalNodes>
            0 -1 413 -3.5150216717738658e-05</internalNodes>
          <leafValues>
            2.0783232152462006e-01 -2.2358731925487518e-01</leafValues></_>
        <_>
          <internalNodes>
            0 -1 45 1.3695402070879936e-02</internalNodes>
          <leafValues>
            -9.2635206878185272e-02 5.0592082738876343e-01</leafValues></_>
        <_>
          <internalNodes>
            0 -1 26 -1.9448909442871809e-03</internalNodes>
          <leafValues>
            3.6659124493598938e-01 -1.4510215818881989e-01</leafValues></_>
        <_>
          <internalNodes>
            0 -1 70 4.1393451392650604e-02</internalNodes>
          <leafValues>
            -1.5396153926849365e-01 3.5682925581932068e-01</leafValues></_>
        <_>
          <internalNodes>
            0 -1 327 -3.3165194094181061e-02</internalNodes>
          <leafValues>
            6.3107144832611084e-01 -7.2483390569686890e-02</leafValues></_>
        <_>
          <internalNodes>
            0 -1 277 4.4145759195089340e-02</internalNodes>
          <leafValues>
            -1.3250167667865753e-01 3.5089710354804993e-01</leafValues></_>
        <_>
          <internalNodes>
            0 -1 495 9.8113226704299450e-04</internalNodes>
          <leafValues>
            6.8829759955406189e-02 -6.9866371154785156e-01</leafValues></_>
        <_>
          <internalNodes>
            0 -1 168 3.1990377465263009e-05</internalNodes>
          <leafValues>
            -1.8749995529651642e-01 2.4716910719871521e-01</leafValues></_>
        <_>
          <internalNodes>
            0 -1 481 -3.7873887777095661e-05</internalNodes>
          <leafValues>
            1.9735474884510040e-01 -2.2467799484729767e-01</leafValues></_>
        <_>
          <internalNodes>
            0 -1 556 1.5841232612729073e-02</internalNodes>
          <leafValues>
            -1.5918731689453125e-01 3.2095947861671448e-01</leafValues></_>
        <_>
          <internalNodes>
            0 -1 587 -2.2499460101244040e-05</internalNodes>
          <leafValues>
            2.5811621546745300e-01 -2.2910639643669128e-01</leafValues></_>
        <_>
          <internalNodes>
            0 -1 134 1.5125233912840486e-03</internalNodes>
          <leafValues>
            6.7926123738288879e-02 -6.0746085643768311e-01</leafValues></_>
        <_>
          <internalNodes>
            0 -1 196 -3.3406645059585571e-02</internalNodes>
          <leafValues>
            3.6320865154266357e-01 -1.3846510648727417e-01</leafValues></_>
        <_>
          <internalNodes>
            0 -1 237 -3.2084025442600250e-02</internalNodes>
          <leafValues>
            4.2582467198371887e-01 -1.0904929041862488e-01</leafValues></_>
        <_>
          <internalNodes>
            0 -1 452 -2.2716986015439034e-02</internalNodes>
          <leafValues>
            4.3344274163246155e-01 -9.1225363314151764e-02</leafValues></_>
        <_>
          <internalNodes>
            0 -1 718 5.3038159385323524e-03</internalNodes>
          <leafValues>
            -7.9541251063346863e-02 5.3360581398010254e-01</leafValues></_>
        <_>
          <internalNodes>
            0 -1 326 6.5040844492614269e-03</internalNodes>
          <leafValues>
            -5.9833519160747528e-02 6.3500148057937622e-01</leafValues></_>
        <_>
          <internalNodes>
            0 -1 314 -1.2742068618535995e-02</internalNodes>
          <leafValues>
            4.3206226825714111e-01 -9.4159744679927826e-02</leafValues></_>
        <_>
          <internalNodes>
            0 -1 758 9.1397989308461547e-04</internalNodes>
          <leafValues>
            7.3637105524539948e-02 -6.2133949995040894e-01</leafValues></_>
        <_>
          <internalNodes>
            0 -1 184 2.7011847123503685e-04</internalNodes>
          <leafValues>
            -1.4857922494411469e-01 2.9579925537109375e-01</leafValues></_>
        <_>
          <internalNodes>
            0 -1 157 -6.2074791640043259e-03</internalNodes>
          <leafValues>
            3.4727481007575989e-01 -1.1375203728675842e-01</leafValues></_>
        <_>
          <internalNodes>
            0 -1 214 5.2916857384843752e-05</internalNodes>
          <leafValues>
            -1.8373377621173859e-01 2.3869903385639191e-01</leafValues></_>
        <_>
          <internalNodes>
            0 -1 213 -2.7158159355167300e-05</internalNodes>
          <leafValues>
            2.3903189599514008e-01 -1.6936898231506348e-01</leafValues></_>
        <_>
          <internalNodes>
            0 -1 429 6.4351974288001657e-04</internalNodes>
          <leafValues>
            7.1221508085727692e-02 -5.7114654779434204e-01</leafValues></_>
        <_>
          <internalNodes>
            0 -1 644 -3.0598173907492310e-05</internalNodes>
          <leafValues>
            2.0190124213695526e-01 -1.8120642006397247e-01</leafValues></_>
        <_>
          <internalNodes>
            0 -1 686 -4.7755916602909565e-03</internalNodes>
          <leafValues>
            4.8681551218032837e-01 -8.1698633730411530e-02</leafValues></_>
        <_>
          <internalNodes>
            0 -1 124 -8.4488280117511749e-03</internalNodes>
          <leafValues>
            3.1896683573722839e-01 -1.2398572266101837e-01</leafValues></_>
        <_>
          <internalNodes>
            0 -1 301 -3.3130650990642607e-05</internalNodes>
          <leafValues>
            2.3901426792144775e-01 -1.4623735845088959e-01</leafValues></_></weakClassifiers></_>
    <!-- stage 5 -->
    <_>
      <maxWeakCount>15</maxWeakCount>
      <stageThreshold>-9.7780621051788330e-01</stageThreshold>
      <weakClassifiers>
        <_>
          <internalNodes>
            0 -1 135 -2.2491547279059887e-03</internalNodes>
          <leafValues>
            -6.4508390426635742e-01 4.1774016618728638e-01</leafValues></_>
        <_>
          <internalNodes>
            0 -1 31 3.1139284372329712e-01</internalNodes>
          <leafValues>
            -2.3101171851158142e-01 6.3127774000167847e-01</leafValues></_>
        <_>
          <internalNodes>
            0 -1 74 1.0724111925810575e-03</internalNodes>
          <leafValues>
            1.9824145734310150e-01 -6.6657221317291260e-01</leafValues></_>
        <_>
          <internalNodes>
            0 -1 751 9.9173700436949730e-04</internalNodes>
          <leafValues>
            1.4172632992267609e-01 -6.2255907058715820e-01</leafValues></_>
        <_>
          <internalNodes>
            0 -1 713 9.6007197862491012e-04</internalNodes>
          <leafValues>
            1.5861561894416809e-01 -5.5566275119781494e-01</leafValues></_>
        <_>
          <internalNodes>
            0 -1 713 -1.0448284447193146e-03</internalNodes>
          <leafValues>
            -5.4374670982360840e-01 1.6862745583057404e-01</leafValues></_>
        <_>
          <internalNodes>
            0 -1 707 -1.4761814381927252e-03</internalNodes>
          <leafValues>
            -5.2266627550125122e-01 1.4444436132907867e-01</leafValues></_>
        <_>
          <internalNodes>
            0 -1 627 -1.9193422049283981e-02</internalNodes>
          <leafValues>
            5.8593404293060303e-01 -1.8580794334411621e-01</leafValues></_>
        <_>
          <internalNodes>
            0 -1 632 1.0289440862834454e-02</internalNodes>
          <leafValues>
            -1.2487082928419113e-01 5.5626720190048218e-01</leafValues></_>
        <_>
          <internalNodes>
            0 -1 484 2.0197751000523567e-03</internalNodes>
          <leafValues>
            1.4353652298450470e-01 -5.6875407695770264e-01</leafValues></_>
        <_>
          <internalNodes>
            0 -1 46 2.2699993103742599e-02</internalNodes>
          <leafValues>
            -1.0566186159849167e-01 7.4984610080718994e-01</leafValues></_>
        <_>
          <internalNodes>
            0 -1 34 -2.8821695595979691e-02</internalNodes>
          <leafValues>
            6.9479125738143921e-01 -1.0356047749519348e-01</leafValues></_>
        <_>
          <internalNodes>
            0 -1 126 -1.3728133635595441e-03</internalNodes>
          <leafValues>
            -5.6641232967376709e-01 1.4467245340347290e-01</leafValues></_>
        <_>
          <internalNodes>
            0 -1 59 1.9647465087473392e-03</internalNodes>
          <leafValues>
            1.3807445764541626e-01 -6.0779035091400146e-01</leafValues></_>
        <_>
          <internalNodes>
            0 -1 79 1.4824067242443562e-02</internalNodes>
          <leafValues>
            -1.0737389326095581e-01 6.6432899236679077e-01</leafValues></_></weakClassifiers></_>
    <!-- stage 6 -->
    <_>
      <maxWeakCount>13</maxWeakCount>
      <stageThreshold>-9.2506301403045654e-01</stageThreshold>
      <weakClassifiers>
        <_>
          <internalNodes>
            0 -1 94 -3.3774627372622490e-03</internalNodes>
          <leafValues>
            -5.5803573131561279e-01 4.1548770666122437e-01</leafValues></_>
        <_>
          <internalNodes>
            0 -1 92 2.2374347317963839e-03</internalNodes>
          <leafValues>
            1.8474879860877991e-01 -7.2949355840682983e-01</leafValues></_>
        <_>
          <internalNodes>
            0 -1 23 3.7967982888221741e-01</internalNodes>
          <leafValues>
            -2.0607239007949829e-01 6.6596180200576782e-01</leafValues></_>
        <_>
          <internalNodes>
            0 -1 640 -2.1020779386162758e-03</internalNodes>
          <leafValues>
            -6.4462780952453613e-01 1.8226976692676544e-01</leafValues></_>
        <_>
          <internalNodes>
            0 -1 747 -9.0328732039779425e-04</internalNodes>
          <leafValues>
            -6.4519822597503662e-01 1.4576022326946259e-01</leafValues></_>
        <_>
          <internalNodes>
            0 -1 516 1.8888516351580620e-03</internalNodes>
          <leafValues>
            1.1335951834917068e-01 -7.0827376842498779e-01</leafValues></_>
        <_>
          <internalNodes>
            0 -1 519 -1.2935159029439092e-03</internalNodes>
          <leafValues>
            -6.3392359018325806e-01 1.4233539998531342e-01</leafValues></_>
        <_>
          <internalNodes>
            0 -1 680 -1.3884869404137135e-03</internalNodes>
          <leafValues>
            -5.9014838933944702e-01 8.0696575343608856e-02</leafValues></_>
        <_>
          <internalNodes>
            0 -1 27 -1.7458552028983831e-03</internalNodes>
          <leafValues>
            -6.8024259805679321e-01 1.1917132884263992e-01</leafValues></_>
        <_>
          <internalNodes>
            0 -1 612 -2.7741082012653351e-03</internalNodes>
          <leafValues>
            -7.2564190626144409e-01 9.2461287975311279e-02</leafValues></_>
        <_>
          <internalNodes>
            0 -1 397 -2.2145076654851437e-03</internalNodes>
          <leafValues>
            -6.3958567380905151e-01 9.9456690251827240e-02</leafValues></_>
        <_>
          <internalNodes>
            0 -1 443 -1.4096901286393404e-03</internalNodes>
          <leafValues>
            -4.8857316374778748e-01 1.2658688426017761e-01</leafValues></_>
        <_>
          <internalNodes>
            0 -1 52 -2.6565385051071644e-03</internalNodes>
          <leafValues>
            -6.2616807222366333e-01 8.3815626800060272e-02</leafValues></_></weakClassifiers></_>
    <!-- stage 7 -->
    <_>
      <maxWeakCount>26</maxWeakCount>
      <stageThreshold>-1.0375314950942993e+00</stageThreshold>
      <weakClassifiers>
        <_>
          <internalNodes>
            0 -1 458 -7.2258878499269485e-03</internalNodes>
          <leafValues>
            -4.1582149267196655e-01 4.0552821755409241e-01</leafValues></_>
        <_>
          <internalNodes>
            0 -1 356 -5.4049054160714149e-03</internalNodes>
          <leafValues>
            -4.8344081640243530e-01 1.8614329397678375e-01</leafValues></_>
        <_>
          <internalNodes>
            0 -1 257 -5.2486155182123184e-03</internalNodes>
          <leafValues>
            -4.8501333594322205e-01 1.6349989175796509e-01</leafValues></_>
        <_>
          <internalNodes>
            0 -1 186 -1.5436540544033051e-01</internalNodes>
          <leafValues>
            5.2825385332107544e-01 -1.4081744849681854e-01</leafValues></_>
        <_>
          <internalNodes>
            0 -1 641 1.0112741962075233e-02</internalNodes>
          <leafValues>
            1.1741760373115540e-01 -5.9146344661712646e-01</leafValues></_>
        <_>
          <internalNodes>
            0 -1 73 -1.4464085921645164e-02</internalNodes>
          <leafValues>
            -5.1265341043472290e-01 9.6506856381893158e-02</leafValues></_>
        <_>
          <internalNodes>
            0 -1 86 2.3487727157771587e-03</internalNodes>
          <leafValues>
            1.2532371282577515e-01 -5.3467220067977905e-01</leafValues></_>
        <_>
          <internalNodes>
            0 -1 450 -7.0244665257632732e-03</internalNodes>
          <leafValues>
            -4.8349738121032715e-01 1.3542656600475311e-01</leafValues></_>
        <_>
          <internalNodes>
            0 -1 450 9.7237648442387581e-03</internalNodes>
          <leafValues>
            8.7419629096984863e-02 -6.2643915414810181e-01</leafValues></_>
        <_>
          <internalNodes>
            0 -1 544 -6.7769724410027266e-04</internalNodes>
          <leafValues>
            -3.6295124888420105e-01 1.4708796143531799e-01</leafValues></_>
        <_>
          <internalNodes>
            0 -1 622 -6.7365536233410239e-04</internalNodes>
          <leafValues>
            -3.2263571023941040e-01 1.7983055114746094e-01</leafValues></_>
        <_>
          <internalNodes>
            0 -1 736 -1.2811855413019657e-03</internalNodes>
          <leafValues>
            6.5236049890518188e-01 -8.9428700506687164e-02</leafValues></_>
        <_>
          <internalNodes>
            0 -1 732 1.7589897615835071e-03</internalNodes>
          <leafValues>
            -1.0586972534656525e-01 5.5116599798202515e-01</leafValues></_>
        <_>
          <internalNodes>
            0 -1 409 1.0062320157885551e-02</internalNodes>
          <leafValues>
            1.0919649899005890e-01 -5.4816132783889771e-01</leafValues></_>
        <_>
          <internalNodes>
            0 -1 404 -1.8169155810028315e-03</internalNodes>
          <leafValues>
            -3.8921207189559937e-01 1.5923383831977844e-01</leafValues></_>
        <_>
          <internalNodes>
            0 -1 745 -1.8499611178413033e-03</internalNodes>
          <leafValues>
            -3.6885559558868408e-01 1.2399949133396149e-01</leafValues></_>
        <_>
          <internalNodes>
            0 -1 49 -4.3230382725596428e-03</internalNodes>
          <leafValues>
            7.2679823637008667e-01 -6.4147315919399261e-02</leafValues></_>
        <_>
          <internalNodes>
            0 -1 83 -5.5495509877800941e-04</internalNodes>
          <leafValues>
            -3.2125964760780334e-01 1.5646606683731079e-01</leafValues></_>
        <_>
          <internalNodes>
            0 -1 55 1.2496892595663667e-03</internalNodes>
          <leafValues>
            -7.1340739727020264e-02 6.7001754045486450e-01</leafValues></_>
        <_>
          <internalNodes>
            0 -1 246 -2.8093184810131788e-03</internalNodes>
          <leafValues>
            -5.6502598524093628e-01 8.3729781210422516e-02</leafValues></_>
        <_>
          <internalNodes>
            0 -1 570 -1.1406687553972006e-03</internalNodes>
          <leafValues>
            -3.4996005892753601e-01 1.1362942308187485e-01</leafValues></_>
        <_>
          <internalNodes>
            0 -1 743 -4.9573834985494614e-04</internalNodes>
          <leafValues>
            -3.7139016389846802e-01 1.1957510560750961e-01</leafValues></_>
        <_>
          <internalNodes>
            0 -1 7 -7.7107935212552547e-03</internalNodes>
          <leafValues>
            -4.2024213075637817e-01 9.1922610998153687e-02</leafValues></_>
        <_>
          <internalNodes>
            0 -1 412 -4.0907608345150948e-03</internalNodes>
          <leafValues>
            -3.1392446160316467e-01 1.3629476726055145e-01</leafValues></_>
        <_>
          <internalNodes>
            0 -1 261 -7.3221256025135517e-04</internalNodes>
          <leafValues>
            5.9476453065872192e-01 -7.4394576251506805e-02</leafValues></_>
        <_>
          <internalNodes>
            0 -1 0 -5.0641305278986692e-04</internalNodes>
          <leafValues>
            -3.1043288111686707e-01 1.3188526034355164e-01</leafValues></_></weakClassifiers></_>
    <!-- stage 8 -->
    <_>
      <maxWeakCount>49</maxWeakCount>
      <stageThreshold>-9.9642413854598999e-01</stageThreshold>
      <weakClassifiers>
        <_>
          <internalNodes>
            0 -1 22 9.9736541509628296e-02</internalNodes>
          <leafValues>
            6.1909757554531097e-02 6.0912054777145386e-01</leafValues></_>
        <_>
          <internalNodes>
            0 -1 271 -2.9846783727407455e-02</internalNodes>
          <leafValues>
            6.3174158334732056e-01 -7.2301857173442841e-02</leafValues></_>
        <_>
          <internalNodes>
            0 -1 258 4.1316736489534378e-02</internalNodes>
          <leafValues>
            7.1530260145664215e-02 -5.1899558305740356e-01</leafValues></_>
        <_>
          <internalNodes>
            0 -1 373 -1.4826245605945587e-03</internalNodes>
          <leafValues>
            -3.9357250928878784e-01 1.1365053802728653e-01</leafValues></_>
        <_>
          <internalNodes>
            0 -1 448 -1.8765246495604515e-03</internalNodes>
          <leafValues>
            -5.0064748525619507e-01 9.8411679267883301e-02</leafValues></_>
        <_>
          <internalNodes>
            0 -1 392 2.2028954699635506e-03</internalNodes>
          <leafValues>
            -1.0858982056379318e-01 4.1529104113578796e-01</leafValues></_>
        <_>
          <internalNodes>
            0 -1 607 -2.1765558049082756e-03</internalNodes>
          <leafValues>
            -4.7126263380050659e-01 9.7916476428508759e-02</leafValues></_>
        <_>
          <internalNodes>
            0 -1 461 2.5810697115957737e-03</internalNodes>
          <leafValues>
            4.9946993589401245e-02 -5.8516585826873779e-01</leafValues></_>
        <_>
          <internalNodes>
            0 -1 457 -9.9759793374687433e-04</internalNodes>
          <leafValues>
            -3.8751122355461121e-01 9.8621062934398651e-02</leafValues></_>
        <_>
          <internalNodes>
            0 -1 700 2.1131918765604496e-03</internalNodes>
          <leafValues>
            -9.5732711255550385e-02 4.2735528945922852e-01</leafValues></_>
        <_>
          <internalNodes>
            0 -1 515 -1.8182173371315002e-03</internalNodes>
          <leafValues>
            -4.6681818366050720e-01 6.5409503877162933e-02</leafValues></_>
        <_>
          <internalNodes>
            0 -1 139 2.1333801560103893e-03</internalNodes>
          <leafValues>
            -1.3740885257720947e-01 2.5604900717735291e-01</leafValues></_>
        <_>
          <internalNodes>
            0 -1 321 -7.9319011420011520e-03</internalNodes>
          <leafValues>
            6.4737796783447266e-01 -5.4032310843467712e-02</leafValues></_>
        <_>
          <internalNodes>
            0 -1 319 4.2591905221343040e-03</internalNodes>
          <leafValues>
            -6.3527248799800873e-02 5.2451372146606445e-01</leafValues></_>
        <_>
          <internalNodes>
            0 -1 609 -2.3096133023500443e-02</internalNodes>
          <leafValues>
            3.0012857913970947e-01 -1.1503976583480835e-01</leafValues></_>
        <_>
          <internalNodes>
            0 -1 588 2.4803558364510536e-02</internalNodes>
          <leafValues>
            -1.0613764822483063e-01 3.6613145470619202e-01</leafValues></_>
        <_>
          <internalNodes>
            0 -1 519 1.0835622670128942e-03</internalNodes>
          <leafValues>
            9.1636523604393005e-02 -4.2330700159072876e-01</leafValues></_>
        <_>
          <internalNodes>
            0 -1 300 3.6756023764610291e-03</internalNodes>
          <leafValues>
            -1.4802280068397522e-01 2.5275596976280212e-01</leafValues></_>
        <_>
          <internalNodes>
            0 -1 381 -1.5861387364566326e-03</internalNodes>
          <leafValues>
            2.9414305090904236e-01 -1.4620152115821838e-01</leafValues></_>
        <_>
          <internalNodes>
            0 -1 544 -3.6639586323872209e-04</internalNodes>
          <leafValues>
            -2.6323020458221436e-01 1.2864160537719727e-01</leafValues></_>
        <_>
          <internalNodes>
            0 -1 115 -2.4450727505609393e-04</internalNodes>
          <leafValues>
            -3.1474325060844421e-01 1.0511812567710876e-01</leafValues></_>
        <_>
          <internalNodes>
            0 -1 75 5.1960679702460766e-03</internalNodes>
          <leafValues>
            -8.4969393908977509e-02 4.0016949176788330e-01</leafValues></_>
        <_>
          <internalNodes>
            0 -1 241 -7.0012407377362251e-03</internalNodes>
          <leafValues>
            -3.5431241989135742e-01 9.4502247869968414e-02</leafValues></_>
        <_>
          <internalNodes>
            0 -1 345 -2.6692578103393316e-03</internalNodes>
          <leafValues>
            -5.6229650974273682e-01 5.7518176734447479e-02</leafValues></_>
        <_>
          <internalNodes>
            0 -1 183 3.8292567478492856e-04</internalNodes>
          <leafValues>
            -1.4982905983924866e-01 2.4552965164184570e-01</leafValues></_>
        <_>
          <internalNodes>
            0 -1 210 -3.7474213168025017e-03</internalNodes>
          <leafValues>
            3.6231672763824463e-01 -9.6556417644023895e-02</leafValues></_>
        <_>
          <internalNodes>
            0 -1 573 6.5967882983386517e-04</internalNodes>
          <leafValues>
            -1.2208944559097290e-01 2.6463970541954041e-01</leafValues></_>
        <_>
          <internalNodes>
            0 -1 733 -5.3795301355421543e-03</internalNodes>
          <leafValues>
            5.5168306827545166e-01 -5.6541439145803452e-02</leafValues></_>
        <_>
          <internalNodes>
            0 -1 297 -1.6801673918962479e-03</internalNodes>
          <leafValues>
            -3.7564599514007568e-01 8.8028930127620697e-02</leafValues></_>
        <_>
          <internalNodes>
            0 -1 499 -1.2284687254577875e-03</internalNodes>
          <leafValues>
            5.3742694854736328e-01 -6.5802291035652161e-02</leafValues></_>
        <_>
          <internalNodes>
            0 -1 662 -9.4299521297216415e-03</internalNodes>
          <leafValues>
            -5.1426494121551514e-01 6.6544391214847565e-02</leafValues></_>
        <_>
          <internalNodes>
            0 -1 674 -4.2235897853970528e-04</internalNodes>
          <leafValues>
            -2.9920223355293274e-01 9.7726792097091675e-02</leafValues></_>
        <_>
          <internalNodes>
            0 -1 69 1.6697846353054047e-02</internalNodes>
          <leafValues>
            -8.5341192781925201e-02 3.8435789942741394e-01</leafValues></_>
        <_>
          <internalNodes>
            0 -1 98 -1.4389150310307741e-03</internalNodes>
          <leafValues>
            -3.9609920978546143e-01 9.1040804982185364e-02</leafValues></_>
        <_>
          <internalNodes>
            0 -1 303 -8.7904259562492371e-03</internalNodes>
          <leafValues>
            7.3897343873977661e-01 -4.6096611768007278e-02</leafValues></_>
        <_>
          <internalNodes>
            0 -1 699 -2.1434633526951075e-03</internalNodes>
          <leafValues>
            4.2221033573150635e-01 -6.8235509097576141e-02</leafValues></_>
        <_>
          <internalNodes>
            0 -1 498 -2.5829058140516281e-03</internalNodes>
          <leafValues>
            6.1516034603118896e-01 -4.4580955058336258e-02</leafValues></_>
        <_>
          <internalNodes>
            0 -1 511 -3.7846877239644527e-04</internalNodes>
          <leafValues>
            1.9153815507888794e-01 -1.5468007326126099e-01</leafValues></_>
        <_>
          <internalNodes>
            0 -1 615 4.3678330257534981e-04</internalNodes>
          <leafValues>
            -1.6698853671550751e-01 1.9143007695674896e-01</leafValues></_>
        <_>
          <internalNodes>
            0 -1 355 -1.6346769407391548e-03</internalNodes>
          <leafValues>
            -4.5920684933662415e-01 7.6506443321704865e-02</leafValues></_>
        <_>
          <internalNodes>
            0 -1 620 -4.6085732174105942e-04</internalNodes>
          <leafValues>
            -3.2032063603401184e-01 9.4065360724925995e-02</leafValues></_>
        <_>
          <internalNodes>
            0 -1 331 1.1380227515473962e-03</internalNodes>
          <leafValues>
            -1.4562816917896271e-01 2.1155905723571777e-01</leafValues></_>
        <_>
          <internalNodes>
            0 -1 354 1.4569845516234636e-03</internalNodes>
          <leafValues>
            7.0602312684059143e-02 -4.3572667241096497e-01</leafValues></_>
        <_>
          <internalNodes>
            0 -1 562 -1.7054758500307798e-03</internalNodes>
          <leafValues>
            -3.3227014541625977e-01 8.8669024407863617e-02</leafValues></_>
        <_>
          <internalNodes>
            0 -1 3 -3.4386686980724335e-02</internalNodes>
          <leafValues>
            3.0687046051025391e-01 -1.0067331045866013e-01</leafValues></_>
        <_>
          <internalNodes>
            0 -1 279 4.8327054828405380e-03</internalNodes>
          <leafValues>
            -1.3226261734962463e-01 2.3744830489158630e-01</leafValues></_>
        <_>
          <internalNodes>
            0 -1 378 -3.5570956766605377e-02</internalNodes>
          <leafValues>
            3.3702349662780762e-01 -8.8790304958820343e-02</leafValues></_>
        <_>
          <internalNodes>
            0 -1 502 -9.8631600849330425e-04</internalNodes>
          <leafValues>
            4.2888641357421875e-01 -6.5082579851150513e-02</leafValues></_>
        <_>
          <internalNodes>
            0 -1 675 -1.4765100786462426e-04</internalNodes>
          <leafValues>
            -2.2601091861724854e-01 1.3113476336002350e-01</leafValues></_></weakClassifiers></_>
    <!-- stage 9 -->
    <_>
      <maxWeakCount>37</maxWeakCount>
      <stageThreshold>-9.1102904081344604e-01</stageThreshold>
      <weakClassifiers>
        <_>
          <internalNodes>
            0 -1 175 1.9379517436027527e-01</internalNodes>
          <leafValues>
            1.3896609656512737e-02 6.2996256351470947e-01</leafValues></_>
        <_>
          <internalNodes>
            0 -1 428 -5.0121720414608717e-04</internalNodes>
          <leafValues>
            -4.9181804060935974e-01 1.5424159169197083e-01</leafValues></_>
        <_>
          <internalNodes>
            0 -1 524 -7.1655819192528725e-04</internalNodes>
          <leafValues>
            -4.6441140770912170e-01 1.0257292538881302e-01</leafValues></_>
        <_>
          <internalNodes>
            0 -1 304 -2.6417136192321777e-02</internalNodes>
          <leafValues>
            5.9895080327987671e-01 -7.3584102094173431e-02</leafValues></_>
        <_>
          <internalNodes>
            0 -1 191 2.4792842566967010e-02</internalNodes>
          <leafValues>
            -1.3839498162269592e-01 4.8045283555984497e-01</leafValues></_>
        <_>
          <internalNodes>
            0 -1 5 -3.5706722736358643e-01</internalNodes>
          <leafValues>
            -5.6231868267059326e-01 6.5107733011245728e-02</leafValues></_>
        <_>
          <internalNodes>
            0 -1 621 6.2113709282130003e-04</internalNodes>
          <leafValues>
            9.5134884119033813e-02 -4.8277434706687927e-01</leafValues></_>
        <_>
          <internalNodes>
            0 -1 209 4.7380491159856319e-03</internalNodes>
          <leafValues>
            -2.1287900209426880e-01 2.0827570557594299e-01</leafValues></_>
        <_>
          <internalNodes>
            0 -1 227 6.2255799770355225e-02</internalNodes>
          <leafValues>
            -1.0143730789422989e-01 4.1838443279266357e-01</leafValues></_>
        <_>
          <internalNodes>
            0 -1 226 -6.1425097286701202e-02</internalNodes>
          <leafValues>
            5.5875945091247559e-01 -1.0259944945573807e-01</leafValues></_>
        <_>
          <internalNodes>
            0 -1 396 1.1514681391417980e-03</internalNodes>
          <leafValues>
            9.7117982804775238e-02 -4.5810768008232117e-01</leafValues></_>
        <_>
          <internalNodes>
            0 -1 386 1.9943122752010822e-03</internalNodes>
          <leafValues>
            -1.1639434099197388e-01 3.4077268838882446e-01</leafValues></_>
        <_>
          <internalNodes>
            0 -1 608 -1.1906411600648426e-05</internalNodes>
          <leafValues>
            1.7928300797939301e-01 -2.0641787350177765e-01</leafValues></_>
        <_>
          <internalNodes>
            0 -1 318 -8.1376358866691589e-02</internalNodes>
          <leafValues>
            4.4269385933876038e-01 -9.0703196823596954e-02</leafValues></_>
        <_>
          <internalNodes>
            0 -1 470 6.2707833945751190e-02</internalNodes>
          <leafValues>
            -1.0010337829589844e-01 3.6725857853889465e-01</leafValues></_>
        <_>
          <internalNodes>
            0 -1 491 1.0653017088770866e-03</internalNodes>
          <leafValues>
            8.6958505213260651e-02 -4.5601236820220947e-01</leafValues></_>
        <_>
          <internalNodes>
            0 -1 346 -2.7165347710251808e-03</internalNodes>
          <leafValues>
            5.3290665149688721e-01 -7.4898958206176758e-02</leafValues></_>
        <_>
          <internalNodes>
            0 -1 748 -7.3318067006766796e-04</internalNodes>
          <leafValues>
            -3.9911338686943054e-01 9.4987504184246063e-02</leafValues></_>
        <_>
          <internalNodes>
            0 -1 367 -1.5313074691221118e-03</internalNodes>
          <leafValues>
            2.9785048961639404e-01 -1.2450679391622543e-01</leafValues></_>
        <_>
          <internalNodes>
            0 -1 742 4.2271366692148149e-04</internalNodes>
          <leafValues>
            8.9676931500434875e-02 -4.0674862265586853e-01</leafValues></_>
        <_>
          <internalNodes>
            0 -1 468 -3.6827637813985348e-03</internalNodes>
          <leafValues>
            -5.3592103719711304e-01 5.7094931602478027e-02</leafValues></_>
        <_>
          <internalNodes>
            0 -1 33 -8.0234445631504059e-03</internalNodes>
          <leafValues>
            4.9042448401451111e-01 -7.6866120100021362e-02</leafValues></_>
        <_>
          <internalNodes>
            0 -1 287 1.0222871787846088e-03</internalNodes>
          <leafValues>
            -1.4124792814254761e-01 2.5968861579895020e-01</leafValues></_>
        <_>
          <internalNodes>
            0 -1 259 3.1392155215144157e-03</internalNodes>
          <leafValues>
            -8.3171799778938293e-02 3.9664894342422485e-01</leafValues></_>
        <_>
          <internalNodes>
            0 -1 274 -3.6696868482977152e-04</internalNodes>
          <leafValues>
            -3.6119115352630615e-01 1.0276631265878677e-01</leafValues></_>
        <_>
          <internalNodes>
            0 -1 403 3.5184701118851081e-05</internalNodes>
          <leafValues>
            -1.6140495240688324e-01 2.0453943312168121e-01</leafValues></_>
        <_>
          <internalNodes>
            0 -1 436 -4.2621348984539509e-03</internalNodes>
          <leafValues>
            3.2788607478141785e-01 -1.0799113661050797e-01</leafValues></_>
        <_>
          <internalNodes>
            0 -1 479 -1.3112100532453042e-05</internalNodes>
          <leafValues>
            1.8669258058071136e-01 -1.7364440858364105e-01</leafValues></_>
        <_>
          <internalNodes>
            0 -1 48 -6.3026025891304016e-02</internalNodes>
          <leafValues>
            3.2061696052551270e-01 -1.0381320118904114e-01</leafValues></_>
        <_>
          <internalNodes>
            0 -1 17 3.3469542860984802e-02</internalNodes>
          <leafValues>
            -1.5100446343421936e-01 2.5395128130912781e-01</leafValues></_>
        <_>
          <internalNodes>
            0 -1 24 5.1592849195003510e-04</internalNodes>
          <leafValues>
            7.9150944948196411e-02 -4.6020030975341797e-01</leafValues></_>
        <_>
          <internalNodes>
            0 -1 358 -5.6855753064155579e-03</internalNodes>
          <leafValues>
            5.8470714092254639e-01 -5.9425700455904007e-02</leafValues></_>
        <_>
          <internalNodes>
            0 -1 252 -1.0470360517501831e-02</internalNodes>
          <leafValues>
            5.5521106719970703e-01 -5.2948996424674988e-02</leafValues></_>
        <_>
          <internalNodes>
            0 -1 724 3.9235306903719902e-03</internalNodes>
          <leafValues>
            8.4879882633686066e-02 -4.3835186958312988e-01</leafValues></_>
        <_>
          <internalNodes>
            0 -1 591 2.4614285677671432e-02</internalNodes>
          <leafValues>
            -6.9675505161285400e-02 5.2547621726989746e-01</leafValues></_>
        <_>
          <internalNodes>
            0 -1 289 1.4591506123542786e-01</internalNodes>
          <leafValues>
            -7.7559821307659149e-02 4.0228417515754700e-01</leafValues></_>
        <_>
          <internalNodes>
            0 -1 158 -2.2888995707035065e-02</internalNodes>
          <leafValues>
            2.7388831973075867e-01 -1.4257405698299408e-01</leafValues></_></weakClassifiers></_>
    <!-- stage 10 -->
    <_>
      <maxWeakCount>43</maxWeakCount>
      <stageThreshold>-8.7113678455352783e-01</stageThreshold>
      <weakClassifiers>
        <_>
          <internalNodes>
            0 -1 199 1.6761079430580139e-01</internalNodes>
          <leafValues>
            6.3072778284549713e-02 5.8561378717422485e-01</leafValues></_>
        <_>
          <internalNodes>
            0 -1 293 2.9262628406286240e-02</internalNodes>
          <leafValues>
            -7.5544670224189758e-02 5.1932889223098755e-01</leafValues></_>
        <_>
          <internalNodes>
            0 -1 564 1.0548352292971686e-05</internalNodes>
          <leafValues>
            -2.0679977536201477e-01 2.6787647604942322e-01</leafValues></_>
        <_>
          <internalNodes>
            0 -1 440 1.6144064720720053e-03</internalNodes>
          <leafValues>
            -6.2089763581752777e-02 4.8521107435226440e-01</leafValues></_>
        <_>
          <internalNodes>
            0 -1 364 -3.0031842179596424e-03</internalNodes>
          <leafValues>
            4.7687771916389465e-01 -1.3342808187007904e-01</leafValues></_>
        <_>
          <internalNodes>
            0 -1 489 -1.1260621249675751e-03</internalNodes>
          <leafValues>
            -4.5633459091186523e-01 9.3345589935779572e-02</leafValues></_>
        <_>
          <internalNodes>
            0 -1 53 2.5216165184974670e-01</internalNodes>
          <leafValues>
            -1.0334680974483490e-01 4.2194509506225586e-01</leafValues></_>
        <_>
          <internalNodes>
            0 -1 299 -2.2991809993982315e-02</internalNodes>
          <leafValues>
            4.7477936744689941e-01 -8.7681740522384644e-02</leafValues></_>
        <_>
          <internalNodes>
            0 -1 424 3.0406655278056860e-03</internalNodes>
          <leafValues>
            -1.0011513531208038e-01 5.0748068094253540e-01</leafValues></_>
        <_>
          <internalNodes>
            0 -1 528 3.3680342312436551e-05</internalNodes>
          <leafValues>
            -1.5059486031532288e-01 2.9217401146888733e-01</leafValues></_>
        <_>
          <internalNodes>
            0 -1 764 -1.0395807912573218e-03</internalNodes>
          <leafValues>
            -3.0073711276054382e-01 1.2921909987926483e-01</leafValues></_>
        <_>
          <internalNodes>
            0 -1 142 2.3746103048324585e-02</internalNodes>
          <leafValues>
            -1.2939125299453735e-01 3.2245534658432007e-01</leafValues></_>
        <_>
          <internalNodes>
            0 -1 256 -1.2728267908096313e-01</internalNodes>
          <leafValues>
            4.0211537480354309e-01 -8.6996257305145264e-02</leafValues></_>
        <_>
          <internalNodes>
            0 -1 554 1.3735811080550775e-05</internalNodes>
          <leafValues>
            -1.6113211214542389e-01 2.2578021883964539e-01</leafValues></_>
        <_>
          <internalNodes>
            0 -1 390 -8.1086892168968916e-04</internalNodes>
          <leafValues>
            -3.9287367463111877e-01 9.8857678472995758e-02</leafValues></_>
        <_>
          <internalNodes>
            0 -1 50 3.4983316436409950e-03</internalNodes>
          <leafValues>
            -8.8382750749588013e-02 4.9926954507827759e-01</leafValues></_>
        <_>
          <internalNodes>
            0 -1 394 -2.0492407493293285e-03</internalNodes>
          <leafValues>
            -4.6723717451095581e-01 8.3601199090480804e-02</leafValues></_>
        <_>
          <internalNodes>
            0 -1 693 1.3653967762365937e-03</internalNodes>
          <leafValues>
            -1.1989410221576691e-01 3.4592863917350769e-01</leafValues></_>
        <_>
          <internalNodes>
            0 -1 684 -2.8417608700692654e-03</internalNodes>
          <leafValues>
            4.5088666677474976e-01 -6.9136798381805420e-02</leafValues></_>
        <_>
          <internalNodes>
            0 -1 597 -2.9256623238325119e-03</internalNodes>
          <leafValues>
            -6.2617528438568115e-01 7.0953398942947388e-02</leafValues></_>
        <_>
          <internalNodes>
            0 -1 307 8.4952497854828835e-03</internalNodes>
          <leafValues>
            -6.2999792397022247e-02 6.9103378057479858e-01</leafValues></_>
        <_>
          <internalNodes>
            0 -1 596 -1.0548352292971686e-05</internalNodes>
          <leafValues>
            1.8643088638782501e-01 -1.9277128577232361e-01</leafValues></_>
        <_>
          <internalNodes>
            0 -1 750 -3.4853001125156879e-04</internalNodes>
          <leafValues>
            -2.3143875598907471e-01 1.5502512454986572e-01</leafValues></_>
        <_>
          <internalNodes>
            0 -1 220 3.3592259569559246e-05</internalNodes>
          <leafValues>
            -1.5884351730346680e-01 2.3421600461006165e-01</leafValues></_>
        <_>
          <internalNodes>
            0 -1 541 -1.0306374169886112e-03</internalNodes>
          <leafValues>
            -4.3091878294944763e-01 8.4758400917053223e-02</leafValues></_>
        <_>
          <internalNodes>
            0 -1 288 -3.8686427287757397e-03</internalNodes>
          <leafValues>
            4.2479181289672852e-01 -8.5674405097961426e-02</leafValues></_>
        <_>
          <internalNodes>
            0 -1 56 -1.8702950328588486e-03</internalNodes>
          <leafValues>
            4.3417629599571228e-01 -7.4147485196590424e-02</leafValues></_>
        <_>
          <internalNodes>
            0 -1 276 -7.8850090503692627e-03</internalNodes>
          <leafValues>
            3.8914662599563599e-01 -8.2257620990276337e-02</leafValues></_>
        <_>
          <internalNodes>
            0 -1 543 -1.9513419829308987e-03</internalNodes>
          <leafValues>
            -4.8485562205314636e-01 7.2773307561874390e-02</leafValues></_>
        <_>
          <internalNodes>
            0 -1 410 3.0421706469496712e-05</internalNodes>
          <leafValues>
            -1.8370138108730316e-01 1.9197390973567963e-01</leafValues></_>
        <_>
          <internalNodes>
            0 -1 503 -5.5270218290388584e-03</internalNodes>
          <leafValues>
            2.8214356303215027e-01 -1.3720302283763885e-01</leafValues></_>
        <_>
          <internalNodes>
            0 -1 407 -2.9097420338075608e-05</internalNodes>
          <leafValues>
            2.5386604666709900e-01 -1.3999597728252411e-01</leafValues></_>
        <_>
          <internalNodes>
            0 -1 146 -1.9862562417984009e-01</internalNodes>
          <leafValues>
            -3.8107821345329285e-01 9.3293547630310059e-02</leafValues></_>
        <_>
          <internalNodes>
            0 -1 291 1.2348270502116065e-05</internalNodes>
          <leafValues>
            -2.2097513079643250e-01 1.5245307981967926e-01</leafValues></_>
        <_>
          <internalNodes>
            0 -1 239 1.3839712664776016e-05</internalNodes>
          <leafValues>
            -1.5579685568809509e-01 2.1243478357791901e-01</leafValues></_>
        <_>
          <internalNodes>
            0 -1 420 1.1856288183480501e-03</internalNodes>
          <leafValues>
            -9.1440178453922272e-02 3.7402492761611938e-01</leafValues></_>
        <_>
          <internalNodes>
            0 -1 569 -1.3504900380212348e-05</internalNodes>
          <leafValues>
            1.8747590482234955e-01 -1.7169000208377838e-01</leafValues></_>
        <_>
          <internalNodes>
            0 -1 141 -1.5205590170808136e-04</internalNodes>
          <leafValues>
            -2.6655372977256775e-01 1.2398459762334824e-01</leafValues></_>
        <_>
          <internalNodes>
            0 -1 408 -1.3300990758580156e-05</internalNodes>
          <leafValues>
            2.0699296891689301e-01 -1.5447634458541870e-01</leafValues></_>
        <_>
          <internalNodes>
            0 -1 194 -6.1649520648643374e-04</internalNodes>
          <leafValues>
            -2.7631103992462158e-01 1.2176995724439621e-01</leafValues></_>
        <_>
          <internalNodes>
            0 -1 625 2.8437867760658264e-02</internalNodes>
          <leafValues>
            -7.9976610839366913e-02 4.1817873716354370e-01</leafValues></_>
        <_>
          <internalNodes>
            0 -1 473 2.3691784590482712e-02</internalNodes>
          <leafValues>
            -1.0339798033237457e-01 3.1787273287773132e-01</leafValues></_>
        <_>
          <internalNodes>
            0 -1 536 -3.3764896215870976e-05</internalNodes>
          <leafValues>
            1.7679373919963837e-01 -2.2351461648941040e-01</leafValues></_></weakClassifiers></_>
    <!-- stage 11 -->
    <_>
      <maxWeakCount>47</maxWeakCount>
      <stageThreshold>-8.3297848701477051e-01</stageThreshold>
      <weakClassifiers>
        <_>
          <internalNodes>
            0 -1 270 -2.7753505855798721e-02</internalNodes>
          <leafValues>
            7.6612901687622070e-01 1.8423047661781311e-01</leafValues></_>
        <_>
          <internalNodes>
            0 -1 670 1.5382695943117142e-02</internalNodes>
          <leafValues>
            -3.7304591387510300e-02 6.5899509191513062e-01</leafValues></_>
        <_>
          <internalNodes>
            0 -1 112 -2.4223756918217987e-04</internalNodes>
          <leafValues>
            -3.6540547013282776e-01 8.8013187050819397e-02</leafValues></_>
        <_>
          <internalNodes>
            0 -1 729 1.8130920361727476e-03</internalNodes>
          <leafValues>
            -7.2085060179233551e-02 4.9932622909545898e-01</leafValues></_>
        <_>
          <internalNodes>
            0 -1 111 -3.5732024116441607e-04</internalNodes>
          <leafValues>
            -3.0353385210037231e-01 1.1797575652599335e-01</leafValues></_>
        <_>
          <internalNodes>
            0 -1 725 -4.5743938535451889e-03</internalNodes>
          <leafValues>
            5.2190482616424561e-01 -6.6669411957263947e-02</leafValues></_>
        <_>
          <internalNodes>
            0 -1 598 -6.1239283531904221e-03</internalNodes>
          <leafValues>
            -4.0133276581764221e-01 8.4691882133483887e-02</leafValues></_>
        <_>
          <internalNodes>
            0 -1 715 1.3180186506360769e-03</internalNodes>
          <leafValues>
            9.7747087478637695e-02 -4.1688677668571472e-01</leafValues></_>
        <_>
          <internalNodes>
            0 -1 197 7.3116667568683624e-02</internalNodes>
          <leafValues>
            -7.8106470406055450e-02 5.1074612140655518e-01</leafValues></_>
        <_>
          <internalNodes>
            0 -1 388 1.8535710405558348e-03</internalNodes>
          <leafValues>
            -1.0447736084461212e-01 3.7241587042808533e-01</leafValues></_>
        <_>
          <internalNodes>
            0 -1 344 -1.7666008323431015e-02</internalNodes>
          <leafValues>
            4.6770301461219788e-01 -9.7799122333526611e-02</leafValues></_>
        <_>
          <internalNodes>
            0 -1 353 -3.3922540023922920e-04</internalNodes>
          <leafValues>
            -3.7171298265457153e-01 9.3945570290088654e-02</leafValues></_>
        <_>
          <internalNodes>
            0 -1 590 -3.4645832784008235e-05</internalNodes>
          <leafValues>
            2.3064738512039185e-01 -1.4909020066261292e-01</leafValues></_>
        <_>
          <internalNodes>
            0 -1 253 -1.3660562690347433e-03</internalNodes>
          <leafValues>
            -3.9367896318435669e-01 9.3635223805904388e-02</leafValues></_>
        <_>
          <internalNodes>
            0 -1 398 -4.8897638916969299e-03</internalNodes>
          <leafValues>
            6.4093935489654541e-01 -5.0453286617994308e-02</leafValues></_>
        <_>
          <internalNodes>
            0 -1 469 -1.7130500636994839e-03</internalNodes>
          <leafValues>
            4.6410661935806274e-01 -6.6927738487720490e-02</leafValues></_>
        <_>
          <internalNodes>
            0 -1 38 1.1593384668231010e-02</internalNodes>
          <leafValues>
            7.3498606681823730e-02 -5.1450526714324951e-01</leafValues></_>
        <_>
          <internalNodes>
            0 -1 401 1.6168600413948298e-03</internalNodes>
          <leafValues>
            6.1550162732601166e-02 -4.9040585756301880e-01</leafValues></_>
        <_>
          <internalNodes>
            0 -1 131 -1.3860438484698534e-03</internalNodes>
          <leafValues>
            5.4076570272445679e-01 -6.6146105527877808e-02</leafValues></_>
        <_>
          <internalNodes>
            0 -1 125 2.2803414613008499e-03</internalNodes>
          <leafValues>
            -9.4143539667129517e-02 3.2744261622428894e-01</leafValues></_>
        <_>
          <internalNodes>
            0 -1 494 -4.7560845268890262e-04</internalNodes>
          <leafValues>
            -4.4024276733398438e-01 7.8070402145385742e-02</leafValues></_>
        <_>
          <internalNodes>
            0 -1 617 -1.2757313015754335e-05</internalNodes>
          <leafValues>
            2.1999162435531616e-01 -1.4315681159496307e-01</leafValues></_>
        <_>
          <internalNodes>
            0 -1 617 1.1906411600648426e-05</internalNodes>
          <leafValues>
            -1.6452251374721527e-01 1.9965758919715881e-01</leafValues></_>
        <_>
          <internalNodes>
            0 -1 492 9.9138985387980938e-04</internalNodes>
          <leafValues>
            5.9432905167341232e-02 -5.1658290624618530e-01</leafValues></_>
        <_>
          <internalNodes>
            0 -1 527 -1.3265515008242801e-05</internalNodes>
          <leafValues>
            1.9572223722934723e-01 -1.5535020828247070e-01</leafValues></_>
        <_>
          <internalNodes>
            0 -1 248 1.3545723049901426e-05</internalNodes>
          <leafValues>
            -1.3883593678474426e-01 2.1303321421146393e-01</leafValues></_>
        <_>
          <internalNodes>
            0 -1 172 -3.3136210404336452e-03</internalNodes>
          <leafValues>
            4.2966181039810181e-01 -6.8002834916114807e-02</leafValues></_>
        <_>
          <internalNodes>
            0 -1 766 -3.0275766039267182e-04</internalNodes>
          <leafValues>
            -3.2850286364555359e-01 9.7786501049995422e-02</leafValues></_>
        <_>
          <internalNodes>
            0 -1 496 3.4499447792768478e-05</internalNodes>
          <leafValues>
            -1.5039390325546265e-01 2.0342396199703217e-01</leafValues></_>
        <_>
          <internalNodes>
            0 -1 313 -3.7287669256329536e-03</internalNodes>
          <leafValues>
            4.5887663960456848e-01 -7.6113991439342499e-02</leafValues></_>
        <_>
          <internalNodes>
            0 -1 375 2.3725272621959448e-03</internalNodes>
          <leafValues>
            8.3463430404663086e-02 -4.2970001697540283e-01</leafValues></_>
        <_>
          <internalNodes>
            0 -1 658 1.6376976855099201e-03</internalNodes>
          <leafValues>
            6.6010408103466034e-02 -4.7125330567359924e-01</leafValues></_>
        <_>
          <internalNodes>
            0 -1 668 -8.2024303264915943e-04</internalNodes>
          <leafValues>
            4.0528374910354614e-01 -8.3308331668376923e-02</leafValues></_>
        <_>
          <internalNodes>
            0 -1 1 1.1364433448761702e-03</internalNodes>
          <leafValues>
            7.0160426199436188e-02 -4.6075174212455750e-01</leafValues></_>
        <_>
          <internalNodes>
            0 -1 6 -4.7343596816062927e-04</internalNodes>
          <leafValues>
            -3.5187461972236633e-01 9.6724309027194977e-02</leafValues></_>
        <_>
          <internalNodes>
            0 -1 645 2.7061896398663521e-03</internalNodes>
          <leafValues>
            -9.7705081105232239e-02 3.4645789861679077e-01</leafValues></_>
        <_>
          <internalNodes>
            0 -1 283 -3.3625088690314442e-05</internalNodes>
          <leafValues>
            2.2515991330146790e-01 -1.3429649174213409e-01</leafValues></_>
        <_>
          <internalNodes>
            0 -1 437 -1.8263101577758789e-02</internalNodes>
          <leafValues>
            5.4076194763183594e-01 -6.0407642275094986e-02</leafValues></_>
        <_>
          <internalNodes>
            0 -1 206 2.0311675034463406e-03</internalNodes>
          <leafValues>
            -1.4762632548809052e-01 2.0766404271125793e-01</leafValues></_>
        <_>
          <internalNodes>
            0 -1 740 -2.4034344824030995e-04</internalNodes>
          <leafValues>
            -2.1188732981681824e-01 1.4990048110485077e-01</leafValues></_>
        <_>
          <internalNodes>
            0 -1 64 -1.7845355905592442e-03</internalNodes>
          <leafValues>
            4.0046063065528870e-01 -7.6859056949615479e-02</leafValues></_>
        <_>
          <internalNodes>
            0 -1 81 1.3924688573752064e-05</internalNodes>
          <leafValues>
            -1.5486294031143188e-01 1.9094772636890411e-01</leafValues></_>
        <_>
          <internalNodes>
            0 -1 113 5.8516283752396703e-04</internalNodes>
          <leafValues>
            1.2610609829425812e-01 -2.4268068373203278e-01</leafValues></_>
        <_>
          <internalNodes>
            0 -1 357 -1.0198360541835427e-03</internalNodes>
          <leafValues>
            -2.6057720184326172e-01 1.2648575007915497e-01</leafValues></_>
        <_>
          <internalNodes>
            0 -1 458 8.3849355578422546e-03</internalNodes>
          <leafValues>
            6.6740736365318298e-02 -4.6432930231094360e-01</leafValues></_>
        <_>
          <internalNodes>
            0 -1 552 1.2151387636549771e-05</internalNodes>
          <leafValues>
            -1.5625339746475220e-01 2.0214188098907471e-01</leafValues></_>
        <_>
          <internalNodes>
            0 -1 235 1.4454293996095657e-03</internalNodes>
          <leafValues>
            -1.1146543920040131e-01 2.7897217869758606e-01</leafValues></_></weakClassifiers></_>
    <!-- stage 12 -->
    <_>
      <maxWeakCount>34</maxWeakCount>
      <stageThreshold>-9.3270146846771240e-01</stageThreshold>
      <weakClassifiers>
        <_>
          <internalNodes>
            0 -1 429 7.2682462632656097e-04</internalNodes>
          <leafValues>
            3.4498426318168640e-01 -4.4322344660758972e-01</leafValues></_>
        <_>
          <internalNodes>
            0 -1 429 1.3112100532453042e-05</internalNodes>
          <leafValues>
            -1.5021064877510071e-01 3.8583123683929443e-01</leafValues></_>
        <_>
          <internalNodes>
            0 -1 244 -7.1939431130886078e-02</internalNodes>
          <leafValues>
            4.8482033610343933e-01 -1.6137471795082092e-01</leafValues></_>
        <_>
          <internalNodes>
            0 -1 427 4.0971231646835804e-04</internalNodes>
          <leafValues>
            1.2232241779565811e-01 -4.0032657980918884e-01</leafValues></_>
        <_>
          <internalNodes>
            0 -1 744 -5.5117590818554163e-04</internalNodes>
          <leafValues>
            -3.9492192864418030e-01 1.1698254197835922e-01</leafValues></_>
        <_>
          <internalNodes>
            0 -1 189 1.3634020433528349e-05</internalNodes>
          <leafValues>
            -1.5514011681079865e-01 2.7800354361534119e-01</leafValues></_>
        <_>
          <internalNodes>
            0 -1 189 -1.1880808415298816e-05</internalNodes>
          <leafValues>
            2.6632326841354370e-01 -2.0293927192687988e-01</leafValues></_>
        <_>
          <internalNodes>
            0 -1 553 -2.2607451683143154e-05</internalNodes>
          <leafValues>
            1.8112160265445709e-01 -2.2906152904033661e-01</leafValues></_>
        <_>
          <internalNodes>
            0 -1 576 1.1880808415298816e-05</internalNodes>
          <leafValues>
            -1.6723029315471649e-01 2.6827839016914368e-01</leafValues></_>
        <_>
          <internalNodes>
            0 -1 576 -1.2971215255674906e-05</internalNodes>
          <leafValues>
            2.7050331234931946e-01 -1.9530162215232849e-01</leafValues></_>
        <_>
          <internalNodes>
            0 -1 765 -3.9590729284100235e-04</internalNodes>
          <leafValues>
            -3.8907495141029358e-01 1.1581575870513916e-01</leafValues></_>
        <_>
          <internalNodes>
            0 -1 238 -1.2348270502116065e-05</internalNodes>
          <leafValues>
            2.5267827510833740e-01 -1.8247525393962860e-01</leafValues></_>
        <_>
          <internalNodes>
            0 -1 238 2.6144378352910280e-05</internalNodes>
          <leafValues>
            -1.9901707768440247e-01 2.9069566726684570e-01</leafValues></_>
        <_>
          <internalNodes>
            0 -1 703 1.3628030195832253e-02</internalNodes>
          <leafValues>
            -6.3383348286151886e-02 6.6941958665847778e-01</leafValues></_>
        <_>
          <internalNodes>
            0 -1 561 3.2893177121877670e-03</internalNodes>
          <leafValues>
            -1.1380943655967712e-01 3.5464817285537720e-01</leafValues></_>
        <_>
          <internalNodes>
            0 -1 763 -3.4844988840632141e-04</internalNodes>
          <leafValues>
            -4.0032947063446045e-01 1.0901069641113281e-01</leafValues></_>
        <_>
          <internalNodes>
            0 -1 619 -2.3931303076096810e-05</internalNodes>
          <leafValues>
            2.5531405210494995e-01 -1.6826985776424408e-01</leafValues></_>
        <_>
          <internalNodes>
            0 -1 421 -8.2909991033375263e-04</internalNodes>
          <leafValues>
            -4.2230731248855591e-01 1.0481715202331543e-01</leafValues></_>
        <_>
          <internalNodes>
            0 -1 705 -1.0548352292971686e-05</internalNodes>
          <leafValues>
            2.4262417852878571e-01 -1.6305606067180634e-01</leafValues></_>
        <_>
          <internalNodes>
            0 -1 705 1.2151387636549771e-05</internalNodes>
          <leafValues>
            -1.7897766828536987e-01 2.3289339244365692e-01</leafValues></_>
        <_>
          <internalNodes>
            0 -1 362 -2.0370339043438435e-03</internalNodes>
          <leafValues>
            -4.7491100430488586e-01 9.3682706356048584e-02</leafValues></_>
        <_>
          <internalNodes>
            0 -1 123 2.3042494431138039e-03</internalNodes>
          <leafValues>
            -7.0854119956493378e-02 6.1063575744628906e-01</leafValues></_>
        <_>
          <internalNodes>
            0 -1 262 -2.3002858142717741e-05</internalNodes>
          <leafValues>
            2.6072824001312256e-01 -1.4478550851345062e-01</leafValues></_>
        <_>
          <internalNodes>
            0 -1 262 2.3049311494105496e-05</internalNodes>
          <leafValues>
            -1.8669129908084869e-01 2.3134118318557739e-01</leafValues></_>
        <_>
          <internalNodes>
            0 -1 273 3.2965090125799179e-02</internalNodes>
          <leafValues>
            -5.8230012655258179e-02 5.8725738525390625e-01</leafValues></_>
        <_>
          <internalNodes>
            0 -1 539 -4.5175524428486824e-03</internalNodes>
          <leafValues>
            3.9524149894714355e-01 -9.0063236653804779e-02</leafValues></_>
        <_>
          <internalNodes>
            0 -1 430 -9.8566524684429169e-04</internalNodes>
          <leafValues>
            -5.3023624420166016e-01 6.8710044026374817e-02</leafValues></_>
        <_>
          <internalNodes>
            0 -1 663 1.0004325304180384e-03</internalNodes>
          <leafValues>
            -8.0925934016704559e-02 5.1639670133590698e-01</leafValues></_>
        <_>
          <internalNodes>
            0 -1 659 -1.0666980415408034e-05</internalNodes>
          <leafValues>
            2.3378339409828186e-01 -1.5767818689346313e-01</leafValues></_>
        <_>
          <internalNodes>
            0 -1 659 2.4373000997002237e-05</internalNodes>
          <leafValues>
            -1.5748113393783569e-01 2.5401347875595093e-01</leafValues></_>
        <_>
          <internalNodes>
            0 -1 760 -4.1101023089140654e-04</internalNodes>
          <leafValues>
            -4.2690080404281616e-01 9.2611074447631836e-02</leafValues></_>
        <_>
          <internalNodes>
            0 -1 145 1.4683570712804794e-02</internalNodes>
          <leafValues>
            -1.0100288689136505e-01 3.9501488208770752e-01</leafValues></_>
        <_>
          <internalNodes>
            0 -1 447 -1.2348270502116065e-05</internalNodes>
          <leafValues>
            1.6950389742851257e-01 -2.2947813570499420e-01</leafValues></_>
        <_>
          <internalNodes>
            0 -1 179 -2.5051807824638672e-05</internalNodes>
          <leafValues>
            2.4698880314826965e-01 -1.5289433300495148e-01</leafValues></_></weakClassifiers></_>
    <!-- stage 13 -->
    <_>
      <maxWeakCount>48</maxWeakCount>
      <stageThreshold>-8.7583953142166138e-01</stageThreshold>
      <weakClassifiers>
        <_>
          <internalNodes>
            0 -1 176 2.9549005627632141e-01</internalNodes>
          <leafValues>
            8.7061084806919098e-02 6.4928907155990601e-01</leafValues></_>
        <_>
          <internalNodes>
            0 -1 71 9.5536343753337860e-02</internalNodes>
          <leafValues>
            -8.8856451213359833e-02 4.1306009888648987e-01</leafValues></_>
        <_>
          <internalNodes>
            0 -1 95 -1.8103152513504028e-02</internalNodes>
          <leafValues>
            4.2530423402786255e-01 -9.7969748079776764e-02</leafValues></_>
        <_>
          <internalNodes>
            0 -1 694 1.6479855403304100e-03</internalNodes>
          <leafValues>
            -1.2477882206439972e-01 3.0712682008743286e-01</leafValues></_>
        <_>
          <internalNodes>
            0 -1 689 -3.3517205156385899e-03</internalNodes>
          <leafValues>
            4.2911031842231750e-01 -1.1695998162031174e-01</leafValues></_>
        <_>
          <internalNodes>
            0 -1 656 -1.3442091876640916e-03</internalNodes>
          <leafValues>
            -3.8736736774444580e-01 8.8436901569366455e-02</leafValues></_>
        <_>
          <internalNodes>
            0 -1 230 -2.8299389407038689e-02</internalNodes>
          <leafValues>
            2.9843550920486450e-01 -1.1867861449718475e-01</leafValues></_>
        <_>
          <internalNodes>
            0 -1 61 -2.1760715171694756e-03</internalNodes>
          <leafValues>
            -4.8920446634292603e-01 7.2990208864212036e-02</leafValues></_>
        <_>
          <internalNodes>
            0 -1 218 2.7802390977740288e-02</internalNodes>
          <leafValues>
            3.2683096826076508e-02 -7.9405015707015991e-01</leafValues></_>
        <_>
          <internalNodes>
            0 -1 646 2.5420091114938259e-03</internalNodes>
          <leafValues>
            -1.2464464455842972e-01 2.5208133459091187e-01</leafValues></_>
        <_>
          <internalNodes>
            0 -1 296 2.7874419465661049e-03</internalNodes>
          <leafValues>
            -9.8044216632843018e-02 2.8552061319351196e-01</leafValues></_>
        <_>
          <internalNodes>
            0 -1 352 1.2780639808624983e-03</internalNodes>
          <leafValues>
            -1.3544517755508423e-01 2.2581371665000916e-01</leafValues></_>
        <_>
          <internalNodes>
            0 -1 165 -1.6211774200201035e-03</internalNodes>
          <leafValues>
            -5.1009577512741089e-01 7.0682764053344727e-02</leafValues></_>
        <_>
          <internalNodes>
            0 -1 67 3.4316619858145714e-03</internalNodes>
          <leafValues>
            -1.4929258823394775e-01 2.0512074232101440e-01</leafValues></_>
        <_>
          <internalNodes>
            0 -1 68 -5.7773422449827194e-03</internalNodes>
          <leafValues>
            3.1701508164405823e-01 -1.1080893129110336e-01</leafValues></_>
        <_>
          <internalNodes>
            0 -1 36 -1.8611883278936148e-03</internalNodes>
          <leafValues>
            -3.9343735575675964e-01 8.3818547427654266e-02</leafValues></_>
        <_>
          <internalNodes>
            0 -1 173 -8.2739157369360328e-04</internalNodes>
          <leafValues>
            -3.7974947690963745e-01 7.6774880290031433e-02</leafValues></_>
        <_>
          <internalNodes>
            0 -1 584 -5.4985405877232552e-03</internalNodes>
          <leafValues>
            1.8966732919216156e-01 -1.6284273564815521e-01</leafValues></_>
        <_>
          <internalNodes>
            0 -1 340 -1.6025182558223605e-03</internalNodes>
          <leafValues>
            3.0430799722671509e-01 -1.0226094722747803e-01</leafValues></_>
        <_>
          <internalNodes>
            0 -1 406 1.3309508562088013e-01</internalNodes>
          <leafValues>
            -6.1972387135028839e-02 4.9207264184951782e-01</leafValues></_>
        <_>
          <internalNodes>
            0 -1 282 1.6086723655462265e-02</internalNodes>
          <leafValues>
            -1.2200389057397842e-01 2.6800429821014404e-01</leafValues></_>
        <_>
          <internalNodes>
            0 -1 324 -3.3323699608445168e-03</internalNodes>
          <leafValues>
            3.1620821356773376e-01 -1.0073216259479523e-01</leafValues></_>
        <_>
          <internalNodes>
            0 -1 483 -6.8418943556025624e-04</internalNodes>
          <leafValues>
            1.8180412054061890e-01 -1.6190378367900848e-01</leafValues></_>
        <_>
          <internalNodes>
            0 -1 449 5.1722968928515911e-03</internalNodes>
          <leafValues>
            -1.2938356399536133e-01 2.9151040315628052e-01</leafValues></_>
        <_>
          <internalNodes>
            0 -1 753 -1.0418298188596964e-03</internalNodes>
          <leafValues>
            -4.1677650809288025e-01 7.4298009276390076e-02</leafValues></_>
        <_>
          <internalNodes>
            0 -1 57 2.3145978339016438e-03</internalNodes>
          <leafValues>
            -8.1272833049297333e-02 3.9147609472274780e-01</leafValues></_>
        <_>
          <internalNodes>
            0 -1 442 3.3845040888991207e-05</internalNodes>
          <leafValues>
            -1.4957590401172638e-01 1.7768213152885437e-01</leafValues></_>
        <_>
          <internalNodes>
            0 -1 57 -2.8370711952447891e-03</internalNodes>
          <leafValues>
            3.1875711679458618e-01 -8.4693387150764465e-02</leafValues></_>
        <_>
          <internalNodes>
            0 -1 533 -3.0430601909756660e-03</internalNodes>
          <leafValues>
            -4.0547847747802734e-01 7.7460438013076782e-02</leafValues></_>
        <_>
          <internalNodes>
            0 -1 310 1.8609501421451569e-03</internalNodes>
          <leafValues>
            5.2128568291664124e-02 -4.7259092330932617e-01</leafValues></_>
        <_>
          <internalNodes>
            0 -1 532 -9.0463331434875727e-04</internalNodes>
          <leafValues>
            1.6917683184146881e-01 -1.6650767624378204e-01</leafValues></_>
        <_>
          <internalNodes>
            0 -1 211 3.2509021461009979e-02</internalNodes>
          <leafValues>
            -1.1622505635023117e-01 2.4297684431076050e-01</leafValues></_>
        <_>
          <internalNodes>
            0 -1 441 2.8268294408917427e-03</internalNodes>
          <leafValues>
            5.7283040136098862e-02 -4.8999711871147156e-01</leafValues></_>
        <_>
          <internalNodes>
            0 -1 459 -2.8759380802512169e-03</internalNodes>
          <leafValues>
            2.5785967707633972e-01 -1.2306471168994904e-01</leafValues></_>
        <_>
          <internalNodes>
            0 -1 490 6.4187683165073395e-04</internalNodes>
          <leafValues>
            -9.3028485774993896e-02 2.8604653477668762e-01</leafValues></_>
        <_>
          <internalNodes>
            0 -1 517 -3.9851781912147999e-03</internalNodes>
          <leafValues>
            5.4192173480987549e-01 -5.0927139818668365e-02</leafValues></_>
        <_>
          <internalNodes>
            0 -1 431 1.0021274210885167e-03</internalNodes>
          <leafValues>
            -1.1137008666992188e-01 2.5044342875480652e-01</leafValues></_>
        <_>
          <internalNodes>
            0 -1 661 3.6975601688027382e-03</internalNodes>
          <leafValues>
            4.0753867477178574e-02 -7.0607680082321167e-01</leafValues></_>
        <_>
          <internalNodes>
            0 -1 163 1.9479955080896616e-03</internalNodes>
          <leafValues>
            -1.3456894457340240e-01 1.9091829657554626e-01</leafValues></_>
        <_>
          <internalNodes>
            0 -1 167 4.7217540442943573e-02</internalNodes>
          <leafValues>
            3.9330832660198212e-02 -6.9241803884506226e-01</leafValues></_>
        <_>
          <internalNodes>
            0 -1 212 1.8505142070353031e-03</internalNodes>
          <leafValues>
            -1.6475556790828705e-01 1.6698524355888367e-01</leafValues></_>
        <_>
          <internalNodes>
            0 -1 85 -1.7413424793630838e-03</internalNodes>
          <leafValues>
            -4.3261539936065674e-01 7.3772370815277100e-02</leafValues></_>
        <_>
          <internalNodes>
            0 -1 82 8.4193143993616104e-03</internalNodes>
          <leafValues>
            -1.0388351976871490e-01 2.9065811634063721e-01</leafValues></_>
        <_>
          <internalNodes>
            0 -1 76 -3.6271300632506609e-03</internalNodes>
          <leafValues>
            2.4529442191123962e-01 -1.2571649253368378e-01</leafValues></_>
        <_>
          <internalNodes>
            0 -1 309 -6.3207629136741161e-04</internalNodes>
          <leafValues>
            -3.5299357771873474e-01 7.9438343644142151e-02</leafValues></_>
        <_>
          <internalNodes>
            0 -1 188 -9.2741958796977997e-02</internalNodes>
          <leafValues>
            3.3590188622474670e-01 -8.5471592843532562e-02</leafValues></_>
        <_>
          <internalNodes>
            0 -1 541 -1.6420873580500484e-03</internalNodes>
          <leafValues>
            -5.9421569108963013e-01 5.2095271646976471e-02</leafValues></_>
        <_>
          <internalNodes>
            0 -1 688 -2.2607415448874235e-03</internalNodes>
          <leafValues>
            3.4909006953239441e-01 -9.0900547802448273e-02</leafValues></_></weakClassifiers></_>
    <!-- stage 14 -->
    <_>
      <maxWeakCount>60</maxWeakCount>
      <stageThreshold>-8.1574290990829468e-01</stageThreshold>
      <weakClassifiers>
        <_>
          <internalNodes>
            0 -1 13 4.7043883800506592e-01</internalNodes>
          <leafValues>
            1.2179487198591232e-01 6.3157892227172852e-01</leafValues></_>
        <_>
          <internalNodes>
            0 -1 20 3.9965674281120300e-02</internalNodes>
          <leafValues>
            -4.1496366262435913e-02 6.4475131034851074e-01</leafValues></_>
        <_>
          <internalNodes>
            0 -1 687 3.0568685382604599e-02</internalNodes>
          <leafValues>
            -1.0965640842914581e-01 4.9568727612495422e-01</leafValues></_>
        <_>
          <internalNodes>
            0 -1 669 -5.1355152390897274e-03</internalNodes>
          <leafValues>
            4.0314006805419922e-01 -8.5974253714084625e-02</leafValues></_>
        <_>
          <internalNodes>
            0 -1 746 4.5767612755298615e-04</internalNodes>
          <leafValues>
            1.0325720161199570e-01 -3.3182910084724426e-01</leafValues></_>
        <_>
          <internalNodes>
            0 -1 629 3.2687103375792503e-03</internalNodes>
          <leafValues>
            -1.1107514798641205e-01 2.7055287361145020e-01</leafValues></_>
        <_>
          <internalNodes>
            0 -1 80 1.3210868928581476e-03</internalNodes>
          <leafValues>
            6.2486264854669571e-02 -4.2683526873588562e-01</leafValues></_>
        <_>
          <internalNodes>
            0 -1 156 -2.5209577288478613e-03</internalNodes>
          <leafValues>
            4.4081437587738037e-01 -6.6459648311138153e-02</leafValues></_>
        <_>
          <internalNodes>
            0 -1 222 -1.1730564758181572e-02</internalNodes>
          <leafValues>
            5.9447592496871948e-01 -5.2982054650783539e-02</leafValues></_>
        <_>
          <internalNodes>
            0 -1 339 3.4387172199785709e-03</internalNodes>
          <leafValues>
            6.4176954329013824e-02 -5.0865751504898071e-01</leafValues></_>
        <_>
          <internalNodes>
            0 -1 159 7.6583283953368664e-04</internalNodes>
          <leafValues>
            -1.1565627157688141e-01 2.8480741381645203e-01</leafValues></_>
        <_>
          <internalNodes>
            0 -1 74 -5.8192317374050617e-04</internalNodes>
          <leafValues>
            -3.2565987110137939e-01 9.2164300382137299e-02</leafValues></_>
        <_>
          <internalNodes>
            0 -1 667 6.1331089818850160e-04</internalNodes>
          <leafValues>
            8.6234264075756073e-02 -2.9938220977783203e-01</leafValues></_>
        <_>
          <internalNodes>
            0 -1 108 -2.4349331215489656e-04</internalNodes>
          <leafValues>
            -2.6637610793113708e-01 9.5504708588123322e-02</leafValues></_>
        <_>
          <internalNodes>
            0 -1 137 2.7644643560051918e-03</internalNodes>
          <leafValues>
            -8.4155030548572540e-02 2.8623476624488831e-01</leafValues></_>
        <_>
          <internalNodes>
            0 -1 274 3.8401340134441853e-04</internalNodes>
          <leafValues>
            7.2104498744010925e-02 -3.3787608146667480e-01</leafValues></_>
        <_>
          <internalNodes>
            0 -1 136 -2.4518691934645176e-03</internalNodes>
          <leafValues>
            5.1194345951080322e-01 -5.0940733402967453e-02</leafValues></_>
        <_>
          <internalNodes>
            0 -1 709 -1.2065612827427685e-04</internalNodes>
          <leafValues>
            -2.2229355573654175e-01 1.1596798151731491e-01</leafValues></_>
        <_>
          <internalNodes>
            0 -1 231 -7.1487214881926775e-04</internalNodes>
          <leafValues>
            -3.2078450918197632e-01 7.7290304005146027e-02</leafValues></_>
        <_>
          <internalNodes>
            0 -1 151 2.4557239376008511e-03</internalNodes>
          <leafValues>
            -9.2025294899940491e-02 2.8678113222122192e-01</leafValues></_>
        <_>
          <internalNodes>
            0 -1 721 -7.1302736178040504e-03</internalNodes>
          <leafValues>
            4.2876765131950378e-01 -6.5103083848953247e-02</leafValues></_>
        <_>
          <internalNodes>
            0 -1 737 8.8160461746156216e-04</internalNodes>
          <leafValues>
            -8.1687055528163910e-02 3.0526024103164673e-01</leafValues></_>
        <_>
          <internalNodes>
            0 -1 154 -2.8936965391039848e-03</internalNodes>
          <leafValues>
            3.3627963066101074e-01 -7.0178970694541931e-02</leafValues></_>
        <_>
          <internalNodes>
            0 -1 434 -1.3200675603002310e-03</internalNodes>
          <leafValues>
            -3.6372113227844238e-01 7.8251473605632782e-02</leafValues></_>
        <_>
          <internalNodes>
            0 -1 529 -1.0096451267600060e-02</internalNodes>
          <leafValues>
            3.5477092862129211e-01 -7.0093326270580292e-02</leafValues></_>
        <_>
          <internalNodes>
            0 -1 664 -2.5616220664232969e-03</internalNodes>
          <leafValues>
            -6.2500774860382080e-01 4.4068370014429092e-02</leafValues></_>
        <_>
          <internalNodes>
            0 -1 435 9.8248757421970367e-04</internalNodes>
          <leafValues>
            -8.1513598561286926e-02 3.2277595996856689e-01</leafValues></_>
        <_>
          <internalNodes>
            0 -1 311 -1.1089850449934602e-03</internalNodes>
          <leafValues>
            -3.1864866614341736e-01 7.9420335590839386e-02</leafValues></_>
        <_>
          <internalNodes>
            0 -1 466 1.0003405623137951e-03</internalNodes>
          <leafValues>
            -6.0805592685937881e-02 4.2575916647911072e-01</leafValues></_>
        <_>
          <internalNodes>
            0 -1 108 4.0694393101148307e-04</internalNodes>
          <leafValues>
